FANN_FLO_2.1
num_layers=3
learning_rate=0.700000
connection_rate=1.000000
network_type=0
learning_momentum=0.000000
training_algorithm=2
train_error_function=1
train_stop_function=0
cascade_output_change_fraction=0.010000
quickprop_decay=-0.000100
quickprop_mu=1.750000
rprop_increase_factor=1.200000
rprop_decrease_factor=0.500000
rprop_delta_min=0.000000
rprop_delta_max=50.000000
rprop_delta_zero=0.100000
cascade_output_stagnation_epochs=12
cascade_candidate_change_fraction=0.010000
cascade_candidate_stagnation_epochs=12
cascade_max_out_epochs=150
cascade_min_out_epochs=50
cascade_max_cand_epochs=150
cascade_min_cand_epochs=50
cascade_num_candidate_groups=2
bit_fail_limit=3.49999994039535522461e-01
cascade_candidate_limit=1.00000000000000000000e+03
cascade_weight_multiplier=4.00000005960464477539e-01
cascade_activation_functions_count=10
cascade_activation_functions=3 5 7 8 10 11 14 15 16 17 
cascade_activation_steepnesses_count=4
cascade_activation_steepnesses=2.50000000000000000000e-01 5.00000000000000000000e-01 7.50000000000000000000e-01 1.00000000000000000000e+00 
layer_sizes=53 45 2 
scale_included=0
neurons (num_inputs, activation_function, activation_steepness)=(0, 0, 0.00000000000000000000e+00) (0, 0, 0.00000000000000000000e+00) (0, 0, 0.00000000000000000000e+00) (0, 0, 0.00000000000000000000e+00) (0, 0, 0.00000000000000000000e+00) (0, 0, 0.00000000000000000000e+00) (0, 0, 0.00000000000000000000e+00) (0, 0, 0.00000000000000000000e+00) (0, 0, 0.00000000000000000000e+00) (0, 0, 0.00000000000000000000e+00) (0, 0, 0.00000000000000000000e+00) (0, 0, 0.00000000000000000000e+00) (0, 0, 0.00000000000000000000e+00) (0, 0, 0.00000000000000000000e+00) (0, 0, 0.00000000000000000000e+00) (0, 0, 0.00000000000000000000e+00) (0, 0, 0.00000000000000000000e+00) (0, 0, 0.00000000000000000000e+00) (0, 0, 0.00000000000000000000e+00) (0, 0, 0.00000000000000000000e+00) (0, 0, 0.00000000000000000000e+00) (0, 0, 0.00000000000000000000e+00) (0, 0, 0.00000000000000000000e+00) (0, 0, 0.00000000000000000000e+00) (0, 0, 0.00000000000000000000e+00) (0, 0, 0.00000000000000000000e+00) (0, 0, 0.00000000000000000000e+00) (0, 0, 0.00000000000000000000e+00) (0, 0, 0.00000000000000000000e+00) (0, 0, 0.00000000000000000000e+00) (0, 0, 0.00000000000000000000e+00) (0, 0, 0.00000000000000000000e+00) (0, 0, 0.00000000000000000000e+00) (0, 0, 0.00000000000000000000e+00) (0, 0, 0.00000000000000000000e+00) (0, 0, 0.00000000000000000000e+00) (0, 0, 0.00000000000000000000e+00) (0, 0, 0.00000000000000000000e+00) (0, 0, 0.00000000000000000000e+00) (0, 0, 0.00000000000000000000e+00) (0, 0, 0.00000000000000000000e+00) (0, 0, 0.00000000000000000000e+00) (0, 0, 0.00000000000000000000e+00) (0, 0, 0.00000000000000000000e+00) (0, 0, 0.00000000000000000000e+00) (0, 0, 0.00000000000000000000e+00) (0, 0, 0.00000000000000000000e+00) (0, 0, 0.00000000000000000000e+00) (0, 0, 0.00000000000000000000e+00) (0, 0, 0.00000000000000000000e+00) (0, 0, 0.00000000000000000000e+00) (0, 0, 0.00000000000000000000e+00) (0, 0, 0.00000000000000000000e+00) (53, 5, 5.00000000000000000000e-01) (53, 5, 5.00000000000000000000e-01) (53, 5, 5.00000000000000000000e-01) (53, 5, 5.00000000000000000000e-01) (53, 5, 5.00000000000000000000e-01) (53, 5, 5.00000000000000000000e-01) (53, 5, 5.00000000000000000000e-01) (53, 5, 5.00000000000000000000e-01) (53, 5, 5.00000000000000000000e-01) (53, 5, 5.00000000000000000000e-01) (53, 5, 5.00000000000000000000e-01) (53, 5, 5.00000000000000000000e-01) (53, 5, 5.00000000000000000000e-01) (53, 5, 5.00000000000000000000e-01) (53, 5, 5.00000000000000000000e-01) (53, 5, 5.00000000000000000000e-01) (53, 5, 5.00000000000000000000e-01) (53, 5, 5.00000000000000000000e-01) (53, 5, 5.00000000000000000000e-01) (53, 5, 5.00000000000000000000e-01) (53, 5, 5.00000000000000000000e-01) (53, 5, 5.00000000000000000000e-01) (53, 5, 5.00000000000000000000e-01) (53, 5, 5.00000000000000000000e-01) (53, 5, 5.00000000000000000000e-01) (53, 5, 5.00000000000000000000e-01) (53, 5, 5.00000000000000000000e-01) (53, 5, 5.00000000000000000000e-01) (53, 5, 5.00000000000000000000e-01) (53, 5, 5.00000000000000000000e-01) (53, 5, 5.00000000000000000000e-01) (53, 5, 5.00000000000000000000e-01) (53, 5, 5.00000000000000000000e-01) (53, 5, 5.00000000000000000000e-01) (53, 5, 5.00000000000000000000e-01) (53, 5, 5.00000000000000000000e-01) (53, 5, 5.00000000000000000000e-01) (53, 5, 5.00000000000000000000e-01) (53, 5, 5.00000000000000000000e-01) (53, 5, 5.00000000000000000000e-01) (53, 5, 5.00000000000000000000e-01) (53, 5, 5.00000000000000000000e-01) (53, 5, 5.00000000000000000000e-01) (53, 5, 5.00000000000000000000e-01) (0, 5, 0.00000000000000000000e+00) (45, 5, 5.00000000000000000000e-01) (0, 5, 0.00000000000000000000e+00) 
connections (connected_to_neuron, weight)=(0, -1.99859612621366977692e-03) (1, 9.79190349578857421875e-01) (2, 2.27025485038757324219e+00) (3, -2.51283979415893554688e+00) (4, 3.18663382530212402344e+00) (5, 4.76298302412033081055e-01) (6, -5.97878694534301757812e-01) (7, 2.85712152719497680664e-01) (8, 3.93904685974121093750e-01) (9, 2.14748048782348632812e+00) (10, 1.00194513797760009766e+00) (11, -6.37046933174133300781e-01) (12, -7.31216788291931152344e-01) (13, 2.52210617065429687500e+00) (14, -2.16518855094909667969e+00) (15, 1.39848637580871582031e+00) (16, 1.06210142374038696289e-01) (17, -5.52797794342041015625e-01) (18, 1.17088961601257324219e+00) (19, -5.27336180210113525391e-01) (20, 6.65416669845581054688e+00) (21, 1.54753875732421875000e+00) (22, -1.21487960219383239746e-01) (23, -2.87345379590988159180e-01) (24, -1.82978108525276184082e-01) (25, -5.78429289162158966064e-02) (26, 3.06684803962707519531e+00) (27, 7.29360580444335937500e-01) (28, 1.04415261745452880859e+00) (29, -7.61153995990753173828e-01) (30, 6.14074409008026123047e-01) (31, 2.56028056144714355469e+00) (32, 2.78821730613708496094e+00) (33, 1.00926840305328369141e+00) (34, -6.44981265068054199219e-01) (35, -4.19167220592498779297e-01) (36, 3.46299815177917480469e+00) (37, -1.22883212566375732422e+00) (38, 6.54803216457366943359e-01) (39, 2.59807229042053222656e+00) (40, 1.36662518978118896484e+00) (41, -3.47433924674987792969e-01) (42, 7.23272919654846191406e-01) (43, 2.13377594947814941406e+00) (44, 4.32935953140258789062e+00) (45, -4.56063985824584960938e-01) (46, 3.86202186346054077148e-01) (47, 8.23944091796875000000e-01) (48, 1.30485439300537109375e+00) (49, 1.38605666160583496094e+00) (50, -8.61686110496520996094e-01) (51, 8.81379246711730957031e-01) (52, 2.60801386833190917969e+00) (0, -3.76745033264160156250e+01) (1, -3.09745826721191406250e+01) (2, -1.91161289215087890625e+01) (3, -2.47841620445251464844e+00) (4, -2.16941375732421875000e+01) (5, -3.77930908203125000000e+01) (6, -1.09959383010864257812e+01) (7, -1.72453861236572265625e+01) (8, -5.43193435668945312500e+01) (9, -6.24640235900878906250e+01) (10, -4.78399353027343750000e+01) (11, 1.34617090225219726562e+00) (12, -1.60691490173339843750e+01) (13, -2.82448558807373046875e+01) (14, -1.26968765258789062500e+01) (15, -2.21948566436767578125e+01) (16, -2.36919651031494140625e+01) (17, -2.70792312622070312500e+01) (18, -4.39269866943359375000e+01) (19, -7.20291328430175781250e+00) (20, -1.10398988723754882812e+01) (21, -1.30918579101562500000e+01) (22, -7.83930130004882812500e+01) (23, -1.26732988357543945312e+01) (24, 1.35400512695312500000e+03) (25, -8.44172363281250000000e+02) (26, -8.70421081542968750000e+02) (27, -8.76602294921875000000e+02) (28, -2.51696624755859375000e+01) (29, -3.57501449584960937500e+01) (30, -5.29997634887695312500e+01) (31, -3.60282087326049804688e+00) (32, -1.52299823760986328125e+01) (33, -1.26537466049194335938e+01) (34, -3.43102645874023437500e+01) (35, -5.31936340332031250000e+01) (36, -8.45838356018066406250e+00) (37, -3.31331329345703125000e+01) (38, -6.89151859283447265625e+00) (39, -4.73021774291992187500e+01) (40, -1.13510742187500000000e+01) (41, -1.11485252380371093750e+01) (42, -5.74812583923339843750e+01) (43, -3.79980049133300781250e+01) (44, -3.77286605834960937500e+01) (45, -1.11851615905761718750e+01) (46, -1.78095169067382812500e+01) (47, -1.83169651031494140625e+01) (48, -5.16426963806152343750e+01) (49, -1.42805614471435546875e+01) (50, -1.37708148956298828125e+01) (51, -1.99181346893310546875e+01) (52, 6.46027069091796875000e+01) (0, 3.53071928024291992188e+00) (1, -1.08539497852325439453e+00) (2, 2.14217498898506164551e-01) (3, 4.75608199834823608398e-01) (4, 1.05890560150146484375e+00) (5, 1.68464589118957519531e+00) (6, -4.48620080947875976562e-01) (7, 2.93402820825576782227e-01) (8, 5.06612539291381835938e+00) (9, 4.87816333770751953125e-01) (10, 1.10901761054992675781e+00) (11, -1.15466642379760742188e+00) (12, 5.86992692947387695312e+00) (13, -4.81105059385299682617e-01) (14, 6.91329061985015869141e-01) (15, -1.25398707389831542969e+00) (16, -3.39027023315429687500e+00) (17, 1.28490284085273742676e-01) (18, -2.71521031856536865234e-01) (19, 1.46324932575225830078e+00) (20, 1.25246763229370117188e+00) (21, -8.58592689037322998047e-01) (22, 6.37526655197143554688e+00) (23, -4.91681367158889770508e-01) (24, -1.47450876235961914062e+00) (25, 3.44986891746520996094e+00) (26, -2.42880129814147949219e+00) (27, 7.16582345962524414062e+00) (28, 5.15992529690265655518e-02) (29, 1.80978047847747802734e+00) (30, -5.85250437259674072266e-01) (31, 7.27324366569519042969e-01) (32, -4.72318939864635467529e-03) (33, 1.96690225601196289062e+00) (34, -2.88120716810226440430e-01) (35, -1.60521328449249267578e+00) (36, 1.44182324409484863281e-01) (37, 3.18482667207717895508e-01) (38, 5.64577639102935791016e-01) (39, 6.78269028663635253906e-01) (40, 1.83308565616607666016e+00) (41, -1.50537192821502685547e+00) (42, 1.26054733991622924805e-01) (43, 1.72215819358825683594e+00) (44, 8.77474367618560791016e-01) (45, 9.15822088718414306641e-01) (46, -1.88570186495780944824e-01) (47, 1.31157591938972473145e-01) (48, -2.89533168077468872070e-01) (49, 6.29657387733459472656e-01) (50, 7.65311717987060546875e-01) (51, 8.21680352091789245605e-02) (52, 2.83424830436706542969e+00) (0, -3.65710020065307617188e+00) (1, -2.54606747627258300781e+00) (2, -2.06177616119384765625e+00) (3, 1.12908387184143066406e+00) (4, -6.69582843780517578125e+00) (5, 2.24293661117553710938e+00) (6, -4.09159374237060546875e+00) (7, -1.47980988025665283203e+00) (8, -2.79741740226745605469e+00) (9, -1.72888147830963134766e+00) (10, -4.10330474376678466797e-01) (11, 4.03791338205337524414e-01) (12, -3.24369835853576660156e+00) (13, -4.01180458068847656250e+00) (14, 5.54143667221069335938e-01) (15, 1.19008094072341918945e-01) (16, 1.32406115531921386719e-01) (17, -2.21592617034912109375e+00) (18, -2.90664529800415039062e+00) (19, -2.15767240524291992188e+00) (20, 1.25124478340148925781e+00) (21, -2.69208967685699462891e-01) (22, -6.90147686004638671875e+00) (23, -2.07664275169372558594e+00) (24, -2.97310042381286621094e+00) (25, 9.79148685932159423828e-01) (26, -3.46741151809692382812e+00) (27, -2.64074182510375976562e+00) (28, -4.20995140075683593750e+00) (29, 3.41881322860717773438e+00) (30, -7.22395229339599609375e+00) (31, -3.28057336807250976562e+00) (32, -4.96607971191406250000e+00) (33, 2.07393154501914978027e-01) (34, -3.23631793260574340820e-01) (35, -8.02642631530761718750e+00) (36, -1.90603408813476562500e+01) (37, -1.16795015335083007812e+01) (38, 4.25253105163574218750e+01) (39, -1.45086545944213867188e+01) (40, -3.05541419982910156250e+00) (41, -7.50721037387847900391e-01) (42, 5.24923622608184814453e-01) (43, -1.83023715019226074219e+00) (44, -5.40617084503173828125e+00) (45, 1.06104183197021484375e+00) (46, -2.27831482887268066406e+00) (47, -2.65654969215393066406e+00) (48, -7.66020119190216064453e-01) (49, 1.04461491107940673828e-01) (50, -3.14017915725708007812e+00) (51, -2.05628848075866699219e+00) (52, 4.55809736251831054688e+00) (0, 6.71052312850952148438e+00) (1, -9.41058576107025146484e-01) (2, 2.87667131423950195312e+00) (3, 5.44621515274047851562e+00) (4, 1.75619518756866455078e+00) (5, 2.59417247772216796875e+00) (6, 1.51087260246276855469e+00) (7, 8.31757640838623046875e+00) (8, -1.77169990539550781250e+00) (9, 6.46428155899047851562e+00) (10, 1.33250439167022705078e+00) (11, 2.25906848907470703125e+00) (12, -1.96181607246398925781e+00) (13, 1.27692377567291259766e+00) (14, 7.70499086380004882812e+00) (15, 4.20100927352905273438e+00) (16, 1.13067948818206787109e+00) (17, 1.69982779026031494141e+00) (18, 3.43890309333801269531e+00) (19, 4.92194366455078125000e+00) (20, 8.01759362220764160156e-01) (21, 8.82783985137939453125e+00) (22, -3.42159658670425415039e-01) (23, 4.56499099731445312500e+00) (24, 1.75176982879638671875e+01) (25, -8.21504974365234375000e+01) (26, 2.48753147125244140625e+01) (27, 1.80279006958007812500e+01) (28, 1.34078919887542724609e+00) (29, 7.22015094757080078125e+00) (30, 1.73569118976593017578e+00) (31, -1.30595043301582336426e-01) (32, 3.43118023872375488281e+00) (33, 9.21948552131652832031e-01) (34, 1.16694345474243164062e+01) (35, 4.21005308628082275391e-01) (36, 5.59185647964477539062e+00) (37, 4.47045993804931640625e+00) (38, 1.51394888758659362793e-01) (39, 3.19926571846008300781e+00) (40, -3.27912792563438415527e-02) (41, 3.03300571441650390625e+00) (42, 3.57208919525146484375e+00) (43, 6.56617450714111328125e+00) (44, 1.31794285774230957031e+00) (45, 3.54401063919067382812e+00) (46, 1.37054300308227539062e+00) (47, 4.84443759918212890625e+00) (48, 1.05606803894042968750e+01) (49, 4.82086896896362304688e+00) (50, 2.41868805885314941406e+00) (51, -2.03779840469360351562e+00) (52, 1.02051258087158203125e+00) (0, 3.29654979705810546875e+00) (1, 9.09171402454376220703e-01) (2, 8.12379419803619384766e-01) (3, 3.90941262245178222656e-01) (4, -1.88014876842498779297e+00) (5, 1.11317241191864013672e+00) (6, 6.08969151973724365234e-01) (7, 4.50831651687622070312e+00) (8, -8.52247536182403564453e-01) (9, -1.37162768840789794922e+00) (10, 1.77221572399139404297e+00) (11, 3.35409140586853027344e+00) (12, 3.50128316879272460938e+00) (13, 8.29390227794647216797e-01) (14, 3.39804077148437500000e+00) (15, -4.62121486663818359375e+00) (16, 7.71017503738403320312e+00) (17, 5.25643765926361083984e-01) (18, 8.70746135711669921875e-01) (19, -2.46995449066162109375e+00) (20, 4.50628566741943359375e+00) (21, -3.85981583595275878906e+00) (22, 1.27019748687744140625e+01) (23, 1.12594509124755859375e+00) (24, -5.37709951400756835938e-01) (25, 8.01948547363281250000e+00) (26, -5.00975799560546875000e+00) (27, 6.54486775398254394531e-01) (28, 8.62401008605957031250e-01) (29, 2.99551963806152343750e+00) (30, -1.10845661163330078125e+00) (31, -6.48615419864654541016e-01) (32, 3.00720222294330596924e-02) (33, -3.49835813045501708984e-01) (34, -9.00319516658782958984e-02) (35, 4.28592205047607421875e+00) (36, -9.69845652580261230469e-02) (37, -5.70061028003692626953e-01) (38, 6.94935846328735351562e+00) (39, -2.98951101303100585938e+00) (40, 1.83321132659912109375e+01) (41, -5.95947122573852539062e+00) (42, 1.05492091178894042969e+00) (43, 2.07922577857971191406e+00) (44, 9.84538745880126953125e+00) (45, 5.02815246582031250000e-02) (46, -6.42750501632690429688e-01) (47, 1.89221918582916259766e+00) (48, 1.47521924972534179688e+00) (49, 3.80121994018554687500e+00) (50, -6.23417258262634277344e-01) (51, -3.58205735683441162109e-01) (52, 2.32003068923950195312e+00) (0, 1.41516555786132812500e+02) (1, 4.71050548553466796875e+00) (2, 1.43326177597045898438e+01) (3, -1.26779146194458007812e+01) (4, -9.38243293762207031250e+00) (5, -5.26965570449829101562e+00) (6, 5.04825286865234375000e+01) (7, 2.68839111328125000000e+01) (8, -9.92476806640625000000e+01) (9, 2.83961620330810546875e+01) (10, 1.27788105010986328125e+01) (11, 1.12269142150878906250e+02) (12, 1.97793567180633544922e+00) (13, 4.80249118804931640625e+00) (14, 1.14082069396972656250e+01) (15, 3.44000930786132812500e+01) (16, -2.69540481567382812500e+01) (17, 1.13557678222656250000e+02) (18, 2.17773208618164062500e+01) (19, -3.77401280403137207031e+00) (20, 1.29886484146118164062e+01) (21, 5.83957815170288085938e+00) (22, 1.09995117187500000000e+02) (23, 6.06770157814025878906e-01) (24, 5.40742683410644531250e+01) (25, -1.17913808822631835938e+01) (26, 2.20964698791503906250e+01) (27, 1.54808959960937500000e+01) (28, -2.55112323760986328125e+01) (29, -3.67380790710449218750e+01) (30, 1.07577903747558593750e+02) (31, 5.03668022155761718750e+01) (32, 1.19535224914550781250e+02) (33, -2.87309455871582031250e+01) (34, -7.35800552368164062500e+01) (35, 1.85472549438476562500e+02) (36, -3.68753318786621093750e+01) (37, 8.26076126098632812500e+00) (38, 6.82497940063476562500e+01) (39, 3.46133270263671875000e+01) (40, 1.00150709152221679688e+01) (41, 3.72243614196777343750e+01) (42, 1.78478464484214782715e-01) (43, 5.17314815521240234375e+00) (44, 3.54880104064941406250e+01) (45, -3.39126157760620117188e+00) (46, 5.53551864624023437500e+01) (47, -5.33782196044921875000e+00) (48, -6.35738601684570312500e+01) (49, 5.70802612304687500000e+01) (50, 1.84532082080841064453e+00) (51, 5.45183029174804687500e+01) (52, -7.80032515525817871094e-01) (0, -1.55378532409667968750e+00) (1, 3.44683861732482910156e+00) (2, -5.85839939117431640625e+00) (3, 2.16709733009338378906e+00) (4, -1.19269008636474609375e+01) (5, 1.90754187107086181641e+00) (6, 1.47891569137573242188e+00) (7, -1.73102766275405883789e-01) (8, -8.53744602203369140625e+00) (9, 3.38443231582641601562e+00) (10, -1.17973494529724121094e+00) (11, 1.11549413204193115234e+00) (12, -1.92613315582275390625e+00) (13, -8.13950777053833007812e-01) (14, -2.10075810551643371582e-01) (15, 1.67827212810516357422e+00) (16, -1.83022956848144531250e+01) (17, -5.32355606555938720703e-01) (18, 1.34520506858825683594e+00) (19, 3.65282154083251953125e+00) (20, -8.09805583953857421875e+00) (21, 5.39313745498657226562e+00) (22, -7.88047695159912109375e+00) (23, 1.70083391666412353516e+00) (24, -8.14877891540527343750e+00) (25, 2.20368862152099609375e+00) (26, -1.23527094721794128418e-01) (27, 1.57996273040771484375e+00) (28, -6.51281833648681640625e+00) (29, 2.13645768165588378906e+00) (30, -1.13725864887237548828e+00) (31, 4.34933280944824218750e+00) (32, -1.25953567028045654297e+00) (33, 2.52173781394958496094e+00) (34, 2.32424402236938476562e+00) (35, -6.45776510238647460938e+00) (36, -5.99970674514770507812e+00) (37, -1.86744105815887451172e+00) (38, 4.17241096496582031250e+00) (39, 3.57634216547012329102e-01) (40, 1.01345634460449218750e+00) (41, 2.13987660408020019531e+00) (42, -2.20348024368286132812e+00) (43, -1.30477833747863769531e+00) (44, -3.48598897457122802734e-01) (45, 8.30534458160400390625e-01) (46, -2.83839297294616699219e+00) (47, 1.01086723804473876953e+00) (48, 8.36316967010498046875e+00) (49, -1.27805328369140625000e+00) (50, -2.71333646774291992188e+00) (51, -2.26647472381591796875e+00) (52, 3.59509754180908203125e+00) (0, -2.62297660112380981445e-01) (1, 4.27735900878906250000e+00) (2, 1.03441286087036132812e+00) (3, -3.79753136634826660156e+00) (4, 7.33916044235229492188e+00) (5, -1.33927893638610839844e+00) (6, 2.89548206329345703125e+00) (7, -5.40085613727569580078e-01) (8, 7.20232677459716796875e+00) (9, 1.39134120941162109375e+00) (10, -1.93282330036163330078e+00) (11, 5.29320240020751953125e-01) (12, 7.00828790664672851562e-01) (13, -8.42591166496276855469e-01) (14, -2.08753310143947601318e-02) (15, 3.82676768302917480469e+00) (16, -5.50039815902709960938e+00) (17, -7.30083137750625610352e-02) (18, 8.90432167053222656250e+00) (19, 2.47350001335144042969e+00) (20, 5.51125812530517578125e+00) (21, -8.51145565509796142578e-01) (22, -6.38550341129302978516e-01) (23, 3.56095886230468750000e+00) (24, 4.05133676528930664062e+00) (25, 2.10510683059692382812e+00) (26, -8.70850980281829833984e-01) (27, 3.23496103286743164062e-01) (28, 4.90557718276977539062e+00) (29, 4.02349233627319335938e+00) (30, 1.45189464092254638672e-01) (31, -2.19958233833312988281e+00) (32, 1.09353675842285156250e+01) (33, 2.98121619224548339844e+00) (34, -1.25387656688690185547e+00) (35, -1.27652072906494140625e+00) (36, 6.71349465847015380859e-01) (37, 3.38551610708236694336e-01) (38, 4.61683720350265502930e-01) (39, 2.80539655685424804688e+00) (40, -2.41941481828689575195e-01) (41, 3.51985621452331542969e+00) (42, 2.23733901977539062500e+00) (43, -1.07760024070739746094e+00) (44, 3.00285291671752929688e+00) (45, -2.00244212150573730469e+00) (46, 1.89015698432922363281e+00) (47, 1.19505190849304199219e+00) (48, -3.44093942642211914062e+00) (49, 1.33144855499267578125e+00) (50, 1.16907513141632080078e+00) (51, 2.13135147094726562500e+00) (52, 2.56893515586853027344e+00) (0, 1.14856319427490234375e+01) (1, 8.33627414703369140625e+00) (2, 1.51735620498657226562e+01) (3, 1.73594760894775390625e+01) (4, 1.62116413116455078125e+01) (5, 1.40248355865478515625e+01) (6, 1.67251873016357421875e+01) (7, 2.29548854827880859375e+01) (8, 1.22421264648437500000e+01) (9, 1.87836551666259765625e+01) (10, 1.18496208190917968750e+01) (11, 1.23487119674682617188e+01) (12, 1.80535926818847656250e+01) (13, 1.82387046813964843750e+01) (14, 1.01822490692138671875e+01) (15, 1.55951099395751953125e+01) (16, 1.60483379364013671875e+01) (17, 1.38330001831054687500e+01) (18, 1.80852146148681640625e+01) (19, 7.62448024749755859375e+00) (20, 2.16816940307617187500e+01) (21, 8.56603431701660156250e+00) (22, 1.24141378402709960938e+01) (23, 2.12319164276123046875e+01) (24, 1.48305200195312500000e+03) (25, -3.78199005126953125000e+02) (26, 2.94516849517822265625e+01) (27, 1.50000000000000000000e+03) (28, 3.12901210784912109375e+01) (29, 1.27119159698486328125e+01) (30, 2.59543609619140625000e+01) (31, 2.33190612792968750000e+01) (32, 5.57023906707763671875e+00) (33, 1.66165008544921875000e+01) (34, 2.36283855438232421875e+01) (35, 2.01196842193603515625e+01) (36, 2.00147132873535156250e+01) (37, 1.44339704513549804688e+01) (38, 1.88506679534912109375e+01) (39, 4.69071722030639648438e+00) (40, 1.16428327560424804688e+01) (41, 1.30645265579223632812e+01) (42, 1.79785785675048828125e+01) (43, 1.41708602905273437500e+01) (44, 2.34846496582031250000e+01) (45, 1.52194290161132812500e+01) (46, 3.04675922393798828125e+01) (47, 2.31308403015136718750e+01) (48, 9.58281135559082031250e+00) (49, 2.02094230651855468750e+01) (50, 8.61984920501708984375e+00) (51, 2.56418247222900390625e+01) (52, -3.05302858352661132812e+00) (0, 2.39705634117126464844e+00) (1, -8.13628494739532470703e-01) (2, 2.28895020484924316406e+00) (3, 4.75972533226013183594e-01) (4, 4.03916025161743164062e+00) (5, -2.06851196289062500000e+00) (6, 2.53520369529724121094e+00) (7, 1.59247410297393798828e+00) (8, 2.81940579414367675781e+00) (9, -8.43032076954841613770e-02) (10, 5.23784017562866210938e+00) (11, -4.34790998697280883789e-01) (12, -4.08378934860229492188e+00) (13, 1.92318272590637207031e+00) (14, 3.43546676635742187500e+00) (15, -6.25646293163299560547e-01) (16, 1.79221987724304199219e+00) (17, -1.27651607990264892578e+00) (18, 1.18179631233215332031e+00) (19, 8.59263837337493896484e-01) (20, -6.75331711769104003906e-01) (21, -1.49680864810943603516e+00) (22, 2.16338920593261718750e+00) (23, 2.26375412940979003906e+00) (24, 2.73674869537353515625e+00) (25, 1.42945766448974609375e+00) (26, -9.64458227157592773438e-01) (27, -3.14025743864476680756e-03) (28, 9.28846776485443115234e-01) (29, 2.53732830286026000977e-01) (30, 3.24919313192367553711e-01) (31, 3.13893461227416992188e+00) (32, 5.37817001342773437500e+00) (33, 9.84214723110198974609e-01) (34, 3.79833310842514038086e-01) (35, 5.65672278404235839844e-01) (36, 5.57062816619873046875e+00) (37, 3.88681858777999877930e-01) (38, 5.98881959915161132812e-01) (39, -1.67113590240478515625e+00) (40, 3.47759389877319335938e+00) (41, -1.81068658828735351562e-01) (42, 6.47584390640258789062e+00) (43, -2.16724872589111328125e+00) (44, -1.06866724789142608643e-01) (45, 2.40763568878173828125e+00) (46, 7.38359212875366210938e-01) (47, 8.83358478546142578125e-01) (48, -1.08130300045013427734e+00) (49, -1.90221164375543594360e-02) (50, 1.06900680065155029297e+00) (51, 1.40994405746459960938e+00) (52, 2.78812623023986816406e+00) (0, -1.09190046787261962891e+00) (1, 4.25230950117111206055e-01) (2, 5.37645959854125976562e+00) (3, -1.30721485614776611328e+00) (4, 1.64009552001953125000e+01) (5, -2.53916192054748535156e+00) (6, 1.08815784454345703125e+01) (7, -9.23001194000244140625e+00) (8, 5.13859748840332031250e+00) (9, 6.95851898193359375000e+00) (10, -6.06503868103027343750e+00) (11, 2.22538605332374572754e-01) (12, -6.26987266540527343750e+00) (13, 2.87054705619812011719e+00) (14, 6.85900640487670898438e+00) (15, -1.27858293056488037109e+00) (16, 3.34808921813964843750e+00) (17, 7.97824978828430175781e-01) (18, 3.49524402618408203125e+00) (19, -1.57357609272003173828e+00) (20, -1.06244964599609375000e+01) (21, -1.07294368743896484375e+00) (22, 5.89939451217651367188e+00) (23, 7.47751140594482421875e+00) (24, 1.99747791290283203125e+01) (25, -3.63824009895324707031e+00) (26, 1.32896862030029296875e+01) (27, -9.33068180084228515625e+00) (28, 5.89362239837646484375e+00) (29, -6.96640968322753906250e+00) (30, -1.40453243255615234375e+00) (31, 1.46174316406250000000e+01) (32, -6.65448474884033203125e+00) (33, 5.10336732864379882812e+00) (34, -2.38101577758789062500e+00) (35, 8.29324245452880859375e+00) (36, 3.16991400718688964844e+00) (37, 7.21616077423095703125e+00) (38, 8.19019615650177001953e-01) (39, -6.85652208328247070312e+00) (40, 1.25180721282958984375e+01) (41, -6.22862768173217773438e+00) (42, -8.05088877677917480469e-01) (43, 3.74314403533935546875e+00) (44, -8.79723191261291503906e-01) (45, 4.80771589279174804688e+00) (46, 2.04262423515319824219e+00) (47, -1.12540602684020996094e+00) (48, -6.14289999008178710938e+00) (49, 2.84122228622436523438e+00) (50, 3.92453145980834960938e+00) (51, 1.15049338340759277344e+00) (52, 2.04150700569152832031e+00) (0, 1.25940704345703125000e+00) (1, 1.26130187511444091797e+00) (2, -1.18628799915313720703e+00) (3, -1.16990411281585693359e+00) (4, 5.34678816795349121094e-01) (5, 2.15438246726989746094e+00) (6, 2.74556577205657958984e-01) (7, -2.14135503768920898438e+00) (8, 1.45340061187744140625e+00) (9, 5.05131483078002929688e-01) (10, -1.39762234687805175781e+00) (11, 2.07362437248229980469e+00) (12, -1.48915660381317138672e+00) (13, -5.62967538833618164062e-01) (14, 2.56895422935485839844e+00) (15, -1.53862774372100830078e+00) (16, -9.08489167690277099609e-01) (17, 5.05162775516510009766e-01) (18, -4.78184334933757781982e-02) (19, 3.49919915199279785156e-01) (20, 1.01645541191101074219e+00) (21, -2.13560199737548828125e+00) (22, 9.67778742313385009766e-01) (23, 1.24730575084686279297e+00) (24, 7.11221885681152343750e+00) (25, -4.19511127471923828125e+00) (26, -3.31626629829406738281e+00) (27, 4.18510770797729492188e+00) (28, 4.88079845905303955078e-01) (29, -8.21438431739807128906e-01) (30, 4.18764024972915649414e-01) (31, -4.62946474552154541016e-01) (32, 9.68752264976501464844e-01) (33, -1.84504544734954833984e+00) (34, -1.63721930980682373047e+00) (35, 3.58668279647827148438e+00) (36, 1.02739143371582031250e+00) (37, -2.06830024719238281250e+00) (38, 1.94119751453399658203e-01) (39, 1.26087462902069091797e+00) (40, 3.75647395849227905273e-01) (41, -2.23685696721076965332e-01) (42, 1.09555184841156005859e+00) (43, -2.65427261590957641602e-01) (44, -2.34552526473999023438e+00) (45, -1.34894818067550659180e-01) (46, -1.06653094291687011719e+00) (47, 4.68700504302978515625e+00) (48, 1.10011093318462371826e-01) (49, 4.43947911262512207031e-01) (50, 9.19190943241119384766e-02) (51, 7.56870359182357788086e-02) (52, 3.10828590393066406250e+00) (0, 1.25487625598907470703e+00) (1, 2.52092909812927246094e+00) (2, 9.44040060043334960938e-01) (3, -2.75609850883483886719e+00) (4, 1.27107524871826171875e+00) (5, 1.59496307373046875000e+00) (6, -2.36228048801422119141e-01) (7, -9.78411436080932617188e-01) (8, -8.75860214233398437500e-01) (9, 1.77442088723182678223e-01) (10, 9.41786706447601318359e-01) (11, 2.32085371017456054688e+00) (12, -1.54880499839782714844e+00) (13, 3.23528552055358886719e+00) (14, 7.26968407630920410156e-01) (15, 1.58963605761528015137e-01) (16, -7.09104120731353759766e-01) (17, 2.61964941024780273438e+00) (18, 1.30464589595794677734e+00) (19, 8.63694190979003906250e-01) (20, -1.65048158168792724609e+00) (21, -1.44211065769195556641e+00) (22, 6.75286591053009033203e-01) (23, 2.37780228257179260254e-01) (24, -1.42392873764038085938e+00) (25, -1.75983405113220214844e+00) (26, 8.71819877624511718750e+00) (27, 1.22093713283538818359e+00) (28, -8.05684387683868408203e-01) (29, -2.81831598281860351562e+00) (30, 5.59969520568847656250e+00) (31, 2.49146866798400878906e+00) (32, -2.93341588973999023438e+00) (33, 2.63724136352539062500e+00) (34, 1.01828694343566894531e+00) (35, -2.73914957046508789062e+00) (36, 2.81389862298965454102e-01) (37, -1.47772419452667236328e+00) (38, 1.11292715072631835938e+01) (39, -1.40396386384963989258e-01) (40, 7.59139013290405273438e+00) (41, 5.17934322357177734375e-01) (42, -3.85899686813354492188e+00) (43, 2.35828614234924316406e+00) (44, 3.19392490386962890625e+00) (45, 2.60418713092803955078e-01) (46, -3.86007213592529296875e+00) (47, 5.09302186965942382812e+00) (48, -3.42248892784118652344e+00) (49, 2.21614193916320800781e+00) (50, 2.18532633781433105469e+00) (51, 4.74403709173202514648e-01) (52, 2.79790210723876953125e+00) (0, 1.32727336883544921875e+00) (1, -5.91592863202095031738e-02) (2, 4.69264626502990722656e-01) (3, -8.57744872570037841797e-01) (4, 5.62945890426635742188e+00) (5, 1.30782520771026611328e+00) (6, -4.92023557424545288086e-01) (7, 3.07588279247283935547e-01) (8, 3.58364176750183105469e+00) (9, -5.83990328013896942139e-02) (10, 1.42644834518432617188e+00) (11, -6.55884742736816406250e-01) (12, 2.32378530502319335938e+00) (13, 4.86858725547790527344e-01) (14, 1.22396790981292724609e+00) (15, -1.12580573558807373047e+00) (16, 2.18694591522216796875e+00) (17, -1.28270673751831054688e+00) (18, 6.33867383003234863281e-01) (19, 8.07743847370147705078e-01) (20, -6.03617906570434570312e-01) (21, 2.30302691459655761719e-01) (22, 1.44603133201599121094e+00) (23, -1.28417420387268066406e+00) (24, -5.87431073188781738281e-01) (25, -4.84162628650665283203e-01) (26, 2.21179986000061035156e+00) (27, 2.80916184186935424805e-01) (28, 1.12786340713500976562e+00) (29, -1.05223560333251953125e+00) (30, 1.51415631175041198730e-01) (31, 8.91380608081817626953e-01) (32, -1.90359890460968017578e+00) (33, 4.06502224504947662354e-02) (34, 5.56712150573730468750e-01) (35, 3.62745821475982666016e-01) (36, 8.86675000190734863281e-01) (37, -9.37014222145080566406e-02) (38, -5.85146605968475341797e-01) (39, 5.44461488723754882812e-01) (40, 1.55496919155120849609e+00) (41, -8.36769521236419677734e-01) (42, 1.23833692073822021484e+00) (43, -3.02260965108871459961e-01) (44, 4.28645896911621093750e+00) (45, 6.83926582336425781250e-01) (46, 1.06368340551853179932e-01) (47, 2.31645107269287109375e+00) (48, 2.27285742759704589844e+00) (49, -6.05680823326110839844e-01) (50, 8.28004360198974609375e-01) (51, 6.70638382434844970703e-01) (52, 2.82831525802612304688e+00) (0, 1.50000000000000000000e+03) (1, 1.50000000000000000000e+03) (2, -9.81227016448974609375e+00) (3, 1.26082153320312500000e+03) (4, 1.50000000000000000000e+03) (5, 1.50000000000000000000e+03) (6, 9.04295471191406250000e+02) (7, -2.11111907958984375000e+02) (8, 1.50000000000000000000e+03) (9, 3.82442259788513183594e+00) (10, 1.44983154296875000000e+03) (11, -1.48444799804687500000e+03) (12, 1.50000000000000000000e+03) (13, 1.49998596191406250000e+03) (14, -1.48429479980468750000e+03) (15, 1.50000000000000000000e+03) (16, 1.50000000000000000000e+03) (17, 1.62984752655029296875e+01) (18, -9.02580139160156250000e+02) (19, 1.50000000000000000000e+03) (20, 1.07287071228027343750e+02) (21, 1.48500000000000000000e+03) (22, 1.49842016601562500000e+03) (23, 1.19476371765136718750e+02) (24, -1.50000000000000000000e+03) (25, 1.50000000000000000000e+03) (26, 1.48656298828125000000e+03) (27, 1.43423107910156250000e+03) (28, 1.50000000000000000000e+03) (29, 1.50000000000000000000e+03) (30, -1.47549987792968750000e+03) (31, -1.22892395019531250000e+03) (32, 2.75284606933593750000e+02) (33, 8.83487854003906250000e+02) (34, 1.37086517333984375000e+02) (35, 7.47187927246093750000e+02) (36, 1.50000000000000000000e+03) (37, 1.49999560546875000000e+03) (38, -1.47500000000000000000e+03) (39, 1.49440124511718750000e+03) (40, 4.33838224411010742188e+00) (41, 1.50000000000000000000e+03) (42, 1.50000000000000000000e+03) (43, 8.71534118652343750000e+01) (44, 1.50000000000000000000e+03) (45, 7.23086303710937500000e+02) (46, 4.35410857200622558594e-01) (47, -1.39649414062500000000e+03) (48, 1.48305114746093750000e+03) (49, -2.29823211669921875000e+02) (50, 1.50000000000000000000e+03) (51, 1.50000000000000000000e+03) (52, -9.57417201995849609375e+00) (0, 9.56466484069824218750e+00) (1, -2.57091879844665527344e+00) (2, 3.52560210227966308594e+00) (3, 2.12552261352539062500e+00) (4, 4.94158208370208740234e-01) (5, 3.20114660263061523438e+00) (6, 3.96592259407043457031e-01) (7, 4.34056091308593750000e+00) (8, 1.27200660705566406250e+01) (9, -7.68002212047576904297e-01) (10, 1.32920062541961669922e+00) (11, 2.08737754821777343750e+00) (12, 1.27976131439208984375e+01) (13, -1.38050413131713867188e+00) (14, -1.89179062843322753906e-01) (15, 4.03400182723999023438e+00) (16, 7.68144464492797851562e+00) (17, 2.12037658691406250000e+01) (18, 8.10489892959594726562e-01) (19, -1.35753145217895507812e+01) (20, 1.10476338863372802734e+00) (21, 3.30156898498535156250e+00) (22, 1.59570980072021484375e+01) (23, -9.90991783142089843750e+00) (24, 2.59481754302978515625e+01) (25, -5.58916568756103515625e+00) (26, -5.12165784835815429688e-01) (27, 4.67222881317138671875e+00) (28, -4.53359931707382202148e-01) (29, -2.28933572769165039062e+00) (30, 6.04931974411010742188e+00) (31, 1.29184317588806152344e+00) (32, -7.11298227310180664062e-01) (33, 5.25090277194976806641e-01) (34, 2.95953124761581420898e-01) (35, 6.84494256973266601562e+00) (36, -1.05768175125122070312e+01) (37, -2.42868804931640625000e+00) (38, 3.53007626533508300781e+00) (39, 1.44464197158813476562e+01) (40, 8.91366386413574218750e+00) (41, 6.88612174987792968750e+00) (42, -4.66283798217773437500e-01) (43, -3.29849290847778320312e+00) (44, 3.38804626464843750000e+00) (45, 1.86944847106933593750e+01) (46, 1.10771548748016357422e+00) (47, -7.64901018142700195312e+00) (48, -2.09734129905700683594e+00) (49, 2.95311713218688964844e+00) (50, 2.53534503281116485596e-02) (51, 4.99291753768920898438e+00) (52, 1.39330148696899414062e+00) (0, 5.27410745620727539062e-01) (1, 1.72469671815633773804e-02) (2, 4.42014671862125396729e-02) (3, 4.35153818130493164062e+00) (4, 3.19018769264221191406e+00) (5, 4.47771310806274414062e-01) (6, 6.94365262985229492188e-01) (7, -2.05006122589111328125e+00) (8, 3.74691128730773925781e+00) (9, -1.63072657585144042969e+00) (10, 1.39218163490295410156e+00) (11, 1.27388834953308105469e+00) (12, 5.69941282272338867188e-01) (13, 2.80637219548225402832e-02) (14, -7.44573891162872314453e-01) (15, 1.06189644336700439453e+00) (16, -2.12519788742065429688e+00) (17, 2.18941354751586914062e+00) (18, -1.17051887512207031250e+00) (19, 2.06229925155639648438e+00) (20, 3.39344882965087890625e+00) (21, 7.42259025573730468750e-01) (22, -2.61317819356918334961e-01) (23, 1.28912806510925292969e-01) (24, 2.05338150262832641602e-01) (25, 4.00751304626464843750e+00) (26, 8.33451926708221435547e-01) (27, -2.66348981857299804688e+00) (28, -5.42970716953277587891e-01) (29, 4.60873651504516601562e+00) (30, -8.52049052715301513672e-01) (31, 2.17171239852905273438e+00) (32, 4.11226177215576171875e+00) (33, 1.16860270500183105469e+00) (34, 1.77832341194152832031e+00) (35, -9.95466172695159912109e-01) (36, 3.56486868858337402344e+00) (37, -1.67653727531433105469e+00) (38, 2.39137578010559082031e+00) (39, 3.80269020795822143555e-01) (40, 1.80275249481201171875e+00) (41, 6.89220547676086425781e-01) (42, 1.29517364501953125000e+00) (43, -6.50644838809967041016e-01) (44, 5.17370164394378662109e-01) (45, -2.18264311552047729492e-01) (46, -1.48887562751770019531e+00) (47, 1.70898222923278808594e+00) (48, 1.57825839519500732422e+00) (49, -5.84562540054321289062e-01) (50, 2.40543174743652343750e+00) (51, -2.00773119926452636719e-01) (52, 2.81007647514343261719e+00) (0, 4.09204254150390625000e+02) (1, 8.68741378784179687500e+01) (2, -8.66672973632812500000e+01) (3, 2.61153686523437500000e+02) (4, 1.39121813964843750000e+03) (5, 5.69778808593750000000e+02) (6, -1.11737022399902343750e+01) (7, -4.91533317565917968750e+01) (8, 2.90698974609375000000e+02) (9, 1.57995330810546875000e+02) (10, 5.42131713867187500000e+02) (11, -2.42959274291992187500e+02) (12, 1.54791412353515625000e+02) (13, 5.55409164428710937500e+01) (14, 2.74505462646484375000e+02) (15, 5.32146263122558593750e+01) (16, -4.14254951477050781250e+00) (17, 1.61276321411132812500e+02) (18, 3.18177700042724609375e+01) (19, 1.83767059326171875000e+02) (20, -8.91816024780273437500e+01) (21, 4.36587219238281250000e+02) (22, -1.43931350708007812500e+01) (23, 5.28794494628906250000e+02) (24, -2.01695327758789062500e+02) (25, 3.63004394531250000000e+02) (26, 1.47922988891601562500e+02) (27, 6.43083953857421875000e+01) (28, -2.98203525543212890625e+01) (29, 4.09078674316406250000e+02) (30, -3.15525054931640625000e+01) (31, 1.78150405883789062500e+02) (32, -1.38199253082275390625e+01) (33, 3.02934173583984375000e+02) (34, 2.50726715087890625000e+02) (35, 6.19048767089843750000e+01) (36, 6.84885253906250000000e+02) (37, 1.89475997924804687500e+02) (38, -1.17855384826660156250e+02) (39, 5.11047019958496093750e+01) (40, 5.44535461425781250000e+02) (41, 3.87864723205566406250e+01) (42, 1.34493347167968750000e+02) (43, -3.83839797973632812500e+01) (44, 7.59041809082031250000e+02) (45, 1.61362777709960937500e+02) (46, -4.99461090087890625000e+02) (47, 1.06796646118164062500e+02) (48, 3.09482116699218750000e+02) (49, -1.45872146606445312500e+02) (50, 3.75498809814453125000e+02) (51, 1.25628952026367187500e+02) (52, -3.69355750083923339844e+00) (0, -6.48667395114898681641e-01) (1, 3.49937820434570312500e+00) (2, 6.01637542247772216797e-01) (3, -1.06114697456359863281e+00) (4, 2.90562844276428222656e+00) (5, 1.70442593097686767578e+00) (6, -4.75795805454254150391e-01) (7, -2.37050175666809082031e-01) (8, 8.80701005458831787109e-01) (9, -8.20327103137969970703e-01) (10, -3.96361351013183593750e-01) (11, 3.20172643661499023438e+00) (12, -2.21325755119323730469e+00) (13, 8.02114427089691162109e-01) (14, 9.14363145828247070312e-01) (15, 7.36619234085083007812e-01) (16, -1.17287445068359375000e+00) (17, 2.88809895515441894531e+00) (18, 9.41503703594207763672e-01) (19, -2.82113701105117797852e-01) (20, -2.93720030784606933594e+00) (21, 1.03441441059112548828e+00) (22, 2.66070580482482910156e+00) (23, 4.12692904472351074219e-01) (24, -3.17228055000305175781e+00) (25, 2.99607872962951660156e+00) (26, -1.07893323898315429688e+00) (27, 2.46019101142883300781e+00) (28, -7.50984728336334228516e-01) (29, 4.82297992706298828125e+00) (30, 5.45675814151763916016e-01) (31, 4.76243495941162109375e-01) (32, 1.42654165625572204590e-01) (33, 8.19326877593994140625e-01) (34, 7.55291208624839782715e-02) (35, -1.58737552165985107422e+00) (36, 4.66367274522781372070e-01) (37, 3.51618671417236328125e+00) (38, -9.56824421882629394531e-01) (39, 2.21769499778747558594e+00) (40, 6.78776323795318603516e-01) (41, 1.25316953659057617188e+00) (42, 8.52391183376312255859e-01) (43, -1.20046293735504150391e+00) (44, 1.93346285820007324219e+00) (45, 9.57826793193817138672e-01) (46, -9.02143001556396484375e-01) (47, -9.01805818080902099609e-01) (48, 4.88696336746215820312e-01) (49, -9.91785466670989990234e-01) (50, 1.40619349479675292969e+00) (51, -5.67491829395294189453e-01) (52, 3.24864816665649414062e+00) (0, 1.17334527969360351562e+01) (1, 6.26438808441162109375e+00) (2, 9.51463794708251953125e+00) (3, 8.08734703063964843750e+00) (4, 6.99961662292480468750e+00) (5, 3.52476501464843750000e+00) (6, 1.22200012207031250000e+01) (7, 1.18094472885131835938e+01) (8, 1.11950855255126953125e+01) (9, 7.41339206695556640625e+00) (10, 2.98086762428283691406e+00) (11, 1.07265510559082031250e+01) (12, 9.21074008941650390625e+00) (13, 1.15648202896118164062e+01) (14, 1.63199501037597656250e+01) (15, 1.84227061271667480469e+00) (16, 6.81928873062133789062e+00) (17, 1.15609941482543945312e+01) (18, 3.63406515121459960938e+00) (19, 8.88869285583496093750e+00) (20, 1.23144817352294921875e+01) (21, 4.80005264282226562500e+00) (22, 1.09632539749145507812e+01) (23, 8.67509269714355468750e+00) (24, 1.06827125549316406250e+02) (25, -2.71264587402343750000e+02) (26, 9.99674224853515625000e+01) (27, 1.04349014282226562500e+02) (28, 2.08270812034606933594e+00) (29, 1.69502105712890625000e+01) (30, 1.18327989578247070312e+01) (31, 7.13605165481567382812e+00) (32, 3.20540714263916015625e+00) (33, 1.39133777618408203125e+01) (34, 3.41287899017333984375e+00) (35, 1.58586502075195312500e+01) (36, 1.79859676361083984375e+01) (37, 6.54664099216461181641e-01) (38, 1.13814163208007812500e+01) (39, 1.20992393493652343750e+01) (40, 7.21667146682739257812e+00) (41, 5.20414113998413085938e+00) (42, 1.12749519348144531250e+01) (43, 6.42126417160034179688e+00) (44, 2.13276052474975585938e+00) (45, 8.85799694061279296875e+00) (46, 1.29348993301391601562e+01) (47, 1.01814708709716796875e+01) (48, 8.81095027923583984375e+00) (49, 9.96151447296142578125e+00) (50, 1.58537757396697998047e+00) (51, 1.27804689407348632812e+01) (52, -2.16471195220947265625e+00) (0, 5.58664274215698242188e+00) (1, 4.46046257019042968750e+00) (2, 3.31782364845275878906e+00) (3, 2.74359107017517089844e+00) (4, 2.60226154327392578125e+00) (5, 4.04561138153076171875e+00) (6, 4.97403764724731445312e+00) (7, 2.62048077583312988281e+00) (8, 8.70675265789031982422e-01) (9, 2.48576664924621582031e+00) (10, 5.55492401123046875000e+00) (11, 1.55745041370391845703e+00) (12, 5.74916887283325195312e+00) (13, 5.46406412124633789062e+00) (14, 3.90877676010131835938e+00) (15, -7.00989842414855957031e-01) (16, 1.26935367584228515625e+01) (17, 9.96442854404449462891e-01) (18, 1.64712357521057128906e+00) (19, 3.97939491271972656250e+00) (20, 1.64536690711975097656e+00) (21, 3.10149574279785156250e+00) (22, 3.97773241996765136719e+00) (23, 6.86117696762084960938e+00) (24, 7.74507331848144531250e+00) (25, 8.89734745025634765625e-01) (26, 4.01113510131835937500e+00) (27, 4.60721683502197265625e+00) (28, 7.85269012451171875000e+01) (29, 6.92171173095703125000e+01) (30, -1.23517578125000000000e+02) (31, 7.45317382812500000000e+01) (32, 2.00801348686218261719e+00) (33, 1.13818097114562988281e+00) (34, 3.31727719306945800781e+00) (35, 5.50196170806884765625e+00) (36, 3.48154807090759277344e+00) (37, 2.33793544769287109375e+00) (38, 4.73126125335693359375e+00) (39, 5.83573162555694580078e-01) (40, 7.44191646575927734375e+00) (41, 8.58901798725128173828e-01) (42, 5.34571123123168945312e+00) (43, -7.58295774459838867188e-01) (44, 4.78476810455322265625e+00) (45, 3.00514817237854003906e+00) (46, 3.49575352668762207031e+00) (47, 3.76134324073791503906e+00) (48, 3.04994374513626098633e-01) (49, 3.87701797485351562500e+00) (50, 2.97342658042907714844e+00) (51, 5.04228639602661132812e+00) (52, 7.02968001365661621094e-01) (0, -3.27424860000610351562e+00) (1, -4.93750572204589843750e+00) (2, 1.52855050563812255859e+00) (3, 1.64173924922943115234e+00) (4, -1.90167069435119628906e+00) (5, 3.09508895874023437500e+00) (6, -1.75200951099395751953e+00) (7, -7.88991749286651611328e-01) (8, -1.55292046070098876953e+00) (9, 9.42826151847839355469e-01) (10, -3.30155521631240844727e-01) (11, -3.06892096996307373047e-01) (12, -3.13406646251678466797e-01) (13, -6.91377818584442138672e-02) (14, -7.08303928375244140625e+00) (15, 1.27697646617889404297e+00) (16, 8.35742712020874023438e-01) (17, 1.02583968639373779297e+00) (18, -2.16775178909301757812e+00) (19, 2.66180224716663360596e-02) (20, -1.08618728816509246826e-01) (21, -9.33946847915649414062e-01) (22, 4.16406440734863281250e+00) (23, -3.72387242317199707031e+00) (24, -3.90173792839050292969e+00) (25, 1.63874650001525878906e+00) (26, 9.51060712337493896484e-01) (27, -1.27928471565246582031e+00) (28, -6.95772886276245117188e-01) (29, 4.32643860578536987305e-01) (30, -4.05810117721557617188e+00) (31, 6.50565207004547119141e-01) (32, -4.48922348022460937500e+00) (33, 2.29156851768493652344e+00) (34, -5.51261842250823974609e-01) (35, -2.05146098136901855469e+00) (36, 9.63799774646759033203e-01) (37, 2.21334958076477050781e+00) (38, -1.38785648345947265625e+00) (39, -1.63334679603576660156e+00) (40, -1.08370602130889892578e+00) (41, -6.21850347518920898438e+00) (42, -1.88518539071083068848e-01) (43, 1.46657896041870117188e+00) (44, 4.27295178174972534180e-01) (45, -4.60895919799804687500e+00) (46, 1.35091543197631835938e+00) (47, -5.96763610839843750000e-01) (48, 5.44392704963684082031e-01) (49, 2.57278889417648315430e-01) (50, -2.67752021551132202148e-01) (51, -1.03626632690429687500e+00) (52, 3.77843952178955078125e+00) (0, -2.76905559003353118896e-02) (1, 7.44617033004760742188e+00) (2, 1.52204596996307373047e+00) (3, -5.63715887069702148438e+00) (4, 4.65374851226806640625e+00) (5, 4.28657627105712890625e+00) (6, -1.95783746242523193359e+00) (7, 1.06242239475250244141e+00) (8, -3.64857888221740722656e+00) (9, -2.61451721191406250000e+00) (10, 4.25107288360595703125e+00) (11, 5.63222551345825195312e+00) (12, -4.23246353864669799805e-01) (13, 5.64314270019531250000e+00) (14, 7.11766108870506286621e-02) (15, -2.52703857421875000000e+00) (16, -6.34413957595825195312e+00) (17, -2.88869529962539672852e-01) (18, 5.02377843856811523438e+00) (19, 3.38287186622619628906e+00) (20, 9.01002788543701171875e+00) (21, 3.86051034927368164062e+00) (22, -2.40039491653442382812e+00) (23, -1.68329739570617675781e+00) (24, 1.33583009243011474609e+00) (25, 1.67253160476684570312e+00) (26, -1.23369622230529785156e+00) (27, 6.58580446243286132812e+00) (28, 1.93944203853607177734e+00) (29, 1.53825454711914062500e+01) (30, -2.25253209471702575684e-01) (31, -6.12055015563964843750e+00) (32, 1.57534494400024414062e+01) (33, 1.68339931964874267578e+00) (34, -1.24258649349212646484e+00) (35, -1.08699786663055419922e+00) (36, -3.51017475128173828125e+00) (37, 7.72056436538696289062e+00) (38, 4.82180690765380859375e+00) (39, -5.65544605255126953125e+00) (40, -1.49106428027153015137e-01) (41, 5.66386651992797851562e+00) (42, 1.73272103071212768555e-01) (43, -2.16521072387695312500e+00) (44, -5.57530784606933593750e+00) (45, 8.80075573921203613281e-01) (46, 1.56546032428741455078e+00) (47, 3.49605679512023925781e+00) (48, -5.11055278778076171875e+00) (49, 2.71191859245300292969e+00) (50, -1.79694819450378417969e+00) (51, 8.13600635528564453125e+00) (52, 2.27115774154663085938e+00) (0, -9.73001539707183837891e-01) (1, 3.04710078239440917969e+00) (2, -1.61533102393150329590e-01) (3, -5.86594104766845703125e-01) (4, -4.68871355056762695312e+00) (5, 3.92573595046997070312e+00) (6, 2.12378406524658203125e+00) (7, -1.22252917289733886719e+00) (8, 4.07780075073242187500e+00) (9, -6.47196352481842041016e-01) (10, -2.27799749374389648438e+00) (11, 6.47187948226928710938e+00) (12, -1.78976249694824218750e+00) (13, -3.68906229734420776367e-01) (14, 3.65214800834655761719e+00) (15, 1.33159115910530090332e-01) (16, 1.93292963504791259766e+00) (17, -3.41771394014358520508e-01) (18, 5.45293927192687988281e-01) (19, 2.23417901992797851562e+00) (20, -2.72325420379638671875e+00) (21, 3.28274965286254882812e+00) (22, -2.94839072227478027344e+00) (23, 3.09259796142578125000e+00) (24, -6.73376274108886718750e+00) (25, 1.24590110778808593750e+00) (26, 2.77640938758850097656e+00) (27, 7.85067605972290039062e+00) (28, -1.43117265701293945312e+01) (29, 6.13860273361206054688e+00) (30, 1.73394167423248291016e+00) (31, 5.44520378112792968750e+00) (32, -3.38977217674255371094e+00) (33, -1.05061531066894531250e+00) (34, 3.84258317947387695312e+00) (35, 2.39408564567565917969e+00) (36, 1.75479042530059814453e+00) (37, 1.24773037433624267578e+00) (38, 3.13604617118835449219e+00) (39, -4.02369928359985351562e+00) (40, -5.25359570980072021484e-01) (41, 1.59021353721618652344e+00) (42, -2.60364842414855957031e+00) (43, 2.90368700027465820312e+00) (44, 4.75824975967407226562e+00) (45, -2.08014535903930664062e+00) (46, -1.09493052959442138672e+00) (47, 2.95204734802246093750e+00) (48, 3.40364599227905273438e+00) (49, 7.63877093791961669922e-01) (50, -9.20001029968261718750e-01) (51, 2.59333401918411254883e-01) (52, 2.91098570823669433594e+00) (0, 1.48746812343597412109e+00) (1, 1.55500733852386474609e+00) (2, -3.12664294242858886719e+00) (3, -1.53961396217346191406e+00) (4, -4.23252195119857788086e-01) (5, -1.09343814849853515625e+00) (6, 2.33426928520202636719e-01) (7, 6.99685692787170410156e-01) (8, -1.55939550399780273438e+01) (9, -8.74029541015625000000e+00) (10, 4.02027034759521484375e+00) (11, 5.70077085494995117188e+00) (12, -8.47956597805023193359e-01) (13, -4.07212591171264648438e+00) (14, -4.46131795644760131836e-01) (15, 3.42750859260559082031e+00) (16, 1.15142703056335449219e+00) (17, 1.73344266414642333984e+00) (18, -1.40819597244262695312e+00) (19, -1.77044332027435302734e+00) (20, -3.29224624633789062500e+01) (21, 5.16837072372436523438e+00) (22, 1.52273416519165039062e-01) (23, 5.53560376167297363281e-01) (24, -1.40193843841552734375e+00) (25, 9.01610136032104492188e-01) (26, -3.03875255584716796875e+00) (27, 5.55597352981567382812e+00) (28, -1.29749946594238281250e+01) (29, 2.69878911972045898438e+00) (30, 5.52013969421386718750e+00) (31, -4.28468322753906250000e+00) (32, -2.40160713195800781250e+01) (33, 1.90747809410095214844e+00) (34, 7.09231853485107421875e+00) (35, -5.68850994110107421875e+00) (36, -1.55369281768798828125e+01) (37, 2.37510466575622558594e+00) (38, -4.11352187395095825195e-01) (39, 1.84932088851928710938e+00) (40, -6.27736663818359375000e+00) (41, 2.53313183784484863281e+00) (42, -6.20711326599121093750e+00) (43, 3.87731504440307617188e+00) (44, -4.59756183624267578125e+00) (45, 2.63900899887084960938e+00) (46, -4.71979475021362304688e+00) (47, 1.93217718601226806641e+00) (48, 4.07965135574340820312e+00) (49, -3.31916975975036621094e+00) (50, -3.27952384948730468750e+00) (51, 3.00000643730163574219e+00) (52, 3.43339467048645019531e+00) (0, -6.72704219818115234375e+00) (1, 1.10666303634643554688e+01) (2, 1.74858703613281250000e+01) (3, 1.12842760086059570312e+01) (4, 2.06956024169921875000e+01) (5, 1.24747180938720703125e+01) (6, 3.89843058586120605469e+00) (7, 4.09128475189208984375e+00) (8, 1.38805570602416992188e+01) (9, 7.26156139373779296875e+00) (10, 1.72523078918457031250e+01) (11, 2.24633860588073730469e+00) (12, 1.59512329101562500000e+01) (13, 1.26438560485839843750e+01) (14, 7.06873083114624023438e+00) (15, 4.22558689117431640625e+00) (16, 3.39938659667968750000e+01) (17, 2.31115913391113281250e+00) (18, 4.46676158905029296875e+00) (19, 1.77942829132080078125e+01) (20, 1.20396909713745117188e+01) (21, 9.28801727294921875000e+00) (22, 9.58865451812744140625e+00) (23, 2.33036947250366210938e+00) (24, 2.43606090545654296875e+01) (25, 2.22446823120117187500e+00) (26, 8.10749816894531250000e+00) (27, 1.05029401779174804688e+01) (28, 2.66239566802978515625e+01) (29, 6.69448232650756835938e+00) (30, 4.00651073455810546875e+00) (31, 1.31547260284423828125e+01) (32, 1.92773663997650146484e+00) (33, 9.83921337127685546875e+00) (34, 1.15520725250244140625e+01) (35, 1.06874761581420898438e+01) (36, 1.76501026153564453125e+01) (37, 6.65072774887084960938e+00) (38, 5.26251411437988281250e+00) (39, 1.11261024475097656250e+01) (40, -1.41176056861877441406e+00) (41, 8.17731094360351562500e+00) (42, 1.50824432373046875000e+01) (43, 9.16890144348144531250e+00) (44, 9.82835540771484375000e+01) (45, 9.03749923706054687500e+01) (46, -2.48550369262695312500e+02) (47, 9.60080718994140625000e+01) (48, 1.63917572021484375000e+02) (49, -1.21212974548339843750e+02) (50, 1.45284454345703125000e+02) (51, 1.41773574829101562500e+02) (52, -2.63213586807250976562e+00) (0, 8.70219135284423828125e+00) (1, 4.09681510925292968750e+00) (2, 7.64996576309204101562e+00) (3, 6.99372816085815429688e+00) (4, 5.89276409149169921875e+00) (5, 7.53583812713623046875e+00) (6, 8.78508090972900390625e+00) (7, 7.43537712097167968750e+00) (8, 7.70089197158813476562e+00) (9, 1.00792236328125000000e+01) (10, 3.49719429016113281250e+00) (11, 7.14108991622924804688e+00) (12, 5.14966917037963867188e+00) (13, 6.32316780090332031250e+00) (14, 9.26083087921142578125e+00) (15, 7.97739315032958984375e+00) (16, 9.70586013793945312500e+00) (17, 8.47110176086425781250e+00) (18, 8.11637687683105468750e+00) (19, 4.64722681045532226562e+00) (20, 1.04304018020629882812e+01) (21, 8.92864227294921875000e+00) (22, 4.70428800582885742188e+00) (23, 8.57760524749755859375e+00) (24, 2.10613384246826171875e+01) (25, 2.88669452667236328125e+01) (26, -4.46343688964843750000e+01) (27, 2.25088462829589843750e+01) (28, 2.32055053710937500000e+02) (29, -3.55832916259765625000e+02) (30, 2.31564743041992187500e+02) (31, 2.26305831909179687500e+02) (32, 7.53921842575073242188e+00) (33, 8.21681499481201171875e+00) (34, 4.41002607345581054688e+00) (35, 9.26617527008056640625e+00) (36, 7.53406000137329101562e+00) (37, 6.98840332031250000000e+00) (38, 7.42873716354370117188e+00) (39, 7.89769124984741210938e+00) (40, 4.02237844467163085938e+00) (41, 8.89173221588134765625e+00) (42, 8.55551433563232421875e+00) (43, 6.13652467727661132812e+00) (44, 7.59445858001708984375e+00) (45, 4.50126409530639648438e+00) (46, 9.98270130157470703125e+00) (47, 9.39273071289062500000e+00) (48, 6.41773366928100585938e+00) (49, 4.48659372329711914062e+00) (50, 1.20317888259887695312e+01) (51, 7.37598419189453125000e+00) (52, -8.85195970535278320312e-01) (0, 1.50000000000000000000e+03) (1, 1.50000000000000000000e+03) (2, -7.86217346191406250000e+01) (3, 2.36068756103515625000e+02) (4, 1.50000000000000000000e+03) (5, 1.50000000000000000000e+03) (6, -5.89896606445312500000e+02) (7, 8.01594314575195312500e+01) (8, 1.50000000000000000000e+03) (9, 3.43842434883117675781e+00) (10, 1.28036437988281250000e+03) (11, -1.47528002929687500000e+03) (12, 1.50000000000000000000e+03) (13, 1.49996606445312500000e+03) (14, -1.27623767089843750000e+03) (15, 1.50000000000000000000e+03) (16, 1.50000000000000000000e+03) (17, 2.64896488189697265625e+01) (18, -6.90605010986328125000e+01) (19, 1.50000000000000000000e+03) (20, -6.87425613403320312500e+01) (21, 1.48500000000000000000e+03) (22, 1.49781872558593750000e+03) (23, 1.63081771850585937500e+02) (24, -1.50000000000000000000e+03) (25, 1.50000000000000000000e+03) (26, 1.49638891601562500000e+03) (27, 1.43423107910156250000e+03) (28, 1.50000000000000000000e+03) (29, 1.50000000000000000000e+03) (30, -1.48957006835937500000e+03) (31, -1.17275362014770507812e+01) (32, 1.47890502929687500000e+02) (33, 7.54248107910156250000e+02) (34, 6.21377868652343750000e+02) (35, 9.15886688232421875000e+01) (36, 1.50000000000000000000e+03) (37, 1.50000000000000000000e+03) (38, -1.47840002441406250000e+03) (39, 1.49849536132812500000e+03) (40, -1.78158615112304687500e+02) (41, 1.50000000000000000000e+03) (42, 1.50000000000000000000e+03) (43, 1.72026580810546875000e+02) (44, 1.50000000000000000000e+03) (45, 3.27712829589843750000e+02) (46, 2.74926971435546875000e+02) (47, -9.72127502441406250000e+02) (48, 1.49060131835937500000e+03) (49, -2.29189300537109375000e+02) (50, 1.50000000000000000000e+03) (51, 1.50000000000000000000e+03) (52, -1.30397567749023437500e+01) (0, 2.08419531583786010742e-01) (1, -1.59169447422027587891e+00) (2, -3.81118583679199218750e+00) (3, -2.39764690399169921875e+01) (4, -7.27404642105102539062e+00) (5, -1.06396150588989257812e+01) (6, -5.57069206237792968750e+00) (7, -1.73595297336578369141e+00) (8, -2.09651660919189453125e+01) (9, 3.06180763244628906250e+00) (10, -1.20776119232177734375e+01) (11, -3.68342071771621704102e-01) (12, -5.80125160217285156250e+01) (13, 9.47924423217773437500e+00) (14, -6.75378036499023437500e+01) (15, 2.41849288940429687500e+01) (16, 3.88706207275390625000e+00) (17, 7.76919269561767578125e+00) (18, -4.13503303527832031250e+01) (19, -2.98853740692138671875e+01) (20, 2.16966319084167480469e+00) (21, -1.88779945373535156250e+01) (22, -1.40580200195312500000e+02) (23, 2.28077850341796875000e+01) (24, -2.94383640289306640625e+01) (25, -9.97371315956115722656e-01) (26, -2.26381683349609375000e+01) (27, 1.28991289138793945312e+01) (28, -4.97399063110351562500e+01) (29, -7.06370830535888671875e+00) (30, 3.79000276327133178711e-01) (31, 7.86849164962768554688e+00) (32, -3.17005634307861328125e+01) (33, 2.82142710685729980469e+00) (34, -2.10116405487060546875e+01) (35, 8.15553760528564453125e+00) (36, -5.39525794982910156250e+01) (37, -5.53573150634765625000e+01) (38, 1.68948516845703125000e+01) (39, 5.67904412746429443359e-01) (40, -7.12242965698242187500e+01) (41, -1.42819604873657226562e+01) (42, -4.62878322601318359375e+00) (43, 1.62721118927001953125e+01) (44, -1.08611555099487304688e+01) (45, -3.68128204345703125000e+01) (46, 1.40669002532958984375e+01) (47, -4.25215101242065429688e+00) (48, 7.49788403511047363281e-01) (49, -1.91399860382080078125e+01) (50, 1.52480916976928710938e+01) (51, -4.41887741088867187500e+01) (52, 5.38556098937988281250e+00) (0, -1.48938049316406250000e+03) (1, -1.49997766113281250000e+03) (2, 1.49999987792968750000e+03) (3, -1.49578344726562500000e+03) (4, -1.49918542480468750000e+03) (5, -1.50000000000000000000e+03) (6, 1.49999597167968750000e+03) (7, 1.49783056640625000000e+03) (8, -1.50000000000000000000e+03) (9, 1.49995983886718750000e+03) (10, -1.49215234375000000000e+03) (11, 1.49720068359375000000e+03) (12, 1.05030932617187500000e+03) (13, -1.47393408203125000000e+03) (14, -3.45861694335937500000e+02) (15, 1.45472241210937500000e+03) (16, -1.46812878417968750000e+03) (17, 8.59805358886718750000e+02) (18, 1.49992004394531250000e+03) (19, -1.15657257080078125000e+02) (20, -8.37565856933593750000e+02) (21, 1.46758093261718750000e+03) (22, -1.49967224121093750000e+03) (23, 1.49998437500000000000e+03) (24, 1.50000000000000000000e+03) (25, -1.50000000000000000000e+03) (26, -1.49991381835937500000e+03) (27, 1.49827685546875000000e+03) (28, -1.49916821289062500000e+03) (29, -1.49999011230468750000e+03) (30, 1.49999682617187500000e+03) (31, 1.48272021484375000000e+03) (32, -1.49354907226562500000e+03) (33, -1.45817163085937500000e+03) (34, -1.49352954101562500000e+03) (35, 1.47463623046875000000e+03) (36, -1.50000000000000000000e+03) (37, -1.48360314941406250000e+03) (38, 1.48200000000000000000e+03) (39, -1.49393713378906250000e+03) (40, 1.49994482421875000000e+03) (41, 1.49039953613281250000e+03) (42, -1.49983264160156250000e+03) (43, 1.49999853515625000000e+03) (44, -1.50000000000000000000e+03) (45, -1.49253979492187500000e+03) (46, 1.49202136230468750000e+03) (47, 1.49193786621093750000e+03) (48, -1.49998144531250000000e+03) (49, 1.49583410644531250000e+03) (50, 1.48744970703125000000e+03) (51, -1.50000000000000000000e+03) (52, -1.75629005432128906250e+01) (0, 3.63109278678894042969e+00) (1, -1.11206233501434326172e+00) (2, 5.76297879219055175781e-01) (3, 1.75142681598663330078e+00) (4, 2.63147425651550292969e+00) (5, 1.24042963981628417969e+00) (6, -2.02652201056480407715e-01) (7, 4.27764952182769775391e-01) (8, 1.85200417041778564453e+00) (9, -7.37583458423614501953e-01) (10, 1.43555915355682373047e+00) (11, -1.74076521396636962891e+00) (12, 1.88300037384033203125e+00) (13, 3.27379822731018066406e-01) (14, 4.38309729099273681641e-01) (15, 8.50571930408477783203e-01) (16, -3.89263868331909179688e-01) (17, 2.20727825164794921875e+00) (18, 3.32176589965820312500e+00) (19, -3.00346446037292480469e+00) (20, 2.87772560119628906250e+00) (21, -2.34968692064285278320e-01) (22, 1.43591725826263427734e+00) (23, -9.55856800079345703125e-01) (24, -2.25309014320373535156e+00) (25, 6.89124441146850585938e+00) (26, 4.20965576171875000000e+00) (27, -2.25860476493835449219e+00) (28, -1.22784912586212158203e+00) (29, 6.85423761606216430664e-02) (30, 3.53743553161621093750e-01) (31, 1.09371089935302734375e+00) (32, -6.76973819732666015625e-01) (33, -1.99220210313796997070e-01) (34, 8.52837979793548583984e-01) (35, -8.92737686634063720703e-01) (36, 2.08627626299858093262e-01) (37, 2.26745510101318359375e+00) (38, 3.01286995410919189453e-01) (39, -1.05912554264068603516e+00) (40, 1.77841639518737792969e+00) (41, 1.33625662326812744141e+00) (42, -1.64679026603698730469e+00) (43, 1.85711348056793212891e+00) (44, 1.04767811298370361328e+00) (45, -2.65380650758743286133e-01) (46, 1.90365684032440185547e+00) (47, 1.24253904819488525391e+00) (48, -9.40021634101867675781e-01) (49, 1.43318450450897216797e+00) (50, 1.20045828819274902344e+00) (51, -7.30406641960144042969e-01) (52, 2.88261890411376953125e+00) (0, 3.20062994956970214844e-01) (1, -8.15966904163360595703e-01) (2, 1.23133802413940429688e+00) (3, 5.14787673950195312500e-01) (4, 1.31367611885070800781e+00) (5, -1.62968182563781738281e+00) (6, 1.51944172382354736328e+00) (7, -5.23842811584472656250e-01) (8, -2.98611712455749511719e+00) (9, -5.80018103122711181641e-01) (10, 1.74618387222290039062e+00) (11, 1.81396532058715820312e+00) (12, -2.11169791221618652344e+00) (13, 3.09623432159423828125e+00) (14, 3.41845721006393432617e-01) (15, -2.38161754608154296875e+00) (16, 1.79533970355987548828e+00) (17, -1.00977778434753417969e+00) (18, -2.77296233177185058594e+00) (19, 4.80414772033691406250e+00) (20, -1.05253529548645019531e+00) (21, 3.07537049055099487305e-01) (22, -1.75401842594146728516e+00) (23, 5.07705211639404296875e+00) (24, -1.05506429672241210938e+01) (25, 2.72707056999206542969e+00) (26, 4.84159183502197265625e+00) (27, 3.37795138359069824219e-01) (28, -6.22079324722290039062e+00) (29, -8.17586898803710937500e-01) (30, 4.91450834274291992188e+00) (31, -1.06562502682209014893e-01) (32, -2.97382283210754394531e+00) (33, 1.59266579151153564453e+00) (34, 3.41065526008605957031e+00) (35, -3.58448505401611328125e+00) (36, -2.40858674049377441406e+00) (37, -1.60869657993316650391e+00) (38, 9.93006348609924316406e-01) (39, 5.02897977828979492188e+00) (40, -1.98359417915344238281e+00) (41, 1.27260279655456542969e+00) (42, 1.51807677745819091797e+00) (43, -2.52329856157302856445e-01) (44, 4.88002188503742218018e-02) (45, -1.55783712863922119141e-01) (46, 2.07224202156066894531e+00) (47, -1.24126541614532470703e+00) (48, -9.15667235851287841797e-01) (49, 2.89304614067077636719e+00) (50, 2.55886375904083251953e-01) (51, -3.50829887390136718750e+00) (52, 3.14060592651367187500e+00) (0, 8.90957069396972656250e+00) (1, 4.34698562622070312500e+01) (2, 4.86157493591308593750e+01) (3, 1.70527610778808593750e+01) (4, -2.99661397933959960938e+00) (5, 5.55857505798339843750e+01) (6, 1.41170644760131835938e+01) (7, 7.34518051147460937500e+01) (8, -2.13065319061279296875e+01) (9, 4.12154388427734375000e+01) (10, 4.69114494323730468750e+01) (11, 6.65906066894531250000e+01) (12, 7.94092254638671875000e+01) (13, 3.26694717407226562500e+01) (14, 8.26205825805664062500e+00) (15, 2.79650154113769531250e+01) (16, 2.72620029449462890625e+01) (17, 2.41246681213378906250e+01) (18, 1.80406799316406250000e+01) (19, 2.80278739929199218750e+01) (20, 2.39606399536132812500e+01) (21, 1.60517845153808593750e+01) (22, 4.84919357299804687500e+01) (23, 4.38841552734375000000e+01) (24, 6.67212890625000000000e+02) (25, -1.16454968261718750000e+03) (26, 5.67067138671875000000e+02) (27, 6.37871215820312500000e+02) (28, -7.16315650939941406250e+00) (29, 2.36583538055419921875e+01) (30, 5.03157081604003906250e+01) (31, 7.24732437133789062500e+01) (32, 1.49378509521484375000e+01) (33, 2.72060012817382812500e+01) (34, 1.09741725921630859375e+01) (35, 8.45611495971679687500e+01) (36, 8.06344528198242187500e+01) (37, 3.52981710433959960938e+00) (38, 7.32282028198242187500e+01) (39, 5.34086875915527343750e+01) (40, 7.60026979446411132812e+00) (41, 5.23760795593261718750e+01) (42, 2.37215824127197265625e+01) (43, 4.95739135742187500000e+01) (44, -1.70763988494873046875e+01) (45, 4.81316642761230468750e+01) (46, 5.88918991088867187500e+01) (47, 1.01386466979980468750e+02) (48, -1.61232833862304687500e+01) (49, 6.48685226440429687500e+01) (50, 6.33979263305664062500e+01) (51, 1.19855262756347656250e+02) (52, -4.50017976760864257812e+00) (0, -1.43877563476562500000e+03) (1, -1.50000000000000000000e+03) (2, 1.49937109375000000000e+03) (3, -1.49919799804687500000e+03) (4, -1.50000000000000000000e+03) (5, -2.95738739013671875000e+02) (6, 1.50000000000000000000e+03) (7, 1.49998962402343750000e+03) (8, -1.50000000000000000000e+03) (9, 3.06104125976562500000e+02) (10, -1.48112133789062500000e+03) (11, 1.50000000000000000000e+03) (12, 3.30485351562500000000e+02) (13, -6.90266235351562500000e+02) (14, -2.40203750610351562500e+02) (15, -1.09816650390625000000e+03) (16, -1.49817834472656250000e+03) (17, 9.40817321777343750000e+02) (18, 1.49587097167968750000e+03) (19, -1.50000000000000000000e+03) (20, 1.33972119140625000000e+03) (21, 7.18944946289062500000e+02) (22, -1.49715881347656250000e+03) (23, 5.75106140136718750000e+02) (24, 1.50000000000000000000e+03) (25, -1.49731201171875000000e+03) (26, -1.49993371582031250000e+03) (27, -1.41469702148437500000e+03) (28, 1.12499316406250000000e+03) (29, -1.49915344238281250000e+03) (30, 1.47624011230468750000e+03) (31, 4.80694671630859375000e+02) (32, -2.95302825927734375000e+02) (33, -1.49998059082031250000e+03) (34, 4.13393554687500000000e+02) (35, 1.39559277343750000000e+03) (36, -1.50000000000000000000e+03) (37, -1.49998876953125000000e+03) (38, 1.50000000000000000000e+03) (39, 8.14670288085937500000e+02) (40, 1.49960717773437500000e+03) (41, 1.44514318847656250000e+03) (42, -1.49997875976562500000e+03) (43, 1.49676684570312500000e+03) (44, -1.49998815917968750000e+03) (45, -1.49947607421875000000e+03) (46, 1.49979260253906250000e+03) (47, 1.50000000000000000000e+03) (48, -1.49760754394531250000e+03) (49, 1.50000000000000000000e+03) (50, -1.20168737792968750000e+03) (51, 1.69605651855468750000e+02) (52, -1.47408914566040039062e+01) (0, 1.98438382148742675781e+00) (1, 4.79617977142333984375e+00) (2, -1.14402413368225097656e+00) (3, 1.22673702239990234375e+00) (4, 3.19792199134826660156e+00) (5, 3.36112797260284423828e-01) (6, 3.63549351692199707031e+00) (7, 3.40108418464660644531e+00) (8, 3.65019845962524414062e+00) (9, 2.74089598655700683594e+00) (10, 2.63052296638488769531e+00) (11, -9.46483671665191650391e-01) (12, 4.20234024524688720703e-01) (13, 3.41683959960937500000e+00) (14, 2.02066421508789062500e+00) (15, 1.70493757724761962891e+00) (16, 2.93964004516601562500e+00) (17, 2.21341347694396972656e+00) (18, 3.69252145290374755859e-01) (19, 1.84224772453308105469e+00) (20, 3.45358800888061523438e+00) (21, -3.61562252044677734375e+00) (22, 6.11597156524658203125e+00) (23, 4.76501798629760742188e+00) (24, 1.09832763671875000000e+01) (25, -5.15602302551269531250e+01) (26, 1.18282108306884765625e+01) (27, 1.86293449401855468750e+01) (28, 3.49225401878356933594e+00) (29, 1.11958849430084228516e+00) (30, 6.12559735774993896484e-01) (31, 3.64413714408874511719e+00) (32, 6.89917087554931640625e+00) (33, 2.53898620605468750000e-01) (34, 5.55425703525543212891e-01) (35, 5.91718196868896484375e+00) (36, 3.47681236267089843750e+00) (37, 9.27554905414581298828e-01) (38, 1.04028940200805664062e+00) (39, 5.08135557174682617188e+00) (40, 4.31775760650634765625e+00) (41, 5.60491919517517089844e-01) (42, 1.76207435131072998047e+00) (43, 3.12999105453491210938e+00) (44, 1.56198728084564208984e+00) (45, 1.08378088474273681641e+00) (46, 2.16189360618591308594e+00) (47, 3.77206516265869140625e+00) (48, 1.61083102226257324219e+00) (49, 1.51424109935760498047e+00) (50, 7.13607406616210937500e+00) (51, 6.06615364551544189453e-01) (52, 1.46346795558929443359e+00) (0, 2.71284908056259155273e-01) (1, 1.73484230041503906250e+00) (2, 1.92961990833282470703e+00) (3, -3.58731523156166076660e-02) (4, 1.07548348605632781982e-01) (5, 9.19981777667999267578e-01) (6, 8.20214092731475830078e-01) (7, 5.59023523330688476562e+00) (8, 1.78721833229064941406e+00) (9, -1.24542748928070068359e+00) (10, 2.20256471633911132812e+00) (11, 4.57036495208740234375e+00) (12, 8.65702342987060546875e+00) (13, 3.33594846725463867188e+00) (14, -3.99072194099426269531e+00) (15, 6.64752066135406494141e-01) (16, 2.32063770294189453125e+01) (17, -4.04340600967407226562e+00) (18, 5.38240575790405273438e+00) (19, -1.90735256671905517578e+00) (20, 6.04642534255981445312e+00) (21, -2.07803511619567871094e+00) (22, 1.90311872959136962891e+00) (23, 1.52643728256225585938e+00) (24, 1.52010488510131835938e+01) (25, 3.73918890953063964844e+00) (26, 1.24077782034873962402e-01) (27, -6.50571155548095703125e+00) (28, 1.44069700241088867188e+01) (29, -2.00338172912597656250e+00) (30, -3.90187315642833709717e-02) (31, 1.10894930362701416016e+00) (32, 1.86381757259368896484e+00) (33, 6.62404119968414306641e-01) (34, -2.83375948667526245117e-01) (35, 3.20779991149902343750e+00) (36, -2.27048420906066894531e+00) (37, 1.68508255481719970703e+00) (38, -1.59535479545593261719e+00) (39, 7.32313871383666992188e+00) (40, 2.12286067008972167969e+00) (41, -5.58470535278320312500e+00) (42, 1.43305788040161132812e+01) (43, 2.34530949592590332031e+00) (44, -1.99189138412475585938e+00) (45, -4.68799066543579101562e+00) (46, 9.33327579498291015625e+00) (47, 2.91833591461181640625e+00) (48, -3.88281607627868652344e+00) (49, 1.43366026878356933594e+00) (50, 4.81349229812622070312e+00) (51, 8.79079043865203857422e-01) (52, 2.06855559349060058594e+00) (0, 9.81321632862091064453e-01) (1, 9.43009614944458007812e-01) (2, -1.88951086997985839844e+00) (3, -1.57421648502349853516e-01) (4, 4.17362928390502929688e+00) (5, -8.15853357315063476562e-01) (6, -1.02122694253921508789e-01) (7, 1.87265038490295410156e+00) (8, 1.62006273865699768066e-01) (9, 1.94265508651733398438e+00) (10, 2.43206930160522460938e+00) (11, -3.59564590454101562500e+00) (12, 1.25505888462066650391e+00) (13, -1.04056799411773681641e+00) (14, 1.05817556381225585938e+00) (15, 3.14388185739517211914e-01) (16, 2.67555594444274902344e+00) (17, -1.35179448127746582031e+00) (18, -2.62359023094177246094e-01) (19, 1.62436795234680175781e+00) (20, -1.16642320156097412109e+00) (21, 4.78118658065795898438e-01) (22, -9.52824413776397705078e-01) (23, 5.06174612045288085938e+00) (24, -3.14730477333068847656e+00) (25, 5.99268531799316406250e+00) (26, -1.86441168189048767090e-01) (27, -5.21633215248584747314e-02) (28, 4.14811515808105468750e+00) (29, 6.73362314701080322266e-01) (30, 1.32660722732543945312e+00) (31, -2.65286540985107421875e+00) (32, 2.72703218460083007812e+00) (33, 5.77740445733070373535e-02) (34, 2.73852288722991943359e-01) (35, 2.15962815284729003906e+00) (36, 3.56434971094131469727e-01) (37, -5.80716669559478759766e-01) (38, 2.69029164314270019531e+00) (39, -7.64455616474151611328e-01) (40, 1.22465085983276367188e+00) (41, 4.42311525344848632812e-01) (42, -8.13128650188446044922e-02) (43, 3.75137746334075927734e-01) (44, -2.52888512611389160156e+00) (45, 1.45102643966674804688e+00) (46, -2.03405559062957763672e-01) (47, 1.11749470233917236328e+00) (48, 5.51360845565795898438e+00) (49, -1.15949980914592742920e-01) (50, -1.55574902892112731934e-01) (51, -8.46607089042663574219e-02) (52, 3.24656820297241210938e+00) (0, 2.96029114723205566406e+00) (1, 4.73436117172241210938e+00) (2, 4.79599142074584960938e+00) (3, 5.72031199932098388672e-01) (4, 2.95045900344848632812e+00) (5, 4.25767946243286132812e+00) (6, 3.46223235130310058594e+00) (7, 2.18131923675537109375e+00) (8, 3.39903712272644042969e-01) (9, 4.28403997421264648438e+00) (10, 2.31616091728210449219e+00) (11, 4.73784112930297851562e+00) (12, 8.51880550384521484375e+00) (13, 2.00771999359130859375e+00) (14, 4.67261886596679687500e+00) (15, 1.87236756086349487305e-01) (16, 5.22504663467407226562e+00) (17, 2.27609825134277343750e+00) (18, 3.18318128585815429688e+00) (19, 3.32901716232299804688e+00) (20, 5.84942674636840820312e+00) (21, 3.73477578163146972656e+00) (22, 4.46651887893676757812e+00) (23, 5.09370744228363037109e-01) (24, 4.25121593475341796875e+00) (25, 4.04142379760742187500e+00) (26, 1.28637599945068359375e+00) (27, 1.39319550991058349609e+00) (28, 4.22100753784179687500e+01) (29, -9.16443023681640625000e+01) (30, 3.11402091979980468750e+01) (31, 3.16954479217529296875e+01) (32, 3.41276645660400390625e+00) (33, 4.71651434898376464844e-01) (34, 3.55558371543884277344e+00) (35, 6.70183277130126953125e+00) (36, 9.94594669342041015625e+00) (37, 2.30750775337219238281e+00) (38, 1.78859090805053710938e+00) (39, 3.56713652610778808594e+00) (40, 7.30958223342895507812e+00) (41, 2.80906820297241210938e+00) (42, 1.90065920352935791016e+00) (43, 2.89063549041748046875e+00) (44, 2.28062152862548828125e+00) (45, 4.37631320953369140625e+00) (46, 3.73496270179748535156e+00) (47, 1.59543836116790771484e+00) (48, 4.94508457183837890625e+00) (49, 5.59571027755737304688e+00) (50, 1.72489440441131591797e+00) (51, 2.39209032058715820312e+00) (52, 1.08227396011352539062e+00) (0, 4.84808540344238281250e+00) (1, 2.43207001686096191406e+00) (2, -4.04515743255615234375e+00) (3, 5.70100402832031250000e+00) (4, 1.58268606662750244141e+00) (5, -2.47198157012462615967e-02) (6, 2.51611018180847167969e+00) (7, 7.47476041316986083984e-01) (8, 3.07181787490844726562e+00) (9, 3.64789390563964843750e+00) (10, -3.36440742015838623047e-01) (11, -1.15131974220275878906e+00) (12, 5.44144010543823242188e+00) (13, -1.73194622993469238281e+00) (14, 1.16846609115600585938e+00) (15, 1.47879946231842041016e+00) (16, 2.56902360916137695312e+00) (17, -2.06964683532714843750e+00) (18, 2.93069863319396972656e+00) (19, 5.89784801006317138672e-01) (20, 1.59818977117538452148e-01) (21, 1.30212504882365465164e-03) (22, 1.63710784912109375000e+00) (23, 1.09113919734954833984e+00) (24, 1.01074981689453125000e+01) (25, -9.56105947494506835938e-01) (26, 3.21154385805130004883e-01) (27, 5.27109920978546142578e-01) (28, 5.89903783798217773438e+00) (29, 8.52844893932342529297e-01) (30, 1.38704037666320800781e+00) (31, -1.14721560478210449219e+00) (32, 1.61951172351837158203e+00) (33, -1.18126440048217773438e+00) (34, 7.20694303512573242188e-01) (35, 5.56237459182739257812e+00) (36, -1.70384693145751953125e+00) (37, 1.86016768217086791992e-01) (38, 3.00535321235656738281e+00) (39, -4.10638786852359771729e-02) (40, 5.02814464271068572998e-02) (41, -2.54765796661376953125e+00) (42, 3.88376545906066894531e+00) (43, 4.40314865112304687500e+00) (44, 4.40644693374633789062e+00) (45, 2.00899653136730194092e-02) (46, 1.34113192558288574219e+00) (47, 1.03984379768371582031e+00) (48, -9.32673037052154541016e-01) (49, 2.02141389250755310059e-01) (50, 1.66829717159271240234e+00) (51, 1.03139662742614746094e+00) (52, 2.56275272369384765625e+00) (0, 7.28467226028442382812e+00) (1, 6.46660757064819335938e+00) (2, -5.87728929519653320312e+00) (3, 3.48608303070068359375e+00) (4, -1.51547775268554687500e+01) (5, 3.94754767417907714844e+00) (6, 1.30314435958862304688e+01) (7, 2.57419705390930175781e+00) (8, -1.78732287883758544922e+00) (9, 3.70795488357543945312e+00) (10, -4.23070049285888671875e+00) (11, 1.57381105422973632812e+01) (12, -7.99961471557617187500e+00) (13, 2.23539962768554687500e+01) (14, -1.61809563636779785156e+00) (15, 3.20190429687500000000e+00) (16, 3.73069801330566406250e+01) (17, 9.07869434356689453125e+00) (18, 1.03507411479949951172e+00) (19, -1.07824726104736328125e+01) (20, 5.08117561340332031250e+01) (21, 6.96377038955688476562e+00) (22, -9.96890544891357421875e+00) (23, 5.73555111885070800781e-01) (24, 1.81786403656005859375e+01) (25, -1.68999767303466796875e+01) (26, 5.55000400543212890625e+00) (27, 9.15244865417480468750e+00) (28, 1.11534595489501953125e+01) (29, 1.70466899871826171875e+01) (30, -1.29516792297363281250e+01) (31, 3.88174510002136230469e+00) (32, 6.52700424194335937500e-01) (33, 5.05217933654785156250e+00) (34, 2.64362978935241699219e+00) (35, 1.64340686798095703125e+00) (36, -1.06772346496582031250e+01) (37, 4.42596197128295898438e+00) (38, 2.19257965087890625000e+01) (39, -3.25375938415527343750e+00) (40, 4.84315204620361328125e+00) (41, 9.63340950012207031250e+00) (42, 2.88730788230895996094e+00) (43, -2.26314878463745117188e+00) (44, 9.59861099720001220703e-01) (45, 9.17454898357391357422e-01) (46, -3.64146280288696289062e+00) (47, 2.14188385009765625000e+01) (48, -1.98386347293853759766e+00) (49, -1.28422284126281738281e+00) (50, 4.02713823318481445312e+00) (51, 6.42457532882690429688e+00) (52, 1.30071413516998291016e+00) (0, -3.56132030487060546875e+00) (1, -4.23048543930053710938e+00) (2, 2.16604724526405334473e-01) (3, 1.18342673778533935547e+00) (4, -8.85920238494873046875e+00) (5, -1.89081287384033203125e+00) (6, 1.24666464328765869141e+00) (7, 4.75428134202957153320e-01) (8, -2.66832041740417480469e+00) (9, 1.51092183589935302734e+00) (10, -2.27062320709228515625e+00) (11, -3.34938907623291015625e+00) (12, -3.68115806579589843750e+00) (13, -2.07320833206176757812e+00) (14, 7.74155378341674804688e-01) (15, -5.96844673156738281250e-01) (16, -4.70228481292724609375e+00) (17, 3.55878853797912597656e+00) (18, -6.65775346755981445312e+00) (19, -7.48880565166473388672e-01) (20, -1.68431510925292968750e+01) (21, 2.10225319862365722656e+00) (22, -5.43791866302490234375e+00) (23, 5.04078722000122070312e+00) (24, -6.26174783706665039062e+00) (25, 3.14844226837158203125e+00) (26, 4.17472869157791137695e-01) (27, -1.02769603729248046875e+01) (28, -1.10273981094360351562e+01) (29, 2.31515526771545410156e+00) (30, -1.29115784168243408203e+00) (31, 3.94814252853393554688e-01) (32, -9.76694011688232421875e+00) (33, 6.25173389911651611328e-01) (34, -6.98607015609741210938e+00) (35, 5.53622770309448242188e+00) (36, -6.20631980895996093750e+00) (37, 1.81362879276275634766e+00) (38, 9.12125259637832641602e-02) (39, -2.96978378295898437500e+00) (40, -6.36414575576782226562e+00) (41, 4.50021171569824218750e+00) (42, -2.06520915031433105469e+00) (43, -3.09809565544128417969e+00) (44, -4.27485322952270507812e+00) (45, 1.27084803581237792969e+00) (46, 3.77113163471221923828e-01) (47, -5.07430696487426757812e+00) (48, -2.09727001190185546875e+00) (49, 1.67210423946380615234e+00) (50, -6.16563737392425537109e-01) (51, -3.62444639205932617188e+00) (52, 4.32848691940307617188e+00) (0, -8.39560925960540771484e-02) (1, -1.48123860359191894531e-01) (2, -2.62543052434921264648e-01) (3, 2.76543998718261718750e+00) (4, 3.42040568590164184570e-01) (5, 1.52782368659973144531e+00) (6, 9.33044683188199996948e-03) (7, -2.26866745948791503906e+00) (8, 2.66228771209716796875e+00) (9, 8.51137280464172363281e-01) (10, 7.15910136699676513672e-01) (11, -3.80072426795959472656e+00) (12, 5.62414288520812988281e-01) (13, 3.96988421678543090820e-01) (14, -4.77392971515655517578e-01) (15, 1.49275815486907958984e+00) (16, -6.80731534957885742188e-01) (17, -8.55592727661132812500e-01) (18, 3.74469727277755737305e-01) (19, 3.11167907714843750000e+00) (20, -1.18609201908111572266e+00) (21, 2.57894843816757202148e-01) (22, 4.11837756633758544922e-01) (23, 2.67411231994628906250e-01) (24, 1.53969573974609375000e+00) (25, 3.07831311225891113281e+00) (26, 1.61460173130035400391e+00) (27, -3.46790242195129394531e+00) (28, -5.33001907169818878174e-02) (29, -3.30307245254516601562e-01) (30, 4.39801120758056640625e+00) (31, -5.16299128532409667969e-01) (32, -2.23070573806762695312e+00) (33, 1.73065376281738281250e+00) (34, -2.44253373146057128906e+00) (35, 1.98046040534973144531e+00) (36, 3.06121444702148437500e+00) (37, 1.44363164901733398438e+00) (38, 3.88233184814453125000e-01) (39, -1.79941630363464355469e+00) (40, -2.51386612653732299805e-01) (41, 1.52598452568054199219e+00) (42, 7.07370042800903320312e-01) (43, -4.65766966342926025391e-01) (44, 2.60278916358947753906e+00) (45, 5.55747091770172119141e-01) (46, -3.14440876245498657227e-01) (47, -1.60992667078971862793e-01) (48, 4.79519546031951904297e-01) (49, -1.58997011184692382812e+00) (50, 7.03447043895721435547e-01) (51, 1.75656628608703613281e+00) (52, 3.13389658927917480469e+00) (0, 3.02939338684082031250e+01) (1, 3.66900634765625000000e+01) (2, -4.40060567855834960938e+00) (3, 9.60158467292785644531e-01) (4, 2.23309726715087890625e+01) (5, 3.00002098083496093750e+01) (6, 8.83003902435302734375e+00) (7, -7.28987121582031250000e+00) (8, 1.88907318115234375000e+01) (9, 1.15484428405761718750e+01) (10, 9.23034381866455078125e+00) (11, -2.44898676872253417969e+00) (12, 3.87383499145507812500e+01) (13, 4.04402685165405273438e+00) (14, 1.06097173690795898438e+01) (15, 3.61692786216735839844e+00) (16, 1.09594697952270507812e+01) (17, 8.60367870330810546875e+00) (18, 9.23807334899902343750e+00) (19, 1.15204515457153320312e+01) (20, 2.12476501464843750000e+01) (21, 1.20760650634765625000e+01) (22, 3.22104492187500000000e+01) (23, -8.96412372589111328125e+00) (24, 4.56033363342285156250e+01) (25, 1.75819606781005859375e+01) (26, -2.47880220413208007812e+00) (27, 1.87777554988861083984e+00) (28, 2.07243988037109375000e+02) (29, 1.47876235961914062500e+02) (30, -2.59744995117187500000e+02) (31, 2.00297439575195312500e+02) (32, 6.64035618305206298828e-01) (33, 2.88865814208984375000e+01) (34, 3.66375999450683593750e+01) (35, 8.66772890090942382812e-01) (36, 3.53449783325195312500e+01) (37, 2.92574005126953125000e+01) (38, -4.20580787658691406250e+01) (39, 1.46212034225463867188e+01) (40, 1.11240715026855468750e+02) (41, 9.69287681579589843750e+00) (42, 6.75884552001953125000e+01) (43, -1.68463706970214843750e+01) (44, 5.51173734664916992188e+00) (45, 1.41546239852905273438e+01) (46, 1.92919063568115234375e+01) (47, 8.49640464782714843750e+00) (48, 4.25242080688476562500e+01) (49, -5.92457389831542968750e+00) (50, 1.82461090087890625000e+01) (51, 6.54057550430297851562e+00) (52, -1.61351752281188964844e+00) (53, 7.38129043579101562500e+00) (54, 9.09200000762939453125e+00) (55, 6.55475330352783203125e+00) (56, 7.44074344635009765625e+00) (57, 5.33055734634399414062e+00) (58, 3.39906978607177734375e+00) (59, 4.17387008666992187500e+00) (60, 6.24527454376220703125e+00) (61, 5.63048505783081054688e+00) (62, 5.24538326263427734375e+00) (63, 6.66244649887084960938e+00) (64, 5.87125635147094726562e+00) (65, -3.73958802223205566406e+00) (66, -4.07963991165161132812e+00) (67, 7.73056316375732421875e+00) (68, -4.04505586624145507812e+00) (69, 5.20522356033325195312e+00) (70, 7.33493566513061523438e+00) (71, -8.89026260375976562500e+00) (72, 5.70797634124755859375e+00) (73, 4.47457313537597656250e+00) (74, -1.19218368530273437500e+01) (75, 7.54428386688232421875e+00) (76, 5.35441875457763671875e+00) (77, 5.18235349655151367188e+00) (78, 7.03979063034057617188e+00) (79, -1.06599769592285156250e+01) (80, 6.87392425537109375000e+00) (81, -3.13675451278686523438e+00) (82, 9.13680267333984375000e+00) (83, 1.05694842338562011719e+00) (84, 6.05490922927856445312e+00) (85, 4.38720178604125976562e+00) (86, 5.37414360046386718750e+00) (87, 2.66747641563415527344e+00) (88, 7.10750007629394531250e+00) (89, 4.89293622970581054688e+00) (90, 5.54309177398681640625e+00) (91, 7.27249050140380859375e+00) (92, -1.19363927841186523438e+01) (93, 5.04189205169677734375e+00) (94, 9.77521419525146484375e+00) (95, 6.98078632354736328125e+00) (96, -8.09771537780761718750e+00) (97, 9.70367050170898437500e+00) 
