FANN_FLO_2.1
num_layers=3
learning_rate=0.700000
connection_rate=1.000000
network_type=0
learning_momentum=0.000000
training_algorithm=2
train_error_function=1
train_stop_function=0
cascade_output_change_fraction=0.010000
quickprop_decay=-0.000100
quickprop_mu=1.750000
rprop_increase_factor=1.200000
rprop_decrease_factor=0.500000
rprop_delta_min=0.000000
rprop_delta_max=50.000000
rprop_delta_zero=0.100000
cascade_output_stagnation_epochs=12
cascade_candidate_change_fraction=0.010000
cascade_candidate_stagnation_epochs=12
cascade_max_out_epochs=150
cascade_min_out_epochs=50
cascade_max_cand_epochs=150
cascade_min_cand_epochs=50
cascade_num_candidate_groups=2
bit_fail_limit=3.49999994039535522461e-01
cascade_candidate_limit=1.00000000000000000000e+03
cascade_weight_multiplier=4.00000005960464477539e-01
cascade_activation_functions_count=10
cascade_activation_functions=3 5 7 8 10 11 14 15 16 17 
cascade_activation_steepnesses_count=4
cascade_activation_steepnesses=2.50000000000000000000e-01 5.00000000000000000000e-01 7.50000000000000000000e-01 1.00000000000000000000e+00 
layer_sizes=53 45 2 
scale_included=0
neurons (num_inputs, activation_function, activation_steepness)=(0, 0, 0.00000000000000000000e+00) (0, 0, 0.00000000000000000000e+00) (0, 0, 0.00000000000000000000e+00) (0, 0, 0.00000000000000000000e+00) (0, 0, 0.00000000000000000000e+00) (0, 0, 0.00000000000000000000e+00) (0, 0, 0.00000000000000000000e+00) (0, 0, 0.00000000000000000000e+00) (0, 0, 0.00000000000000000000e+00) (0, 0, 0.00000000000000000000e+00) (0, 0, 0.00000000000000000000e+00) (0, 0, 0.00000000000000000000e+00) (0, 0, 0.00000000000000000000e+00) (0, 0, 0.00000000000000000000e+00) (0, 0, 0.00000000000000000000e+00) (0, 0, 0.00000000000000000000e+00) (0, 0, 0.00000000000000000000e+00) (0, 0, 0.00000000000000000000e+00) (0, 0, 0.00000000000000000000e+00) (0, 0, 0.00000000000000000000e+00) (0, 0, 0.00000000000000000000e+00) (0, 0, 0.00000000000000000000e+00) (0, 0, 0.00000000000000000000e+00) (0, 0, 0.00000000000000000000e+00) (0, 0, 0.00000000000000000000e+00) (0, 0, 0.00000000000000000000e+00) (0, 0, 0.00000000000000000000e+00) (0, 0, 0.00000000000000000000e+00) (0, 0, 0.00000000000000000000e+00) (0, 0, 0.00000000000000000000e+00) (0, 0, 0.00000000000000000000e+00) (0, 0, 0.00000000000000000000e+00) (0, 0, 0.00000000000000000000e+00) (0, 0, 0.00000000000000000000e+00) (0, 0, 0.00000000000000000000e+00) (0, 0, 0.00000000000000000000e+00) (0, 0, 0.00000000000000000000e+00) (0, 0, 0.00000000000000000000e+00) (0, 0, 0.00000000000000000000e+00) (0, 0, 0.00000000000000000000e+00) (0, 0, 0.00000000000000000000e+00) (0, 0, 0.00000000000000000000e+00) (0, 0, 0.00000000000000000000e+00) (0, 0, 0.00000000000000000000e+00) (0, 0, 0.00000000000000000000e+00) (0, 0, 0.00000000000000000000e+00) (0, 0, 0.00000000000000000000e+00) (0, 0, 0.00000000000000000000e+00) (0, 0, 0.00000000000000000000e+00) (0, 0, 0.00000000000000000000e+00) (0, 0, 0.00000000000000000000e+00) (0, 0, 0.00000000000000000000e+00) (0, 0, 0.00000000000000000000e+00) (53, 5, 5.00000000000000000000e-01) (53, 5, 5.00000000000000000000e-01) (53, 5, 5.00000000000000000000e-01) (53, 5, 5.00000000000000000000e-01) (53, 5, 5.00000000000000000000e-01) (53, 5, 5.00000000000000000000e-01) (53, 5, 5.00000000000000000000e-01) (53, 5, 5.00000000000000000000e-01) (53, 5, 5.00000000000000000000e-01) (53, 5, 5.00000000000000000000e-01) (53, 5, 5.00000000000000000000e-01) (53, 5, 5.00000000000000000000e-01) (53, 5, 5.00000000000000000000e-01) (53, 5, 5.00000000000000000000e-01) (53, 5, 5.00000000000000000000e-01) (53, 5, 5.00000000000000000000e-01) (53, 5, 5.00000000000000000000e-01) (53, 5, 5.00000000000000000000e-01) (53, 5, 5.00000000000000000000e-01) (53, 5, 5.00000000000000000000e-01) (53, 5, 5.00000000000000000000e-01) (53, 5, 5.00000000000000000000e-01) (53, 5, 5.00000000000000000000e-01) (53, 5, 5.00000000000000000000e-01) (53, 5, 5.00000000000000000000e-01) (53, 5, 5.00000000000000000000e-01) (53, 5, 5.00000000000000000000e-01) (53, 5, 5.00000000000000000000e-01) (53, 5, 5.00000000000000000000e-01) (53, 5, 5.00000000000000000000e-01) (53, 5, 5.00000000000000000000e-01) (53, 5, 5.00000000000000000000e-01) (53, 5, 5.00000000000000000000e-01) (53, 5, 5.00000000000000000000e-01) (53, 5, 5.00000000000000000000e-01) (53, 5, 5.00000000000000000000e-01) (53, 5, 5.00000000000000000000e-01) (53, 5, 5.00000000000000000000e-01) (53, 5, 5.00000000000000000000e-01) (53, 5, 5.00000000000000000000e-01) (53, 5, 5.00000000000000000000e-01) (53, 5, 5.00000000000000000000e-01) (53, 5, 5.00000000000000000000e-01) (53, 5, 5.00000000000000000000e-01) (0, 5, 0.00000000000000000000e+00) (45, 5, 5.00000000000000000000e-01) (0, 5, 0.00000000000000000000e+00) 
connections (connected_to_neuron, weight)=(0, 5.94284310936927795410e-02) (1, -3.87565903365612030029e-02) (2, 3.10684770345687866211e-01) (3, 7.95693770051002502441e-02) (4, 1.50930747389793395996e-01) (5, 4.99441325664520263672e-01) (6, 6.78924202919006347656e-01) (7, 3.85884046554565429688e-02) (8, -1.01916171610355377197e-01) (9, 8.23300302028656005859e-01) (10, 4.77908074855804443359e-01) (11, 2.86205261945724487305e-01) (12, -2.13789984583854675293e-01) (13, 1.29308789968490600586e-01) (14, 5.81772506237030029297e-01) (15, 3.85997325181961059570e-01) (16, 4.85660228878259658813e-03) (17, 2.12397918105125427246e-01) (18, 4.27081823348999023438e-01) (19, 8.38980913162231445312e-01) (20, 3.48069220781326293945e-01) (21, 2.16638028621673583984e-01) (22, 3.31641912460327148438e-01) (23, -9.00516808032989501953e-01) (24, -2.11532064713537693024e-03) (25, -5.80896675586700439453e-01) (26, -5.83766222000122070312e-01) (27, -3.64155203104019165039e-01) (28, 2.81413763761520385742e-01) (29, -1.04173064231872558594e-01) (30, 6.07622087001800537109e-01) (31, -3.31465840339660644531e-01) (32, 4.64011013507843017578e-01) (33, -5.21174013614654541016e-01) (34, -3.87441106140613555908e-02) (35, 5.27401641011238098145e-02) (36, 1.76709994673728942871e-01) (37, 2.48249605298042297363e-01) (38, 3.62196058034896850586e-01) (39, 1.56427532434463500977e-01) (40, 4.70776438713073730469e-01) (41, 2.44165167212486267090e-01) (42, 6.54016375541687011719e-01) (43, 2.34234839677810668945e-01) (44, -1.21162720024585723877e-01) (45, 3.52246671915054321289e-01) (46, -1.67364329099655151367e-02) (47, 3.62655401229858398438e-01) (48, -1.80136915296316146851e-02) (49, -1.87870375812053680420e-02) (50, 4.76057708263397216797e-01) (51, 6.02198624983429908752e-03) (52, 9.63770031929016113281e-01) (0, -1.00564464926719665527e-01) (1, -6.96924829483032226562e+00) (2, 9.98653888702392578125e+00) (3, 3.13653445243835449219e+00) (4, 4.66364240646362304688e+00) (5, -6.28825569152832031250e+00) (6, 2.88645434379577636719e+00) (7, 2.70370896905660629272e-02) (8, 4.95163822174072265625e+00) (9, 2.88102555274963378906e+00) (10, -7.39381885528564453125e+00) (11, 1.53427147865295410156e+00) (12, 1.49321794509887695312e+00) (13, -1.13332664966583251953e+00) (14, 4.90574717521667480469e-01) (15, 4.98655200004577636719e-01) (16, 7.18712091445922851562e+00) (17, -3.08301448822021484375e+00) (18, 1.06804668903350830078e+00) (19, -2.28313636779785156250e+00) (20, 7.20001637935638427734e-01) (21, 1.16627454757690429688e+00) (22, -1.94047832489013671875e+00) (23, 8.36211585998535156250e+00) (24, 1.48978686332702636719e+00) (25, -6.98863446712493896484e-01) (26, 2.25528001785278320312e+00) (27, -1.38967692852020263672e-01) (28, 1.41561257839202880859e+00) (29, 2.79110312461853027344e+00) (30, -1.27754192352294921875e+01) (31, 1.63878593444824218750e+01) (32, -5.01743173599243164062e+00) (33, 8.11730861663818359375e+00) (34, 1.01034240722656250000e+01) (35, -2.89727616310119628906e+00) (36, -6.42458248138427734375e+00) (37, 5.12615346908569335938e+00) (38, 2.70188403129577636719e+00) (39, -9.37309026718139648438e-01) (40, 5.15402364730834960938e+00) (41, 6.06046795845031738281e-01) (42, -5.14939785003662109375e+00) (43, 1.37013399600982666016e+00) (44, -8.03368806838989257812e-01) (45, -2.34458136558532714844e+00) (46, 2.99808049201965332031e+00) (47, 5.86358118057250976562e+00) (48, 6.25242853164672851562e+00) (49, 6.97703659534454345703e-01) (50, -1.18724918365478515625e+00) (51, -1.56587624549865722656e+00) (52, 1.06658136844635009766e+00) (0, -3.00851607322692871094e+00) (1, 4.48547649383544921875e+00) (2, 3.50458812713623046875e+00) (3, 3.18538039922714233398e-01) (4, -1.83831572532653808594e-01) (5, 1.00280213356018066406e+00) (6, 1.08298790454864501953e+00) (7, 1.17789506912231445312e+01) (8, -4.61994141340255737305e-01) (9, 1.45781755447387695312e+00) (10, 2.51756334304809570312e+00) (11, 1.05845534801483154297e+00) (12, 5.97641229629516601562e-01) (13, 1.54233530163764953613e-01) (14, 1.71994483470916748047e+00) (15, 9.27389264106750488281e-01) (16, 6.61820411682128906250e+00) (17, 1.23812556266784667969e+00) (18, 2.82652944326400756836e-01) (19, 9.54839587211608886719e-01) (20, -5.25890775024890899658e-02) (21, -2.83649623394012451172e-01) (22, 2.19613361358642578125e+00) (23, 5.91338157653808593750e+00) (24, -8.04959118366241455078e-01) (25, 2.40045952796936035156e+00) (26, 7.51211643218994140625e-01) (27, -4.09654021263122558594e-01) (28, 3.03859353065490722656e+00) (29, -5.96884489059448242188e-01) (30, -5.73898911476135253906e-01) (31, 2.30053114891052246094e+00) (32, 1.89965581893920898438e+00) (33, 1.35300350189208984375e+00) (34, -5.69145798683166503906e-01) (35, 6.09369277954101562500e-02) (36, 1.95733726024627685547e+00) (37, -1.50041162967681884766e-01) (38, 3.48203325271606445312e+00) (39, 4.73902225494384765625e-01) (40, -1.33521699905395507812e+00) (41, 9.03193414211273193359e-01) (42, 4.30628538131713867188e+00) (43, 2.56162905693054199219e+00) (44, -3.60635131597518920898e-01) (45, -7.55340397357940673828e-01) (46, 2.50298094749450683594e+00) (47, 3.86510229110717773438e+00) (48, -4.71036553382873535156e-01) (49, 4.04651689529418945312e+00) (50, 4.03187185525894165039e-01) (51, 4.33297109603881835938e+00) (52, -1.98661714792251586914e-01) (0, -2.00928378105163574219e+00) (1, 1.18906939029693603516e+00) (2, 2.95649081468582153320e-01) (3, 4.10601758956909179688e+00) (4, 2.15184593200683593750e+00) (5, -1.10363531112670898438e+00) (6, 1.22171711921691894531e+00) (7, -5.76468288898468017578e-01) (8, 4.56486988067626953125e+00) (9, -2.57080721855163574219e+00) (10, 7.52402639389038085938e+00) (11, -2.18024373054504394531e+00) (12, 9.84624958038330078125e+00) (13, -9.81994867324829101562e-01) (14, 3.35990357398986816406e+00) (15, -4.54066419601440429688e+00) (16, 8.74300193786621093750e+00) (17, -9.83491480350494384766e-01) (18, -8.70680391788482666016e-01) (19, 9.00851309299468994141e-01) (20, -4.80502724647521972656e-01) (21, 1.79863536357879638672e+00) (22, -2.10540127754211425781e+00) (23, 5.03326416015625000000e+00) (24, 5.07112205028533935547e-01) (25, 3.81666922569274902344e+00) (26, -1.33294594287872314453e+00) (27, -1.00875876843929290771e-01) (28, -7.85552561283111572266e-01) (29, 5.04180097579956054688e+00) (30, -2.68763875961303710938e+00) (31, 6.08488559722900390625e+00) (32, -4.07458925247192382812e+00) (33, 7.29212903976440429688e+00) (34, 1.32503545284271240234e+00) (35, 6.70065164566040039062e-01) (36, 1.18101978302001953125e+00) (37, 1.51565480232238769531e+00) (38, 5.16145610809326171875e+00) (39, -1.11953105926513671875e+01) (40, 7.86159801483154296875e+00) (41, 7.94554519653320312500e+00) (42, -5.76393306255340576172e-01) (43, -5.88161325454711914062e+00) (44, -8.07153522968292236328e-01) (45, 1.42502129077911376953e+00) (46, 3.84842491149902343750e+00) (47, -4.26984500885009765625e+00) (48, 2.60339069366455078125e+00) (49, -1.17808687686920166016e+00) (50, -6.38560235500335693359e-01) (51, 2.94835627079010009766e-01) (52, 1.26360833644866943359e+00) (0, 7.69846916198730468750e-01) (1, -5.00349092483520507812e+00) (2, 2.51481437683105468750e+00) (3, -3.50766372680664062500e+00) (4, 5.76830101013183593750e+00) (5, -1.97043865919113159180e-01) (6, -4.95917224884033203125e+00) (7, -7.64388179779052734375e+00) (8, 3.70646309852600097656e+00) (9, -4.70862531661987304688e+00) (10, -1.87640631198883056641e+00) (11, 5.52942194044589996338e-02) (12, 2.91492313146591186523e-01) (13, -2.72300434112548828125e+00) (14, -6.13813400268554687500e-01) (15, 3.81035232543945312500e+00) (16, -2.05913662910461425781e+00) (17, -1.36260008811950683594e+00) (18, 1.52824068069458007812e+00) (19, -1.18979465961456298828e+00) (20, -4.11938476562500000000e+00) (21, 1.06484496593475341797e+00) (22, -2.53703165054321289062e+00) (23, 7.48260736465454101562e+00) (24, -1.10629138946533203125e+01) (25, 4.60161876678466796875e+00) (26, -5.98360955715179443359e-01) (27, -4.85662984848022460938e+00) (28, -1.91685523986816406250e+01) (29, 7.12131118774414062500e+00) (30, -2.54762291908264160156e+00) (31, -1.11267232894897460938e+00) (32, -8.75688266754150390625e+00) (33, 2.87674236297607421875e+00) (34, 5.12098550796508789062e-01) (35, 1.24198682606220245361e-01) (36, 3.05957055091857910156e+00) (37, -6.57293558120727539062e+00) (38, 2.11327239871025085449e-01) (39, -3.93388032913208007812e+00) (40, 3.72745966911315917969e+00) (41, -1.98880040645599365234e+00) (42, -1.89922487735748291016e+00) (43, -4.28153848648071289062e+00) (44, -1.97411382198333740234e+00) (45, -2.99656391143798828125e+00) (46, 1.36631107330322265625e+00) (47, 6.80484831333160400391e-01) (48, 1.26758837699890136719e+00) (49, -4.40946483612060546875e+00) (50, 1.17779076099395751953e+00) (51, -1.14290332794189453125e+01) (52, 9.99129056930541992188e-01) (0, 2.20834708213806152344e+00) (1, -7.59224414825439453125e-01) (2, -2.53765058517456054688e+00) (3, 9.72111642360687255859e-01) (4, 7.23727846145629882812e+00) (5, 1.89663338661193847656e+00) (6, -1.24278326034545898438e+01) (7, -3.64911532402038574219e+00) (8, 2.22008132934570312500e+00) (9, 1.46705329418182373047e+00) (10, -3.18368291854858398438e+00) (11, -1.65615978240966796875e+01) (12, 3.84364700317382812500e+00) (13, -2.96532297134399414062e+00) (14, 4.24824133515357971191e-02) (15, -6.60184669494628906250e+00) (16, 1.75933814048767089844e+00) (17, -2.01054878234863281250e+01) (18, 3.93032491207122802734e-01) (19, 1.39235496520996093750e+00) (20, 4.06179714202880859375e+00) (21, -1.48781383037567138672e+00) (22, 7.63100564479827880859e-01) (23, -2.29961633682250976562e+00) (24, 1.72292888164520263672e-01) (25, -1.15093803405761718750e+00) (26, -1.43950235843658447266e+00) (27, 7.59749460220336914062e+00) (28, -6.94416344165802001953e-01) (29, 3.77805829048156738281e+00) (30, -8.83331012725830078125e+00) (31, 3.75513434410095214844e+00) (32, -6.86046409606933593750e+00) (33, 3.91874027252197265625e+00) (34, 2.06426906585693359375e+00) (35, -9.22943973541259765625e+00) (36, -4.16922616958618164062e+00) (37, 9.49788379669189453125e+00) (38, -4.52535867691040039062e+00) (39, 4.32209539413452148438e+00) (40, -1.14059269428253173828e+00) (41, 7.82524442672729492188e+00) (42, -2.46917545795440673828e-01) (43, -3.85862898826599121094e+00) (44, 4.96512264013290405273e-01) (45, 1.69723463058471679688e+00) (46, 2.65041440725326538086e-01) (47, -7.45847177505493164062e+00) (48, -6.10282659530639648438e+00) (49, -1.19505059719085693359e+00) (50, 5.61800861358642578125e+00) (51, -8.88294637203216552734e-01) (52, 9.96110498905181884766e-01) (0, 3.22913575172424316406e+00) (1, 2.61541795730590820312e+00) (2, -1.54007518291473388672e+00) (3, 2.82456541061401367188e+00) (4, 2.40604639053344726562e+00) (5, 2.62533378601074218750e+00) (6, 1.05123221874237060547e+00) (7, -5.16707515716552734375e+00) (8, 1.26116290688514709473e-01) (9, 2.04326820373535156250e+00) (10, 6.14081501960754394531e-01) (11, 4.88528585433959960938e+00) (12, 9.62274074554443359375e-01) (13, 1.66569077968597412109e+00) (14, -1.93541944026947021484e-02) (15, 4.39927625656127929688e+00) (16, 1.78310179710388183594e+00) (17, 8.77021253108978271484e-02) (18, 2.17433142662048339844e+00) (19, 4.69524049758911132812e+00) (20, 2.86391282081604003906e+00) (21, 4.92408418655395507812e+00) (22, 3.95658910274505615234e-01) (23, -1.53539304733276367188e+01) (24, 2.62379693984985351562e+00) (25, -5.39270758628845214844e-01) (26, 1.16900038719177246094e+00) (27, 9.64950680732727050781e-01) (28, 2.08999514579772949219e+00) (29, -2.72211718559265136719e+00) (30, 4.52909469604492187500e+00) (31, -4.08809125423431396484e-01) (32, 3.64629530906677246094e+00) (33, 1.36740303039550781250e+00) (34, 2.28682947158813476562e+00) (35, -3.60643649101257324219e+00) (36, 2.10974788665771484375e+00) (37, -1.82407334446907043457e-01) (38, 4.26455211639404296875e+00) (39, 3.50980103015899658203e-01) (40, 1.12944622039794921875e+01) (41, 3.02352690696716308594e+00) (42, 1.13397598266601562500e+00) (43, -1.85264134407043457031e+00) (44, 2.13595747947692871094e+00) (45, 6.26933002471923828125e+00) (46, -1.97231709957122802734e+00) (47, 2.05713677406311035156e+00) (48, -9.68528985977172851562e-02) (49, 6.50843524932861328125e+00) (50, 6.80380630493164062500e+00) (51, -6.70363044738769531250e+00) (52, -3.26815206790342926979e-04) (0, -1.92149198055267333984e+00) (1, -3.73004376888275146484e-01) (2, -6.41843020915985107422e-01) (3, 6.80908298492431640625e+00) (4, 1.03415813446044921875e+01) (5, -1.24750339984893798828e+00) (6, -4.12065649032592773438e+00) (7, 2.64248638153076171875e+01) (8, 1.31140098571777343750e+01) (9, 1.00624406337738037109e+00) (10, -1.69024598598480224609e+00) (11, -7.47454118728637695312e+00) (12, 1.70289535522460937500e+01) (13, -4.67508029937744140625e+00) (14, -2.52372765541076660156e+00) (15, 1.53058128356933593750e+01) (16, 2.38076829910278320312e+00) (17, -7.96511793136596679688e+00) (18, -8.18404793739318847656e-01) (19, 3.75161933898925781250e+00) (20, 1.11228406429290771484e+00) (21, -4.75278556346893310547e-01) (22, -4.11259508132934570312e+00) (23, 1.89749546051025390625e+01) (24, 6.62515926361083984375e+00) (25, -2.31658411026000976562e+00) (26, -2.89170098304748535156e+00) (27, 2.04637165069580078125e+01) (28, 3.60283899307250976562e+00) (29, 3.10514712333679199219e+00) (30, -4.11494207382202148438e+00) (31, -2.96031880378723144531e+00) (32, -4.90689516067504882812e-01) (33, -1.34545221328735351562e+01) (34, 1.78430259227752685547e+00) (35, 4.51401996612548828125e+00) (36, 5.91490888595581054688e+00) (37, -7.04789829254150390625e+00) (38, 8.92658472061157226562e-01) (39, -2.37259340286254882812e+00) (40, 6.70433712005615234375e+00) (41, -3.28757548332214355469e+00) (42, 2.99234688282012939453e-01) (43, -5.26981067657470703125e+00) (44, 3.19112610816955566406e+00) (45, -8.89427375793457031250e+00) (46, 1.30516457557678222656e+00) (47, -2.82661390304565429688e+00) (48, 3.68194842338562011719e+00) (49, 1.12627136707305908203e+00) (50, -1.05250787734985351562e+00) (51, -1.07179355621337890625e+01) (52, 1.37182784080505371094e+00) (0, 4.47324991226196289062e-01) (1, -9.10801947116851806641e-01) (2, 9.04776334762573242188e-01) (3, 3.10385274887084960938e+00) (4, 1.12699823379516601562e+01) (5, -4.53101301193237304688e+00) (6, 1.14484081268310546875e+01) (7, -3.11606097221374511719e+00) (8, 1.42863883972167968750e+01) (9, 2.11875652894377708435e-03) (10, -9.28149127960205078125e+00) (11, 2.70169963836669921875e+01) (12, 1.13126173019409179688e+01) (13, -5.10867500305175781250e+00) (14, -1.99787795543670654297e-01) (15, 2.06773447990417480469e+00) (16, 4.28133630752563476562e+00) (17, -1.84256032109260559082e-01) (18, 1.40330219268798828125e+00) (19, -1.00926551818847656250e+01) (20, -7.06870222091674804688e+00) (21, 6.37096881866455078125e+00) (22, -9.55747604370117187500e-01) (23, 2.33535041809082031250e+01) (24, -1.46295154094696044922e+00) (25, 4.33355540037155151367e-01) (26, -2.32863277196884155273e-01) (27, 8.21885681152343750000e+00) (28, 1.25262725353240966797e+00) (29, 1.41284298896789550781e+00) (30, -5.50386857986450195312e+00) (31, 5.68716764450073242188e+00) (32, -3.46395969390869140625e-01) (33, 9.87238979339599609375e+00) (34, 1.21342968940734863281e+00) (35, -5.41324806213378906250e+00) (36, -5.00077342987060546875e+00) (37, 7.35145235061645507812e+00) (38, 3.07556891441345214844e+00) (39, -2.30435401201248168945e-01) (40, 3.82077145576477050781e+00) (41, 5.45066642761230468750e+00) (42, -2.17778682708740234375e+00) (43, -2.80924773216247558594e+00) (44, 1.71659004688262939453e+00) (45, -1.69840335845947265625e+00) (46, 3.30671262741088867188e+00) (47, -4.92725038528442382812e+00) (48, 1.76313292980194091797e+00) (49, 8.65881621837615966797e-01) (50, -5.52784156799316406250e+00) (51, 5.07819986343383789062e+00) (52, 9.99073028564453125000e-01) (0, 5.72563648223876953125e-01) (1, 1.53103935718536376953e+00) (2, 2.18616557121276855469e+00) (3, 5.20665359497070312500e+00) (4, -1.07395029067993164062e+00) (5, 5.32316112518310546875e+00) (6, 3.77128839492797851562e+00) (7, -9.75168168544769287109e-01) (8, -1.09426164627075195312e+00) (9, 8.01476192474365234375e+00) (10, 9.74853038787841796875e-01) (11, 1.83959877490997314453e+00) (12, -1.74495100975036621094e+00) (13, 3.51499390602111816406e+00) (14, 3.92360067367553710938e+00) (15, -1.18971548974514007568e-01) (16, -2.64126086235046386719e+00) (17, 2.04299712181091308594e+00) (18, 2.50280570983886718750e+00) (19, 5.68219709396362304688e+00) (20, 4.03374719619750976562e+00) (21, -9.76925611495971679688e-01) (22, 4.75737380981445312500e+00) (23, -1.54304695129394531250e+01) (24, 1.07954111099243164062e+01) (25, -2.41864085197448730469e-01) (26, 3.84238648414611816406e+00) (27, -2.51875448226928710938e+00) (28, 1.58538513183593750000e+01) (29, 3.50043988227844238281e+00) (30, 1.30042445659637451172e+00) (31, -6.06326627731323242188e+00) (32, 1.49463453292846679688e+01) (33, -4.05011743307113647461e-01) (34, -1.84450042247772216797e+00) (35, 1.00370054244995117188e+01) (36, -4.20859754085540771484e-01) (37, 7.43714511394500732422e-01) (38, 1.79370903968811035156e+00) (39, 4.33591127395629882812e+00) (40, 5.38771271705627441406e-01) (41, 2.54448962211608886719e+00) (42, 1.18069016933441162109e+00) (43, 1.04167091846466064453e+00) (44, 1.90993094444274902344e+00) (45, 2.80446767807006835938e-01) (46, 7.83312797546386718750e-01) (47, 3.68283414840698242188e+00) (48, 4.63388919830322265625e+00) (49, -3.03493952751159667969e+00) (50, 3.71272683143615722656e+00) (51, -1.26264131069183349609e+00) (52, 7.92866200208663940430e-02) (0, 2.31493878364562988281e+00) (1, 1.27083778381347656250e+01) (2, 2.73635029792785644531e+00) (3, -7.23947620391845703125e+00) (4, 4.90648508071899414062e+00) (5, 3.86119246482849121094e+00) (6, -7.81631994247436523438e+00) (7, 7.88298797607421875000e+00) (8, 4.00438499450683593750e+00) (9, 1.42069740295410156250e+01) (10, -7.88353347778320312500e+00) (11, 2.42926731109619140625e+01) (12, 2.06787657737731933594e+00) (13, 1.04156227111816406250e+01) (14, -6.71793594956398010254e-02) (15, 8.88040840625762939453e-01) (16, -1.71732175350189208984e+00) (17, 1.17808628082275390625e+00) (18, 5.10684251785278320312e+00) (19, 1.40246019363403320312e+01) (20, 8.06619930267333984375e+00) (21, 4.11821174621582031250e+00) (22, 1.82312086224555969238e-01) (23, -1.69641819000244140625e+01) (24, 1.09184999465942382812e+01) (25, 2.84064579010009765625e+00) (26, 8.49399983882904052734e-01) (27, -1.62777829170227050781e+00) (28, 1.94263267517089843750e+00) (29, 3.04537010192871093750e+00) (30, -1.61786019802093505859e+00) (31, 3.71729111671447753906e+00) (32, 7.15897560119628906250e-01) (33, 1.79463386535644531250e+01) (34, 5.52478837966918945312e+00) (35, -1.13394737243652343750e+01) (36, 4.11690568923950195312e+00) (37, 2.83596920967102050781e+00) (38, -7.20055878162384033203e-01) (39, 2.65239191055297851562e+00) (40, 3.99081468582153320312e-01) (41, -2.31939172744750976562e+00) (42, 1.24597749710083007812e+01) (43, 1.38527193069458007812e+01) (44, -3.76887583732604980469e+00) (45, 6.72571516036987304688e+00) (46, 1.93875908851623535156e+00) (47, 1.49853420257568359375e+01) (48, 7.03852593898773193359e-01) (49, 4.32300949096679687500e+00) (50, 6.63120126724243164062e+00) (51, -6.74633455276489257812e+00) (52, 7.43703916668891906738e-02) (0, 8.25763225555419921875e+00) (1, -8.07728099822998046875e+00) (2, 3.35668182373046875000e+01) (3, 4.54805183410644531250e+00) (4, 2.24067568778991699219e+00) (5, -3.53588253259658813477e-01) (6, 4.92032289505004882812e+00) (7, 2.86602020263671875000e+01) (8, 3.31082940101623535156e-01) (9, -1.62906742095947265625e+00) (10, 1.24425716400146484375e+01) (11, 1.14377775192260742188e+01) (12, -1.09786880016326904297e+00) (13, 5.51485061645507812500e+00) (14, 1.01695661544799804688e+01) (15, 5.12187433242797851562e+00) (16, 3.80455017089843750000e+00) (17, 2.94665069580078125000e+01) (18, 7.25638675689697265625e+00) (19, -5.98547220230102539062e+00) (20, 1.94985904693603515625e+01) (21, 2.09788284301757812500e+01) (22, -5.11217403411865234375e+00) (23, 6.16027402877807617188e+00) (24, 7.38685560226440429688e+00) (25, 4.34827041625976562500e+00) (26, 9.69328343868255615234e-01) (27, 1.21130418777465820312e+00) (28, 1.53250150680541992188e+01) (29, 1.87753593921661376953e+00) (30, 6.25027322769165039062e+00) (31, -5.63635635375976562500e+00) (32, 1.68278770446777343750e+01) (33, -9.33081054687500000000e+00) (34, 2.65391874313354492188e+00) (35, 4.11816291809082031250e+01) (36, 1.65986690521240234375e+01) (37, 5.29716300964355468750e+00) (38, -1.65111863613128662109e+00) (39, 6.55814361572265625000e+00) (40, -1.17817974090576171875e+00) (41, 1.16700878143310546875e+01) (42, 9.03260231018066406250e+00) (43, 1.78576958179473876953e+00) (44, -6.05939090251922607422e-01) (45, 8.50369739532470703125e+00) (46, 9.06634521484375000000e+00) (47, 1.03925836086273193359e+00) (48, -5.94512978568673133850e-03) (49, 2.78219318389892578125e+01) (50, 4.80326414108276367188e-01) (51, 3.41246337890625000000e+01) (52, -5.86552083492279052734e-01) (0, -1.07722771167755126953e+00) (1, 1.04019451141357421875e+00) (2, -2.50707077980041503906e+00) (3, 2.00464515686035156250e+01) (4, 1.36095018386840820312e+01) (5, -4.27306222915649414062e+00) (6, -3.51762938499450683594e+00) (7, 7.12226486206054687500e+00) (8, 4.67497730255126953125e+00) (9, -1.11604146957397460938e+01) (10, -5.96156656742095947266e-01) (11, 1.52095246315002441406e+00) (12, 8.41556644439697265625e+00) (13, -3.06913995742797851562e+00) (14, -1.34786462783813476562e+00) (15, 3.46658706665039062500e-01) (16, 2.47269868850708007812e+00) (17, -7.26180458068847656250e+00) (18, -2.52549290657043457031e-01) (19, 3.15760850906372070312e+00) (20, -3.16265344619750976562e+00) (21, -1.21308767795562744141e+00) (22, -5.36618053913116455078e-01) (23, 3.04461364746093750000e+01) (24, -1.40256381034851074219e+00) (25, -5.83951294422149658203e-01) (26, 5.12750983238220214844e-01) (27, 2.79431462287902832031e+00) (28, 2.68205857276916503906e+00) (29, 9.65829753875732421875e+00) (30, -6.21831989288330078125e+00) (31, -6.22876071929931640625e+00) (32, 6.84196472167968750000e-01) (33, -6.33549541234970092773e-02) (34, -8.74898433685302734375e+00) (35, 6.79158830642700195312e+00) (36, 5.42982244491577148438e+00) (37, -4.83405065536499023438e+00) (38, -4.86989164352416992188e+00) (39, 5.07063913345336914062e+00) (40, 1.15404596328735351562e+01) (41, 2.12733006477355957031e+00) (42, -1.33468952178955078125e+01) (43, -3.23189949989318847656e+00) (44, 1.42573709487915039062e+01) (45, -7.82047569751739501953e-01) (46, -8.74660551548004150391e-01) (47, -4.57965946197509765625e+00) (48, 9.71825504302978515625e+00) (49, 2.60969400405883789062e+00) (50, -1.10055904388427734375e+01) (51, -6.30264186859130859375e+00) (52, 1.17855751514434814453e+00) (0, 1.71350032091140747070e-01) (1, 3.51596498489379882812e+00) (2, 3.70248007774353027344e+00) (3, -5.32804441452026367188e+00) (4, 1.63162994384765625000e+00) (5, -1.81263649463653564453e+00) (6, 3.06918978691101074219e+00) (7, -6.63385614752769470215e-02) (8, -7.71714076399803161621e-02) (9, 5.24160289764404296875e+00) (10, 3.58136343955993652344e+00) (11, -4.50380611419677734375e+00) (12, 2.19210720062255859375e+00) (13, 2.23328873515129089355e-01) (14, 2.77525711059570312500e+00) (15, -1.23892199993133544922e+00) (16, 1.10742187500000000000e+00) (17, 3.83345508575439453125e+00) (18, 1.32408821582794189453e+00) (19, -1.68129718303680419922e+00) (20, 1.03074491024017333984e+00) (21, -6.07451260089874267578e-01) (22, -1.60059686750173568726e-02) (23, -5.35639905929565429688e+00) (24, -4.36459742486476898193e-02) (25, -6.05330206453800201416e-02) (26, 1.19495177268981933594e+00) (27, 6.45423698425292968750e+00) (28, 4.41195583343505859375e+00) (29, -1.51806545257568359375e+00) (30, 1.40043802261352539062e+01) (31, -7.91384279727935791016e-01) (32, 8.89751434326171875000e-01) (33, -1.65912687778472900391e-01) (34, 3.03060674667358398438e+00) (35, -1.94318115711212158203e+00) (36, -3.82754623889923095703e-01) (37, 2.51998257637023925781e+00) (38, -4.41512614488601684570e-01) (39, 6.06976270675659179688e+00) (40, 4.97717618942260742188e+00) (41, 5.95932435989379882812e+00) (42, -1.41963040828704833984e+00) (43, -2.99795889854431152344e+00) (44, -1.27020525932312011719e+00) (45, 1.69587719440460205078e+00) (46, 1.76672792434692382812e+00) (47, 8.80622744560241699219e-01) (48, -1.23079144954681396484e+00) (49, 1.95891034603118896484e+00) (50, 1.26598489284515380859e+00) (51, 1.10477848052978515625e+01) (52, 1.14628501236438751221e-01) (0, 2.70172739028930664062e+00) (1, 1.85338091850280761719e+00) (2, 1.17098798751831054688e+01) (3, -6.50934076309204101562e+00) (4, 5.72037100791931152344e-01) (5, 7.39620625972747802734e-01) (6, 7.42697668075561523438e+00) (7, -1.62332129478454589844e+00) (8, -1.64214098453521728516e+00) (9, 4.48328876495361328125e+00) (10, 2.67184948921203613281e+00) (11, 3.10034012794494628906e+00) (12, -4.76868534088134765625e+00) (13, 1.95340740680694580078e+00) (14, 4.75193738937377929688e+00) (15, 5.15161418914794921875e+00) (16, 2.31191106140613555908e-02) (17, 1.67283093929290771484e+00) (18, 7.96540796756744384766e-01) (19, 2.36625957489013671875e+00) (20, 3.01516771316528320312e-01) (21, -6.33980929851531982422e-01) (22, 1.93188822269439697266e+00) (23, -5.94811677932739257812e+00) (24, 1.24187814071774482727e-02) (25, 1.21255862712860107422e+00) (26, 2.86580204963684082031e+00) (27, 1.26855850219726562500e+00) (28, 2.82007932662963867188e+00) (29, -4.10109877586364746094e-01) (30, 4.00866794586181640625e+00) (31, -2.36622357368469238281e+00) (32, 3.65648818016052246094e+00) (33, -5.27579021453857421875e+00) (34, 2.19087100028991699219e+00) (35, 3.07056808471679687500e+00) (36, -4.58034545183181762695e-01) (37, 5.42921352386474609375e+00) (38, 3.00277566909790039062e+00) (39, -1.51403021812438964844e+00) (40, -1.60463135689496994019e-02) (41, 1.15053439140319824219e+00) (42, 3.38082909584045410156e+00) (43, 1.19157445430755615234e+00) (44, 3.01719814538955688477e-01) (45, 7.78902435302734375000e+00) (46, 1.64126682281494140625e+00) (47, -2.40957126021385192871e-01) (48, 2.99235200881958007812e+00) (49, 1.92525565624237060547e+00) (50, 5.26370465755462646484e-01) (51, 3.96902412176132202148e-01) (52, -1.04173950850963592529e-01) (0, 3.12053561210632324219e+00) (1, 2.66734600067138671875e+00) (2, -5.12251520156860351562e+00) (3, 6.20596408843994140625e+00) (4, -7.38938003778457641602e-02) (5, -1.79361224174499511719e+00) (6, 1.71556510925292968750e+01) (7, 6.21938765048980712891e-01) (8, -1.76628661155700683594e+00) (9, 1.50719957351684570312e+01) (10, 1.73396885395050048828e+00) (11, 4.37934255599975585938e+00) (12, -2.11093664169311523438e-01) (13, 6.81272077560424804688e+00) (14, 7.81667947769165039062e+00) (15, -3.36815905570983886719e+00) (16, 1.83676338195800781250e+00) (17, 1.98928678035736083984e+00) (18, 9.74881052970886230469e-01) (19, -2.11876678466796875000e+00) (20, 2.09411740303039550781e+00) (21, -2.34002971649169921875e+00) (22, 1.93364753723144531250e+01) (23, -5.75274705886840820312e+00) (24, 3.71210962533950805664e-01) (25, 1.36668646335601806641e+00) (26, 7.20215892791748046875e+00) (27, -7.38958716392517089844e-01) (28, -5.59476852416992187500e+00) (29, 1.80898303985595703125e+01) (30, 2.17344427108764648438e+00) (31, 4.84525108337402343750e+00) (32, -1.66427803039550781250e+01) (33, 4.24443197250366210938e+00) (34, 3.18045186996459960938e+00) (35, 6.08481740951538085938e+00) (36, -7.52366304397583007812e-01) (37, 2.92655318975448608398e-01) (38, 6.51019954681396484375e+00) (39, 1.64146690368652343750e+01) (40, 2.45564126968383789062e+00) (41, -2.99308729171752929688e+00) (42, 2.01829266548156738281e+00) (43, 3.93670511245727539062e+00) (44, -4.20192432403564453125e+00) (45, 1.92719542980194091797e+00) (46, 1.44966249465942382812e+01) (47, 6.01153755187988281250e+00) (48, 1.07979142665863037109e+00) (49, 2.87588524818420410156e+00) (50, 6.62708854675292968750e+00) (51, -6.96442937850952148438e+00) (52, 1.15757398307323455811e-01) (0, 2.66162276268005371094e+00) (1, 3.90166397094726562500e+01) (2, 2.28663635253906250000e+01) (3, 1.23210678100585937500e+02) (4, 1.98772735595703125000e+01) (5, -5.78011417388916015625e+00) (6, 1.47190170288085937500e+02) (7, 2.08675781250000000000e+02) (8, 9.72827987670898437500e+01) (9, -8.28257080078125000000e+02) (10, 1.17671520996093750000e+03) (11, 7.53045532226562500000e+02) (12, 2.03253890991210937500e+02) (13, 6.36442718505859375000e+01) (14, 1.44966516494750976562e+01) (15, -7.20219612121582031250e+00) (16, -3.51613545417785644531e+00) (17, 9.64389648437500000000e+01) (18, 2.71251159667968750000e+02) (19, 1.88283309936523437500e+02) (20, 5.83518310546875000000e+02) (21, 4.44740356445312500000e+02) (22, 4.08143463134765625000e+02) (23, -2.76228302001953125000e+02) (24, 7.72998332977294921875e-01) (25, 4.64822769165039062500e+01) (26, 8.92532424926757812500e+01) (27, 4.84742240905761718750e+01) (28, 5.01589126586914062500e+01) (29, -1.68308067321777343750e+01) (30, 1.08360816955566406250e+02) (31, 2.80395690917968750000e+02) (32, 2.84636383056640625000e+02) (33, -4.04051303863525390625e+00) (34, 2.04420989990234375000e+02) (35, 7.60127563476562500000e+01) (36, 1.61049072265625000000e+02) (37, -4.50555038452148437500e+00) (38, 2.62823272705078125000e+02) (39, 5.13335990905761718750e+01) (40, 6.30486428737640380859e-01) (41, 2.83893005371093750000e+02) (42, 1.51687517166137695312e+01) (43, 2.50589065551757812500e+01) (44, 1.07316503524780273438e+01) (45, 1.33857564926147460938e+01) (46, 2.34813888549804687500e+02) (47, 1.01960586547851562500e+02) (48, -1.26599159240722656250e+01) (49, 8.00239372253417968750e+00) (50, 1.89014022827148437500e+02) (51, 2.39652969360351562500e+02) (52, -1.85519707202911376953e+00) (0, -8.27712476253509521484e-01) (1, -4.45808358490467071533e-02) (2, 2.32458636164665222168e-01) (3, -6.67558252811431884766e-01) (4, 3.57579052448272705078e-01) (5, -7.25533366203308105469e-01) (6, 4.70999062061309814453e-01) (7, -3.17116707563400268555e-01) (8, 4.58573341369628906250e-01) (9, -5.76492249965667724609e-02) (10, -3.62597763538360595703e-01) (11, -2.94857621192932128906e-01) (12, 1.09795367717742919922e+00) (13, -5.16820907592773437500e-01) (14, -1.32619380950927734375e-01) (15, -1.16201318800449371338e-01) (16, 3.54816198348999023438e-01) (17, -6.91194236278533935547e-02) (18, -4.47470784187316894531e-01) (19, -7.54281222820281982422e-01) (20, -1.19013750553131103516e+00) (21, 1.38672173023223876953e+00) (22, -4.16840091347694396973e-02) (23, 1.96307584643363952637e-01) (24, -3.95123183727264404297e-01) (25, 1.83589868247509002686e-02) (26, -2.55665510892868041992e-01) (27, 1.63665223121643066406e+00) (28, -6.20331406593322753906e-01) (29, 9.73860919475555419922e-01) (30, -5.21914422512054443359e-01) (31, 5.40199339389801025391e-01) (32, 1.39846801757812500000e-01) (33, 2.61384516954421997070e-01) (34, 7.82073438167572021484e-01) (35, 1.19392774999141693115e-01) (36, -4.48295623064041137695e-01) (37, -1.52482151985168457031e-01) (38, 2.97919064760208129883e-01) (39, -2.16946840286254882812e-01) (40, -4.12108063697814941406e-01) (41, -2.80895382165908813477e-01) (42, -2.05532893538475036621e-01) (43, -7.03044608235359191895e-02) (44, 1.91587582230567932129e-02) (45, -5.56497395038604736328e-01) (46, 1.04014478623867034912e-01) (47, -3.43040406703948974609e-01) (48, -1.71545520424842834473e-01) (49, -2.60659813880920410156e-01) (50, -7.90730677545070648193e-03) (51, 4.08016145229339599609e-01) (52, 1.14384424686431884766e+00) (0, -6.02861499786376953125e+00) (1, 1.76782026886940002441e-01) (2, 3.02205228805541992188e+00) (3, 3.96343421936035156250e+00) (4, 5.10047769546508789062e+00) (5, -2.35960221290588378906e+00) (6, 8.08639335632324218750e+00) (7, -1.05049915313720703125e+01) (8, 4.48440551757812500000e+00) (9, -1.46361124515533447266e+00) (10, 1.01473026275634765625e+01) (11, -1.19582452774047851562e+01) (12, 1.39277067184448242188e+01) (13, -2.21713376045227050781e+00) (14, 1.00513970851898193359e+00) (15, -2.10235714912414550781e+00) (16, -3.74279236793518066406e+00) (17, 6.02113485336303710938e+00) (18, 3.82942318916320800781e+00) (19, -5.62564516067504882812e+00) (20, 1.53136670589447021484e+00) (21, -9.54145431518554687500e+00) (22, 1.82082366943359375000e+00) (23, 5.64972019195556640625e+00) (24, 2.02806055545806884766e-01) (25, 3.70715293884277343750e+01) (26, -1.16342115402221679688e+01) (27, 2.61079940795898437500e+01) (28, -1.67820873260498046875e+01) (29, 8.82097184658050537109e-01) (30, 6.62242841720581054688e+00) (31, 8.78193855285644531250e+00) (32, -1.84235343933105468750e+01) (33, 7.22844076156616210938e+00) (34, 1.37028574943542480469e+00) (35, 3.67024841308593750000e+01) (36, 1.51439151763916015625e+01) (37, 2.60903072357177734375e+00) (38, -1.21247279644012451172e+00) (39, -2.94408845901489257812e+00) (40, 1.72093391418457031250e+01) (41, 1.31034955978393554688e+01) (42, -1.33013844490051269531e+00) (43, -7.91252231597900390625e+00) (44, 1.45182001590728759766e+00) (45, 1.18806867599487304688e+01) (46, -3.34242343902587890625e+00) (47, 6.65602564811706542969e-01) (48, 2.90382075309753417969e+00) (49, 6.80267667770385742188e+00) (50, -3.89382982254028320312e+00) (51, -2.94867545366287231445e-01) (52, 3.46683949232101440430e-01) (0, 6.83065652847290039062e-01) (1, 1.47388255596160888672e+00) (2, -4.22907412052154541016e-01) (3, -1.59210550785064697266e+00) (4, -5.61644732952117919922e-01) (5, -1.31489649415016174316e-01) (6, 5.39304971694946289062e+00) (7, -3.74680423736572265625e+00) (8, 7.03658163547515869141e-02) (9, 2.69420313835144042969e+00) (10, 1.82335150241851806641e+00) (11, -5.76901578903198242188e+00) (12, 1.68346226215362548828e+00) (13, -2.91426420211791992188e+00) (14, 9.99289453029632568359e-01) (15, 3.81493330001831054688e-01) (16, 2.96511113643646240234e-01) (17, 7.50765502452850341797e-01) (18, -2.41207289695739746094e+00) (19, 6.95592927932739257812e+00) (20, 2.74884986877441406250e+00) (21, 4.66441679000854492188e+00) (22, -1.72626227140426635742e-01) (23, -8.80908298492431640625e+00) (24, -9.20922517776489257812e-01) (25, 7.19885873794555664062e+00) (26, -1.99906992912292480469e+00) (27, 9.71638393402099609375e+00) (28, -1.36855423450469970703e+00) (29, 5.26892185211181640625e+00) (30, -2.06347966194152832031e+00) (31, 3.99495887756347656250e+00) (32, -2.61270618438720703125e+00) (33, -9.39306497573852539062e-01) (34, 4.15882825851440429688e+00) (35, 1.99960315227508544922e+00) (36, 2.56935000419616699219e+00) (37, -6.63578033447265625000e-01) (38, 5.32144784927368164062e-01) (39, -1.75285124778747558594e+00) (40, -6.93189740180969238281e-01) (41, -4.92352187633514404297e-01) (42, 3.10659480094909667969e+00) (43, -1.75032579898834228516e+00) (44, 1.80773472785949707031e+00) (45, 2.14387655258178710938e+00) (46, -7.97431826591491699219e-01) (47, -2.71077346801757812500e+00) (48, -2.46485877037048339844e+00) (49, 4.34823369979858398438e+00) (50, 9.04298603534698486328e-01) (51, -1.00573444366455078125e+00) (52, 1.12687158584594726562e+00) (0, 5.76198816299438476562e+00) (1, -8.63861560821533203125e+00) (2, -1.55903863906860351562e+00) (3, 1.69780552387237548828e+00) (4, 7.61306619644165039062e+00) (5, -7.91610145568847656250e+00) (6, -2.36096358299255371094e+00) (7, -2.83176880329847335815e-02) (8, 2.61598348617553710938e+00) (9, -1.37141580581665039062e+01) (10, -4.97413158416748046875e+00) (11, 2.30467629432678222656e+00) (12, 7.02579796314239501953e-01) (13, -2.96571087837219238281e+00) (14, 1.26011300086975097656e+00) (15, -3.23314642906188964844e+00) (16, 6.98642969131469726562e-01) (17, -4.32872438430786132812e+00) (18, -1.94204938411712646484e+00) (19, 7.85935878753662109375e+00) (20, -5.35587644577026367188e+00) (21, 3.91501855850219726562e+00) (22, -1.04302911758422851562e+01) (23, 3.61598134040832519531e+00) (24, -4.83524036407470703125e+00) (25, 1.42620837688446044922e+00) (26, -1.51875495910644531250e+00) (27, 5.29829311370849609375e+00) (28, 4.81094312667846679688e+00) (29, -7.99162626266479492188e-01) (30, -3.82529163360595703125e+00) (31, 6.74420818686485290527e-02) (32, -2.51984810829162597656e+00) (33, 8.52663993835449218750e-01) (34, 2.85639929771423339844e+00) (35, -1.68913059234619140625e+01) (36, 2.37464085221290588379e-01) (37, 4.31944221258163452148e-01) (38, -2.12130165100097656250e+00) (39, 1.77610421180725097656e+00) (40, -1.01950325071811676025e-01) (41, 1.79384994506835937500e+00) (42, -1.64020276069641113281e+00) (43, 3.58866006135940551758e-01) (44, 3.48613142967224121094e+00) (45, 7.98519015312194824219e-01) (46, -2.27443647384643554688e+00) (47, -6.90025949478149414062e+00) (48, 5.29159188270568847656e-01) (49, -8.67160892486572265625e+00) (50, 3.18601274490356445312e+00) (51, -1.44336309432983398438e+01) (52, 9.38015460968017578125e-01) (0, 5.77538490295410156250e+00) (1, 4.05109673738479614258e-01) (2, 3.98854875564575195312e+00) (3, 1.76230084896087646484e+00) (4, 1.33722078800201416016e+00) (5, 3.16676759719848632812e+00) (6, 1.93274295330047607422e+00) (7, 1.41609883308410644531e+00) (8, 4.68143194913864135742e-01) (9, 1.66534137725830078125e+01) (10, 4.85338717699050903320e-01) (11, 7.68451595306396484375e+00) (12, 3.89884781837463378906e+00) (13, -3.20099973678588867188e+00) (14, 1.28685131072998046875e+01) (15, 5.00739574432373046875e+00) (16, 8.20515811443328857422e-01) (17, -1.41228094696998596191e-01) (18, 1.17587757110595703125e+01) (19, 7.08419847488403320312e+00) (20, 3.59753775596618652344e+00) (21, 1.01791515350341796875e+01) (22, 6.20396041870117187500e+00) (23, -6.71435880661010742188e+00) (24, 1.03588485717773437500e+01) (25, -5.47018432617187500000e+00) (26, 8.75233840942382812500e+00) (27, 1.10300188064575195312e+01) (28, 8.80071282386779785156e-01) (29, 1.35528469085693359375e+00) (30, 6.09050655364990234375e+00) (31, 1.15712070465087890625e+00) (32, 9.33671951293945312500e+01) (33, 6.77264785766601562500e+01) (34, -1.08040313720703125000e+02) (35, 6.94061050415039062500e+01) (36, 6.74337911605834960938e+00) (37, -9.24584209918975830078e-01) (38, 3.91207003593444824219e+00) (39, 5.10458993911743164062e+00) (40, 6.55401706695556640625e+00) (41, 9.24500346183776855469e-01) (42, -5.96995115280151367188e-01) (43, 6.58070087432861328125e+00) (44, 4.95866680145263671875e+00) (45, 1.37217140197753906250e+00) (46, 1.54190099239349365234e+00) (47, 8.14538955688476562500e+00) (48, 1.38466799259185791016e+00) (49, 1.88564419746398925781e+00) (50, 5.80151271820068359375e+00) (51, -1.11365683376789093018e-01) (52, -8.02484750747680664062e-01) (0, -7.25546360015869140625e-01) (1, -3.61882615089416503906e+00) (2, -2.06559315323829650879e-01) (3, 6.79954957962036132812e+00) (4, -2.65274024009704589844e+00) (5, -7.58939552307128906250e+00) (6, 1.92112612724304199219e+00) (7, 1.91171348094940185547e+00) (8, -1.14550614356994628906e+00) (9, 5.28518152236938476562e+00) (10, -5.58488130569458007812e-01) (11, -2.38213372230529785156e+00) (12, 5.23155093193054199219e-01) (13, -1.88854575157165527344e+00) (14, 1.77310967445373535156e+00) (15, -7.12611103057861328125e+00) (16, 8.83193075656890869141e-01) (17, -4.69440078735351562500e+00) (18, -9.79149639606475830078e-01) (19, 3.72710752487182617188e+00) (20, -1.07542371749877929688e+01) (21, 3.61464619636535644531e+00) (22, 2.07286357879638671875e-01) (23, 2.91182368993759155273e-01) (24, -5.33883762359619140625e+00) (25, -1.85007774829864501953e+00) (26, -1.45163202285766601562e+00) (27, 2.43278694152832031250e+01) (28, -2.80302375555038452148e-01) (29, 1.11660776138305664062e+01) (30, -3.02270388603210449219e+00) (31, -6.33384513854980468750e+00) (32, -9.89141654968261718750e+00) (33, 5.48501205444335937500e+00) (34, -8.94450470805168151855e-02) (35, 8.48772346973419189453e-01) (36, 1.77377080917358398438e+00) (37, -1.29873859882354736328e+00) (38, 5.02898156642913818359e-01) (39, -6.70628881454467773438e+00) (40, -1.83830490112304687500e+01) (41, 1.16129398345947265625e+00) (42, 5.34665167331695556641e-01) (43, 4.28517669439315795898e-01) (44, -2.30451512336730957031e+00) (45, 7.34712362289428710938e+00) (46, -2.65197724103927612305e-01) (47, -1.24457416534423828125e+01) (48, 7.33844184875488281250e+00) (49, -8.11179280281066894531e-01) (50, -1.04667806625366210938e+00) (51, -4.14352416992187500000e+00) (52, 7.56242275238037109375e-01) (0, 6.14712476730346679688e-01) (1, 1.17307865619659423828e+00) (2, 3.91784262657165527344e+00) (3, 1.02634966373443603516e+00) (4, 4.28074300289154052734e-01) (5, 1.61299562454223632812e+00) (6, 9.42159593105316162109e-01) (7, 2.02630877494812011719e-01) (8, 2.05608105659484863281e+00) (9, 9.47496712207794189453e-01) (10, 1.79725790023803710938e+00) (11, -2.15756893157958984375e+00) (12, -6.07908785343170166016e-01) (13, 2.27578377723693847656e+00) (14, 2.90971398353576660156e+00) (15, -2.76607900857925415039e-01) (16, 2.03305006027221679688e+00) (17, -1.85905408859252929688e+00) (18, 4.56832021474838256836e-01) (19, 3.75902318954467773438e+00) (20, 2.29707241058349609375e+00) (21, -7.08173751831054687500e-01) (22, 8.87200355529785156250e-01) (23, -4.98440790176391601562e+00) (24, 6.37219190597534179688e-01) (25, 9.48844373226165771484e-01) (26, 1.85149788856506347656e+00) (27, 6.13225841522216796875e+00) (28, -2.34552407264709472656e+00) (29, 2.82854229211807250977e-01) (30, 9.23444080352783203125e+00) (31, 2.05688571929931640625e+00) (32, 4.32588720321655273438e+00) (33, -3.82730007171630859375e+00) (34, 5.93939256668090820312e+00) (35, 6.02381348609924316406e-01) (36, -2.29976487159729003906e+00) (37, 1.45309686660766601562e+00) (38, 1.50316977500915527344e+00) (39, 1.88241612911224365234e+00) (40, 5.19854426383972167969e-01) (41, -4.92554634809494018555e-01) (42, 4.50260257720947265625e+00) (43, 3.97050887346267700195e-01) (44, 1.09573170542716979980e-01) (45, 1.17336618900299072266e+00) (46, 1.18637180328369140625e+00) (47, 1.78691911697387695312e+00) (48, 2.10591030120849609375e+00) (49, -1.20407752692699432373e-01) (50, 9.22425031661987304688e-01) (51, 1.35927557945251464844e+00) (52, 1.70702591538429260254e-01) (0, 1.96603763103485107422e+00) (1, 4.51499862670898437500e+01) (2, 1.00587451457977294922e+00) (3, 7.34917104244232177734e-01) (4, -1.55389845371246337891e+00) (5, 2.16866827011108398438e+00) (6, 5.34725666046142578125e+00) (7, 1.14603328704833984375e+01) (8, 2.64197673797607421875e+01) (9, 5.38420295715332031250e+00) (10, -9.42280006408691406250e+00) (11, 6.45148468017578125000e+00) (12, -2.84734582901000976562e+00) (13, 5.29869139194488525391e-01) (14, 3.99631958007812500000e+01) (15, 6.28257789611816406250e+01) (16, 2.40940070152282714844e+00) (17, 2.86051101684570312500e+01) (18, 2.15773153305053710938e+00) (19, -1.66400833129882812500e+01) (20, 8.27131118774414062500e+01) (21, 3.53950157165527343750e+01) (22, -3.73428964614868164062e+00) (23, 1.29825484752655029297e+00) (24, 2.08105030059814453125e+01) (25, 7.95450305938720703125e+00) (26, 1.17142096161842346191e-01) (27, -2.92980933189392089844e+00) (28, -4.02141284942626953125e+00) (29, 5.67907953262329101562e+00) (30, 2.94837498664855957031e+00) (31, 9.41975688934326171875e+00) (32, 1.03490734100341796875e+01) (33, -9.39224779605865478516e-01) (34, 1.55569343566894531250e+01) (35, -2.88081836700439453125e+00) (36, 3.39889755249023437500e+01) (37, 1.03681669235229492188e+01) (38, 1.46227526664733886719e+00) (39, -8.81246376037597656250e+00) (40, 9.10379350185394287109e-01) (41, 1.22482948303222656250e+01) (42, 9.48173105716705322266e-01) (43, 2.27841448783874511719e+00) (44, -3.74807262420654296875e+00) (45, 1.52552008628845214844e+00) (46, 1.47013654708862304688e+01) (47, 5.02038803100585937500e+01) (48, -1.82935726642608642578e+00) (49, 2.23179187774658203125e+01) (50, 1.82230186462402343750e+01) (51, 7.89740961045026779175e-03) (52, -8.05523693561553955078e-02) (0, 7.76784706115722656250e+00) (1, -6.05584955215454101562e+00) (2, 1.25633621215820312500e+00) (3, 2.04174880981445312500e+01) (4, 2.28749728202819824219e+00) (5, 1.54335374832153320312e+01) (6, -5.19664287567138671875e+00) (7, 3.74935865402221679688e+00) (8, -1.28701782226562500000e+00) (9, 3.42081413269042968750e+01) (10, 1.15230655670166015625e+00) (11, 5.74565124511718750000e+00) (12, -2.00107192993164062500e+00) (13, -6.32049217820167541504e-02) (14, 3.03448162078857421875e+01) (15, 6.00950431823730468750e+00) (16, 7.45939731597900390625e+00) (17, 6.08999538421630859375e+00) (18, -1.83280296325683593750e+01) (19, 1.51064910888671875000e+01) (20, -1.55314087867736816406e+00) (21, 4.32734718322753906250e+01) (22, 5.73828363418579101562e+00) (23, -1.20564575195312500000e+01) (24, 5.95930938720703125000e+01) (25, -1.28381264209747314453e+00) (26, 7.82022523880004882812e+00) (27, -1.62087619304656982422e+00) (28, 2.45968170166015625000e+01) (29, 1.17717933654785156250e+01) (30, 4.23260442912578582764e-02) (31, -1.12014474868774414062e+01) (32, 4.88921493291854858398e-01) (33, 1.71336593627929687500e+01) (34, 5.14432907104492187500e+00) (35, -1.15459442138671875000e+01) (36, 4.74272537231445312500e+00) (37, -2.08612489700317382812e+00) (38, 1.57847094535827636719e+00) (39, 3.97086257934570312500e+01) (40, -4.88288402557373046875e-01) (41, 7.81395816802978515625e+00) (42, 4.86747264862060546875e+00) (43, 8.30991089344024658203e-01) (44, 1.06609773635864257812e+01) (45, 6.71166467666625976562e+00) (46, 1.04094374179840087891e+00) (47, -1.38365678787231445312e+01) (48, 3.98121185302734375000e+01) (49, 4.42682355642318725586e-01) (50, 1.69763011932373046875e+01) (51, -2.79538669586181640625e+01) (52, -3.12637120485305786133e-01) (0, 1.28238022327423095703e+00) (1, -2.66621634364128112793e-02) (2, 4.06464385986328125000e+00) (3, -1.04938340187072753906e+00) (4, 2.89358043670654296875e+00) (5, 5.08482098579406738281e-01) (6, 4.90925684571266174316e-02) (7, -1.25792777538299560547e+00) (8, 1.90551027655601501465e-01) (9, 1.07352244853973388672e+00) (10, 4.36538839340209960938e+00) (11, -2.67692422866821289062e+00) (12, 2.28359505534172058105e-01) (13, 2.88055062294006347656e-01) (14, 1.61051201820373535156e+00) (15, 2.49519562721252441406e+00) (16, 5.13969838619232177734e-01) (17, 2.45213198661804199219e+00) (18, 3.40498745441436767578e-01) (19, 7.23449707031250000000e-01) (20, 5.40547275543212890625e+00) (21, 4.35708904266357421875e+00) (22, -2.11946296691894531250e+00) (23, -7.73515939712524414062e+00) (24, 7.39486503601074218750e+00) (25, 2.65913939476013183594e+00) (26, 8.91743227839469909668e-02) (27, -1.30812311172485351562e+00) (28, 2.23592114448547363281e+00) (29, 9.82049763202667236328e-01) (30, 2.11206030845642089844e+00) (31, -3.59984278678894042969e+00) (32, 3.41854667663574218750e+00) (33, -2.97754859924316406250e+00) (34, 2.55737757682800292969e+00) (35, -7.04666197299957275391e-01) (36, -2.11549973487854003906e+00) (37, 4.46497631072998046875e+00) (38, 1.63670885562896728516e+00) (39, 2.65164256095886230469e+00) (40, 2.34747934341430664062e+00) (41, 6.88339376449584960938e+00) (42, -1.25414550304412841797e-01) (43, -1.26473724842071533203e+00) (44, -6.03637635707855224609e-01) (45, 5.11432886123657226562e+00) (46, 9.71513807773590087891e-01) (47, 1.37316614389419555664e-01) (48, -5.02819442749023437500e+00) (49, 3.29782557487487792969e+00) (50, 4.63384342193603515625e+00) (51, 3.06249737739562988281e+00) (52, 1.27154231071472167969e-01) (0, -7.65237450599670410156e-01) (1, 2.14144396781921386719e+00) (2, -3.52314680814743041992e-01) (3, 5.83214092254638671875e+00) (4, 1.43513715267181396484e+00) (5, 7.70960092544555664062e-01) (6, 9.48167085647583007812e-01) (7, 6.72945141792297363281e-01) (8, 4.29582625627517700195e-01) (9, -8.34388792514801025391e-01) (10, 2.03821873664855957031e+00) (11, 2.00853633880615234375e+00) (12, 3.17966079711914062500e+00) (13, 1.57555162906646728516e+00) (14, -1.37751609086990356445e-01) (15, 8.30782353878021240234e-01) (16, 8.43110978603363037109e-02) (17, 9.84418690204620361328e-01) (18, 7.98457145690917968750e+00) (19, -5.51412820816040039062e-01) (20, 3.50432157516479492188e+00) (21, 7.82006442546844482422e-01) (22, 5.06907510757446289062e+00) (23, -1.23008127212524414062e+01) (24, 2.61506700515747070312e+00) (25, -7.34862148761749267578e-01) (26, 8.91020715236663818359e-01) (27, 4.99599695205688476562e+00) (28, -1.78657948970794677734e+00) (29, -1.79727107286453247070e-01) (30, 1.27305936813354492188e+00) (31, 1.45794451236724853516e+00) (32, 3.19756650924682617188e+00) (33, -1.30443918704986572266e+00) (34, -7.97425508499145507812e-01) (35, 2.47837781906127929688e+00) (36, 2.10949271917343139648e-01) (37, 3.43691205978393554688e+00) (38, 3.52784633636474609375e+00) (39, -1.52568387985229492188e+00) (40, 9.12352383136749267578e-01) (41, 5.72086954116821289062e+00) (42, 3.23734736442565917969e+00) (43, -4.57302331924438476562e+00) (44, 3.21859568357467651367e-01) (45, 1.05808389186859130859e+00) (46, -2.21678778529167175293e-01) (47, 1.59681904315948486328e+00) (48, 1.13002490997314453125e+00) (49, 1.77255794405937194824e-01) (50, 4.37557077407836914062e+00) (51, -1.00327110290527343750e+00) (52, 3.05162429809570312500e-01) (0, -6.22447431087493896484e-01) (1, 9.97911572456359863281e-01) (2, 4.10253572463989257812e+00) (3, 2.95270538330078125000e+00) (4, -7.57296419143676757812e+00) (5, 4.13122797012329101562e+00) (6, 2.85202050209045410156e+00) (7, 4.28354644775390625000e+00) (8, -2.60230374336242675781e+00) (9, 2.64331054687500000000e+00) (10, 4.20828247070312500000e+00) (11, 1.94653964042663574219e+00) (12, 2.22604155540466308594e+00) (13, -1.54434883594512939453e+00) (14, 7.77389478683471679688e+00) (15, 9.44148659706115722656e-01) (16, -7.23722755908966064453e-01) (17, 7.47585058212280273438e-01) (18, 8.00892448425292968750e+00) (19, 1.12498474121093750000e+00) (20, 4.92859363555908203125e+00) (21, -3.46900254487991333008e-01) (22, 4.02379608154296875000e+00) (23, -1.13537721633911132812e+01) (24, 3.10257768630981445312e+00) (25, 8.52396368980407714844e-01) (26, -1.18556611239910125732e-01) (27, 5.30647397041320800781e-01) (28, -2.79730868339538574219e+00) (29, 1.83502697944641113281e+00) (30, 7.73322880268096923828e-01) (31, 6.60589408874511718750e+00) (32, 1.67712628841400146484e+00) (33, -2.30375075340270996094e+00) (34, 1.29177105426788330078e+00) (35, 4.21497964859008789062e+00) (36, 3.54817152023315429688e+00) (37, -4.45091128349304199219e-01) (38, 4.26609611511230468750e+00) (39, -1.05838811397552490234e+00) (40, 3.13072633743286132812e+00) (41, 2.45855554938316345215e-01) (42, 1.83459603786468505859e+00) (43, -4.33614432811737060547e-01) (44, 2.53027033805847167969e+00) (45, 5.84093809127807617188e+00) (46, -1.54566001892089843750e+00) (47, 1.81327867507934570312e+00) (48, -4.66775357723236083984e-01) (49, 6.02370452880859375000e+00) (50, 1.47530770301818847656e+00) (51, -7.80950546264648437500e-01) (52, 9.89978089928627014160e-02) (0, -4.82480049133300781250e+00) (1, 4.33786749839782714844e-01) (2, 5.21024167537689208984e-01) (3, 2.17181730270385742188e+00) (4, 1.95938479900360107422e+00) (5, 9.20815408229827880859e-01) (6, -1.87804436683654785156e+00) (7, 1.15753114223480224609e+00) (8, 2.50135207176208496094e+00) (9, -3.00408899784088134766e-01) (10, -8.29033756256103515625e+00) (11, 3.71579790115356445312e+00) (12, 2.11215782165527343750e+00) (13, 5.44079720973968505859e-01) (14, -1.15883231163024902344e+00) (15, -1.32071304321289062500e+01) (16, 1.67550891637802124023e-01) (17, 9.63139116764068603516e-01) (18, 6.55418813228607177734e-01) (19, -1.13427467346191406250e+01) (20, 7.37479877471923828125e+00) (21, -3.35541415214538574219e+00) (22, -2.28581643104553222656e+00) (23, 3.67042207717895507812e+00) (24, -2.39329004287719726562e+00) (25, 1.07530860900878906250e+01) (26, -5.76657950878143310547e-01) (27, -1.30920381546020507812e+01) (28, 1.23025023937225341797e+00) (29, 9.21924337744712829590e-02) (30, -2.41147971153259277344e+00) (31, 3.86237740516662597656e+00) (32, 1.64960362017154693604e-02) (33, -5.93117952346801757812e-01) (34, 1.51700127124786376953e+00) (35, 1.43489062786102294922e+00) (36, 1.01291728019714355469e+00) (37, 2.10387396812438964844e+00) (38, -1.42824399471282958984e+00) (39, -4.02033233642578125000e+00) (40, -3.86036485433578491211e-01) (41, 2.93558883666992187500e+00) (42, 4.79557454586029052734e-01) (43, -9.01450634002685546875e+00) (44, 2.68686890602111816406e+00) (45, 4.98180150985717773438e+00) (46, -1.01483688354492187500e+01) (47, -3.60688591003417968750e+00) (48, 2.23692369461059570312e+00) (49, 3.71131014823913574219e+00) (50, -1.75930652618408203125e+01) (51, -4.97195768356323242188e+00) (52, 9.53473329544067382812e-01) (0, 2.17774701118469238281e+00) (1, -4.66731452941894531250e+00) (2, 4.71593104302883148193e-02) (3, 9.37815785408020019531e-01) (4, 1.32596616744995117188e+01) (5, -9.88894104957580566406e-01) (6, -1.21746134757995605469e+00) (7, 1.23963630199432373047e+00) (8, 2.99937367439270019531e+00) (9, 1.40473079681396484375e+01) (10, -6.58194637298583984375e+00) (11, -3.50604951381683349609e-02) (12, 3.47170615196228027344e+00) (13, -2.59544086456298828125e+00) (14, 3.00070858001708984375e+00) (15, -5.99307632446289062500e+00) (16, -1.17490434646606445312e+00) (17, 1.46144065856933593750e+01) (18, -2.00297951698303222656e+00) (19, 1.54882354736328125000e+01) (20, -3.12286758422851562500e+00) (21, 5.11030578613281250000e+00) (22, -9.39821302890777587891e-01) (23, 6.46897459030151367188e+00) (24, 2.91068506240844726562e+00) (25, -1.42956142425537109375e+01) (26, 9.29755568504333496094e-01) (27, 6.94331836700439453125e+00) (28, 5.88927936553955078125e+00) (29, -2.64642500877380371094e+00) (30, 2.95434212684631347656e+00) (31, -5.84498167037963867188e+00) (32, -2.61666011810302734375e+00) (33, -1.68480110168457031250e+00) (34, 2.03134441375732421875e+01) (35, 6.09111976623535156250e+00) (36, 1.39574542641639709473e-01) (37, 8.08911800384521484375e+00) (38, -4.72428798675537109375e+00) (39, 3.08758795261383056641e-01) (40, 1.35999393463134765625e+01) (41, 9.80007231235504150391e-01) (42, -2.34497356414794921875e+00) (43, -3.01922893524169921875e+00) (44, -2.68202686309814453125e+00) (45, 2.42605137825012207031e+00) (46, -9.13391351699829101562e-01) (47, 9.18580722808837890625e+00) (48, -1.24087345600128173828e+00) (49, 4.47047472000122070312e+00) (50, 3.10967707633972167969e+00) (51, -7.15090942382812500000e+00) (52, 1.15540957450866699219e+00) (0, -5.77533245086669921875e-01) (1, 4.85789680480957031250e+00) (2, -3.64560544490814208984e-01) (3, 5.99721574783325195312e+00) (4, 7.05629646778106689453e-01) (5, 1.27948477864265441895e-01) (6, 3.29083037376403808594e+00) (7, -2.95503050088882446289e-01) (8, 1.83372890949249267578e+00) (9, 5.11251258850097656250e+00) (10, -5.66875743865966796875e+00) (11, 6.45638704299926757812e+00) (12, 3.56618523597717285156e-01) (13, 4.70113849639892578125e+00) (14, 1.30417442321777343750e+00) (15, -2.76595139503479003906e+00) (16, 3.63049316406250000000e+00) (17, -1.32783472537994384766e+00) (18, 1.04137420654296875000e+00) (19, 6.93543004989624023438e+00) (20, 5.12336909770965576172e-01) (21, 9.95374870300292968750e+00) (22, 2.13987350463867187500e+00) (23, -1.31642084121704101562e+01) (24, 1.52963602542877197266e+00) (25, 5.17447614669799804688e+00) (26, -9.80356931686401367188e-01) (27, 2.27581906318664550781e+00) (28, 1.33461132049560546875e+01) (29, -5.26626348495483398438e+00) (30, 1.70042204856872558594e+00) (31, 1.26437175273895263672e+00) (32, -4.67982053756713867188e+00) (33, 1.08841419219970703125e+00) (34, 3.72363781929016113281e+00) (35, 5.88246631622314453125e+00) (36, 5.04624652862548828125e+00) (37, 7.10566818714141845703e-01) (38, 2.43283748626708984375e+00) (39, -1.25442552566528320312e+00) (40, 3.74459600448608398438e+00) (41, -2.78573441505432128906e+00) (42, 2.73927664756774902344e+00) (43, 1.20654678344726562500e+00) (44, -4.69962358474731445312e-01) (45, 3.88202857971191406250e+00) (46, 1.46806657314300537109e-01) (47, 1.17021954059600830078e+00) (48, 3.39473605155944824219e+00) (49, -3.05006623268127441406e+00) (50, 1.42359471321105957031e+00) (51, 8.38928413391113281250e+00) (52, 7.46462345123291015625e-02) (0, 1.26460576057434082031e+00) (1, 2.04301667213439941406e+00) (2, 4.10314893722534179688e+00) (3, 1.30480933189392089844e+00) (4, -2.79121279716491699219e-01) (5, 1.55859673023223876953e+00) (6, 3.45426368713378906250e+00) (7, 6.44442415237426757812e+00) (8, 2.43410873413085937500e+00) (9, -1.40482211112976074219e+00) (10, 5.22886657714843750000e+00) (11, 1.01447820663452148438e+00) (12, -3.47730547189712524414e-01) (13, 3.09928894042968750000e+00) (14, 2.85077071189880371094e+00) (15, 1.89977014064788818359e+00) (16, -7.55530309677124023438e+00) (17, 3.85408115386962890625e+00) (18, 4.49075412750244140625e+00) (19, 3.40414142608642578125e+00) (20, 1.71348094940185546875e+00) (21, 2.87224745750427246094e+00) (22, 6.88546657562255859375e-01) (23, 9.61014461517333984375e+00) (24, 1.48790683746337890625e+01) (25, -2.74445781707763671875e+01) (26, 2.13488388061523437500e+01) (27, 1.28915395736694335938e+01) (28, 1.21485745906829833984e+00) (29, 1.89253890514373779297e+00) (30, 3.47803616523742675781e+00) (31, 8.75682413578033447266e-01) (32, 4.77471113204956054688e-01) (33, -1.89054155349731445312e+00) (34, 1.90803588867187500000e+02) (35, 1.99095794677734375000e+02) (36, 1.56905770301818847656e+00) (37, 2.70941734313964843750e+00) (38, 4.43710470199584960938e+00) (39, 1.24407827854156494141e+00) (40, 4.58883476257324218750e+00) (41, 1.52110695838928222656e+00) (42, 4.57626485824584960938e+00) (43, -2.65287876129150390625e-01) (44, 1.69647240638732910156e+00) (45, 7.55674898624420166016e-01) (46, 1.69178938865661621094e+00) (47, 4.93453359603881835938e+00) (48, 1.28083419799804687500e+00) (49, 1.21301150321960449219e+00) (50, 3.10901522636413574219e+00) (51, 3.35247015953063964844e+00) (52, -7.46023297309875488281e-01) (0, 6.77089881896972656250e+00) (1, 9.09145355224609375000e+00) (2, 9.49518013000488281250e+00) (3, 1.38596343994140625000e+00) (4, 9.52470493316650390625e+00) (5, 2.26339936256408691406e+00) (6, 1.37263975143432617188e+01) (7, 1.92849373817443847656e+00) (8, 1.09297393798828125000e+02) (9, -1.64183715820312500000e+02) (10, 1.23571044921875000000e+02) (11, 1.04040100097656250000e+02) (12, 8.57859039306640625000e+00) (13, 9.10320568084716796875e+00) (14, 3.62342619895935058594e+00) (15, 1.20680646896362304688e+01) (16, 4.37238740921020507812e+00) (17, 1.24962558746337890625e+01) (18, 9.93614387512207031250e+00) (19, -1.75207734107971191406e+00) (20, 1.74768180847167968750e+01) (21, 1.98314857482910156250e+01) (22, -1.45775675773620605469e+00) (23, 3.20779762268066406250e+01) (24, -8.71203613281250000000e+00) (25, 1.18048105239868164062e+01) (26, 3.19525966644287109375e+01) (27, 2.47629184722900390625e+01) (28, 4.17134493589401245117e-01) (29, 4.77350044250488281250e+01) (30, 7.28993082046508789062e+00) (31, 9.02030658721923828125e+00) (32, 1.25226736068725585938e+01) (33, 1.25798273086547851562e+01) (34, 2.30900764465332031250e+01) (35, -4.05520772933959960938e+00) (36, 2.34421672821044921875e+01) (37, 2.78018741607666015625e+01) (38, 4.55280876159667968750e+00) (39, -1.46197068691253662109e+00) (40, 6.75824451446533203125e+00) (41, 1.35262918472290039062e+01) (42, 1.53715515136718750000e+01) (43, 1.07802000045776367188e+01) (44, 1.62834434509277343750e+01) (45, -9.60528552532196044922e-01) (46, 1.08488883972167968750e+01) (47, 6.96842002868652343750e+00) (48, 2.05927246093750000000e+02) (49, 1.66495513916015625000e+02) (50, -2.11885360717773437500e+02) (51, 1.70067611694335937500e+02) (52, -9.24289047718048095703e-01) (0, 1.70054495334625244141e+00) (1, -1.39853692054748535156e+00) (2, -1.95479705929756164551e-01) (3, 2.52313208580017089844e+00) (4, 1.05352087020874023438e+01) (5, -7.35012245178222656250e+00) (6, 1.27969527244567871094e+00) (7, -4.91000264883041381836e-01) (8, 6.25992918014526367188e+00) (9, 7.46805334091186523438e+00) (10, -1.49526035785675048828e+00) (11, -3.00026655197143554688e+00) (12, 1.30038654804229736328e+00) (13, -9.98221874237060546875e+00) (14, 5.47737455368041992188e+00) (15, 7.83898159861564636230e-02) (16, 1.03789710998535156250e+01) (17, 1.07196897268295288086e-01) (18, 2.39899232983589172363e-01) (19, -3.86781930923461914062e+00) (20, -5.32160699367523193359e-01) (21, 7.11473321914672851562e+00) (22, -5.96966648101806640625e+00) (23, 6.88463306427001953125e+00) (24, 1.15172863006591796875e+00) (25, -2.56055831909179687500e+00) (26, 5.72963654994964599609e-01) (27, 1.14065074920654296875e+01) (28, -4.31319534778594970703e-01) (29, 1.38150825500488281250e+01) (30, -1.80005478858947753906e+00) (31, 2.02647247314453125000e+01) (32, 1.61620056629180908203e+00) (33, -6.92687511444091796875e-01) (34, 1.75561773777008056641e+00) (35, 2.38236010074615478516e-01) (36, -2.58853793144226074219e+00) (37, 1.26203460693359375000e+01) (38, 5.39710760116577148438e+00) (39, -1.28062999248504638672e+00) (40, 2.89212870597839355469e+00) (41, -7.26781606674194335938e+00) (42, 2.43794822692871093750e+00) (43, -1.19643902778625488281e+00) (44, 1.36229479312896728516e+00) (45, -3.04998421669006347656e+00) (46, 4.12714624404907226562e+00) (47, -6.66466474533081054688e-01) (48, 9.95553731918334960938e-01) (49, 1.02428741455078125000e+01) (50, -5.58485090732574462891e-01) (51, -2.64633226394653320312e+00) (52, 4.46752697229385375977e-01) (0, 8.76164019107818603516e-01) (1, 2.92820423841476440430e-01) (2, -1.52123045921325683594e+00) (3, 4.37859177589416503906e-01) (4, -1.03728830814361572266e-01) (5, 7.75248527526855468750e+00) (6, -1.02130479812622070312e+01) (7, 5.48165321350097656250e+00) (8, 1.73217487335205078125e+01) (9, -2.32292532920837402344e+00) (10, 5.81195503473281860352e-02) (11, -1.28978633880615234375e+01) (12, 2.98075413703918457031e+00) (13, -3.70142889022827148438e+00) (14, 1.73030853271484375000e+00) (15, -1.09236316680908203125e+01) (16, -6.41939491033554077148e-02) (17, -6.64053583145141601562e+00) (18, 4.93701076507568359375e+00) (19, -2.25308799743652343750e+00) (20, -9.64437198638916015625e+00) (21, 2.49548006057739257812e+00) (22, 4.28411990404129028320e-01) (23, 3.15583467483520507812e+00) (24, -4.47919464111328125000e+00) (25, -6.67433261871337890625e-01) (26, 2.22819924354553222656e+00) (27, 8.61257743835449218750e+00) (28, 7.19559574127197265625e+00) (29, 1.42494211196899414062e+01) (30, -2.16091995239257812500e+01) (31, -1.05196654796600341797e+00) (32, -9.52827394008636474609e-01) (33, 3.63016456365585327148e-01) (34, -6.37988001108169555664e-02) (35, 3.92038202285766601562e+00) (36, 6.39462423324584960938e+00) (37, -6.52639865875244140625e-01) (38, -2.54617547988891601562e+00) (39, 8.80072534084320068359e-01) (40, 4.18371021747589111328e-01) (41, -1.83263409137725830078e+00) (42, -4.89802479743957519531e-01) (43, 1.07477083206176757812e+01) (44, 1.52345876693725585938e+01) (45, 8.09601426124572753906e-01) (46, -1.83250451087951660156e+00) (47, -1.86480462551116943359e+00) (48, 1.72974038124084472656e+00) (49, -1.23142564296722412109e+00) (50, -1.50764107704162597656e+00) (51, 4.47665548324584960938e+00) (52, 1.16465783119201660156e+00) (0, 4.64073133468627929688e+00) (1, 4.88879728317260742188e+00) (2, -1.83225661516189575195e-01) (3, 4.45310026407241821289e-02) (4, -2.25371074676513671875e+00) (5, 3.45077490806579589844e+00) (6, 2.71945571899414062500e+00) (7, 5.46881866455078125000e+00) (8, 2.08860421180725097656e+00) (9, -8.52451705932617187500e+00) (10, 7.08646965026855468750e+00) (11, 8.66448593139648437500e+00) (12, 1.13870739936828613281e+00) (13, 1.11382973194122314453e+00) (14, 5.40142345428466796875e+00) (15, -1.77990210056304931641e+00) (16, 4.71974849700927734375e-01) (17, 4.40112781524658203125e+00) (18, 1.98383116722106933594e+00) (19, 4.33728396892547607422e-01) (20, 1.03870463371276855469e+00) (21, 1.84489250183105468750e+00) (22, 5.93976497650146484375e-01) (23, 6.10319471359252929688e+00) (24, -1.27346241474151611328e+00) (25, 8.66019058227539062500e+00) (26, 5.85052967071533203125e+00) (27, -2.06003046035766601562e+00) (28, -7.03429162502288818359e-01) (29, -9.69791650772094726562e-01) (30, 1.29335985183715820312e+01) (31, 6.35473823547363281250e+00) (32, 1.34218149185180664062e+01) (33, 5.79805088043212890625e+00) (34, -2.28746294975280761719e-01) (35, -3.76974487304687500000e+00) (36, 7.90098786354064941406e-01) (37, 9.47930812835693359375e+00) (38, 1.70137357711791992188e+00) (39, 8.34885656833648681641e-01) (40, -1.66014707088470458984e+00) (41, 5.24227666854858398438e+00) (42, 8.79182890057563781738e-02) (43, 7.60833644866943359375e+00) (44, -3.26470923423767089844e+00) (45, 2.29596233367919921875e+00) (46, 2.24535536766052246094e+00) (47, 5.14782476425170898438e+00) (48, 4.78389835357666015625e+00) (49, 5.32363796234130859375e+00) (50, -6.55337619781494140625e+00) (51, 2.24379301071166992188e+00) (52, -5.40868878364562988281e-01) (0, -1.27799764275550842285e-01) (1, -1.54731437563896179199e-01) (2, -4.52454149723052978516e-01) (3, 4.18593764305114746094e-01) (4, 6.69909954071044921875e-01) (5, -2.45717138051986694336e-01) (6, -1.27895653247833251953e-01) (7, 4.93794173002243041992e-01) (8, 4.00491803884506225586e-01) (9, 1.94549839943647384644e-02) (10, -3.59181135892868041992e-01) (11, 3.53501737117767333984e-02) (12, 6.16809487342834472656e-01) (13, 3.19733619689941406250e-01) (14, 2.03739523887634277344e-01) (15, -6.29150420427322387695e-02) (16, -4.44561466574668884277e-02) (17, -2.48414039611816406250e-01) (18, 1.10337682068347930908e-01) (19, 1.14645682275295257568e-01) (20, 7.44819790124893188477e-02) (21, 7.71062076091766357422e-01) (22, -1.71048462390899658203e-01) (23, 5.41085600852966308594e-01) (24, 2.51805603504180908203e-01) (25, 9.48282629251480102539e-02) (26, -1.03176124393939971924e-01) (27, 4.40292537212371826172e-01) (28, 4.27864342927932739258e-01) (29, 5.49857497215270996094e-01) (30, -1.94383129477500915527e-01) (31, 4.07440006732940673828e-01) (32, 1.38213172554969787598e-01) (33, 7.73855268955230712891e-01) (34, 8.26171278953552246094e-01) (35, 9.80156585574150085449e-02) (36, -2.60025560855865478516e-01) (37, -1.26259580254554748535e-01) (38, -2.05084905028343200684e-01) (39, -4.23688530921936035156e-01) (40, 1.09713673591613769531e+00) (41, 6.70025944709777832031e-01) (42, -1.96649283170700073242e-01) (43, -3.41359555721282958984e-01) (44, 5.05961850285530090332e-02) (45, 1.49687245488166809082e-01) (46, -2.53584802150726318359e-01) (47, 1.24912478029727935791e-01) (48, 3.38136911392211914062e-01) (49, 8.07397738099098205566e-02) (50, 1.94640249013900756836e-01) (51, -1.81460067629814147949e-01) (52, 1.16759955883026123047e+00) (0, -1.11519384384155273438e+00) (1, 1.15394663810729980469e+00) (2, 3.08275485038757324219e+00) (3, 1.15412445068359375000e+01) (4, 1.90515160560607910156e+00) (5, 1.61084473133087158203e+00) (6, 1.57572746276855468750e+00) (7, -1.69699203968048095703e+00) (8, 1.53228569030761718750e+00) (9, 2.13972401618957519531e+00) (10, -8.60120952129364013672e-01) (11, 4.96170091629028320312e+00) (12, -2.25039005279541015625e+00) (13, 2.05723857879638671875e+00) (14, 1.97913670539855957031e+00) (15, 9.40008640289306640625e+00) (16, 3.84714889526367187500e+00) (17, 2.82682156562805175781e+00) (18, -3.06093835830688476562e+00) (19, 3.32114171981811523438e+00) (20, 4.42062258720397949219e-01) (21, 1.47993731498718261719e+00) (22, 7.50438308715820312500e+00) (23, -1.28875579833984375000e+01) (24, -6.31710290908813476562e-01) (25, 3.68890225887298583984e-01) (26, 1.03663587570190429688e+01) (27, 5.07482767105102539062e-01) (28, 3.99278807640075683594e+00) (29, 2.20998859405517578125e+00) (30, -1.55597853660583496094e+00) (31, 1.02898216247558593750e+00) (32, 3.61125683784484863281e+00) (33, 3.97552824020385742188e+00) (34, 1.57793045043945312500e+00) (35, -6.07780027389526367188e+00) (36, 2.98128080368041992188e+00) (37, -1.05413472652435302734e+00) (38, 4.84300374984741210938e-01) (39, 3.89705610275268554688e+00) (40, 5.36534357070922851562e+00) (41, 2.39591479301452636719e+00) (42, 1.03526222705841064453e+00) (43, -2.10150551795959472656e+00) (44, 6.01438343524932861328e-01) (45, -1.29806590080261230469e+00) (46, 3.47779440879821777344e+00) (47, 2.93183326721191406250e+00) (48, -5.87230253219604492188e+00) (49, 4.47874975204467773438e+00) (50, 2.94011735916137695312e+00) (51, 7.06982326507568359375e+00) (52, 1.18031792342662811279e-01) (0, -5.64247369766235351562e-03) (1, -2.26747050881385803223e-01) (2, -1.05104714632034301758e-01) (3, 4.89764399826526641846e-02) (4, 4.82936911284923553467e-02) (5, 5.85846416652202606201e-02) (6, 7.21932947635650634766e-02) (7, -2.60262429714202880859e-01) (8, 1.34855419397354125977e-01) (9, -1.29039958119392395020e-01) (10, -3.39899480342864990234e-01) (11, 1.60753160715103149414e-01) (12, 5.00326514244079589844e-01) (13, -1.29114836454391479492e-01) (14, -3.55516709387302398682e-02) (15, 3.05564284324645996094e-01) (16, -1.41982018947601318359e-01) (17, 1.36783063411712646484e-01) (18, -2.92299032211303710938e-01) (19, 4.97069835662841796875e-01) (20, -1.16759561002254486084e-01) (21, 5.53648889064788818359e-01) (22, 3.29417705535888671875e-01) (23, 4.37564045190811157227e-01) (24, -2.82368868589401245117e-01) (25, 3.73737603425979614258e-01) (26, 1.27748414874076843262e-01) (27, 4.78532493114471435547e-01) (28, 3.80136966705322265625e-01) (29, 5.05526125431060791016e-01) (30, -1.77705153822898864746e-01) (31, 3.95651757717132568359e-02) (32, -1.33650630712509155273e-01) (33, 7.53445446491241455078e-01) (34, 7.65479564666748046875e-01) (35, 3.05967301130294799805e-01) (36, 2.35376402735710144043e-01) (37, -5.42324900627136230469e-01) (38, -1.74097567796707153320e-01) (39, -4.21660840511322021484e-02) (40, 8.63211274147033691406e-01) (41, -7.09894120693206787109e-01) (42, -7.78758108615875244141e-01) (43, 9.73111297935247421265e-03) (44, 1.84229180216789245605e-01) (45, -5.54290652275085449219e-01) (46, 2.33578830957412719727e-01) (47, -6.06689870357513427734e-01) (48, 2.47381791472434997559e-01) (49, -1.14129193127155303955e-01) (50, -9.47927534580230712891e-02) (51, -2.34267756342887878418e-01) (52, 1.21107554435729980469e+00) (0, 9.19447004795074462891e-01) (1, 2.00665092468261718750e+00) (2, 4.39195537567138671875e+00) (3, -4.98991638422012329102e-01) (4, 5.02776193618774414062e+00) (5, -6.42189216613769531250e+00) (6, 1.96764445304870605469e+00) (7, 3.57005977630615234375e+00) (8, -3.57195425033569335938e+00) (9, 5.07135295867919921875e+00) (10, 1.47324466705322265625e+00) (11, 8.67348003387451171875e+00) (12, 1.31529068946838378906e+00) (13, 1.52131009101867675781e+00) (14, 2.86099219322204589844e+00) (15, -2.73722076416015625000e+00) (16, 2.57123589515686035156e+00) (17, 5.51702022552490234375e-01) (18, 1.56815969944000244141e+00) (19, 3.09418320655822753906e+00) (20, 1.78473210334777832031e+00) (21, -3.09361338615417480469e-01) (22, 5.05821561813354492188e+00) (23, -1.09961824417114257812e+01) (24, 3.35149931907653808594e+00) (25, -2.90169334411621093750e+00) (26, 4.98000335693359375000e+00) (27, 1.24157559871673583984e+00) (28, 4.11710071563720703125e+00) (29, 4.48510497808456420898e-01) (30, 1.70276021957397460938e+00) (31, -2.12973618507385253906e+00) (32, 7.08265304565429687500e+00) (33, 2.88182282447814941406e+00) (34, 1.13406932353973388672e+00) (35, -3.57184481620788574219e+00) (36, 5.88378477096557617188e+00) (37, 1.05908894538879394531e+00) (38, 3.94257378578186035156e+00) (39, -2.16683101654052734375e+00) (40, 2.00020694732666015625e+00) (41, 7.02232360839843750000e+00) (42, -1.32038187980651855469e+00) (43, 2.02729392051696777344e+00) (44, -1.70567941665649414062e+00) (45, 3.27370190620422363281e+00) (46, 2.76044368743896484375e+00) (47, 1.98948049545288085938e+00) (48, 4.81223583221435546875e+00) (49, 1.49574506282806396484e+00) (50, -3.93496704101562500000e+00) (51, 1.83613455295562744141e+00) (52, 9.16575491428375244141e-02) (0, 9.83017921447753906250e+00) (1, 1.47752990722656250000e+01) (2, 2.39843297004699707031e+00) (3, -7.91841936111450195312e+00) (4, -1.15130960941314697266e+00) (5, 1.01322278976440429688e+01) (6, 1.75658905506134033203e+00) (7, 9.75863552093505859375e+00) (8, -1.85473001003265380859e+00) (9, 1.12614927291870117188e+01) (10, 8.80586433410644531250e+00) (11, 2.77399802207946777344e+00) (12, -2.05681610107421875000e+00) (13, 1.42110319137573242188e+01) (14, 7.46763515472412109375e+00) (15, 2.77428889274597167969e+00) (16, 4.71052503585815429688e+00) (17, 3.02368807792663574219e+00) (18, 7.19311571121215820312e+00) (19, -9.24333477020263671875e+00) (20, -2.70719361305236816406e+00) (21, 2.06462764739990234375e+00) (22, 3.16007270812988281250e+01) (23, -1.78938186168670654297e+00) (24, 8.38483333587646484375e-01) (25, 2.86169776916503906250e+01) (26, 2.45551147460937500000e+01) (27, -1.68287677764892578125e+01) (28, -5.01807153224945068359e-01) (29, 5.67398118972778320312e+00) (30, 1.03568067550659179688e+01) (31, -1.72863650321960449219e+00) (32, 1.92750871181488037109e+00) (33, 1.70734958648681640625e+01) (34, -3.81728708744049072266e-01) (35, 2.18737196922302246094e+00) (36, 6.35049247741699218750e+00) (37, -3.28235006332397460938e+00) (38, 3.52423524856567382812e+00) (39, 1.10560398101806640625e+01) (40, 1.49538745880126953125e+01) (41, -3.05792655944824218750e+01) (42, 8.47285175323486328125e+00) (43, 7.24839782714843750000e+00) (44, 4.83369445800781250000e+00) (45, 2.35817909240722656250e+00) (46, 1.58982992172241210938e+01) (47, -6.17883682250976562500e+00) (48, -4.82029533386230468750e+00) (49, 3.98577642440795898438e+00) (50, 5.75043678283691406250e+01) (51, 2.29696254730224609375e+01) (52, -5.21137773990631103516e-01) (0, 2.48961567878723144531e+00) (1, 2.29420512914657592773e-01) (2, 1.90843510627746582031e+00) (3, 9.38254058361053466797e-01) (4, 4.59252327680587768555e-01) (5, 1.88476669788360595703e+00) (6, 9.27184581756591796875e+00) (7, -2.14676213264465332031e+00) (8, 2.20816087722778320312e+00) (9, 3.18217206001281738281e+00) (10, 6.95330023765563964844e-01) (11, -2.58275532722473144531e+00) (12, 1.39096701145172119141e+00) (13, 3.59563636779785156250e+00) (14, -4.59590530395507812500e+00) (15, 7.50709199905395507812e+00) (16, 4.40328073501586914062e+00) (17, 3.35921525955200195312e+00) (18, 6.70048654079437255859e-01) (19, -2.19359755516052246094e+00) (20, 7.36069631576538085938e+00) (21, -3.86022388935089111328e-01) (22, 5.15225648880004882812e-01) (23, -2.35284876823425292969e+00) (24, 1.18141257762908935547e+00) (25, 3.29584479331970214844e-01) (26, 2.06520110368728637695e-01) (27, 2.30785536766052246094e+00) (28, 1.94009035825729370117e-01) (29, -1.11593043804168701172e+00) (30, 5.42789983749389648438e+00) (31, -8.68599772453308105469e-01) (32, 2.66326379776000976562e+00) (33, 5.03659725189208984375e+00) (34, -1.08604514598846435547e+00) (35, -6.05939149856567382812e-01) (36, 3.32395958900451660156e+00) (37, 1.67232823371887207031e+00) (38, 1.48377835750579833984e+00) (39, -3.55817103385925292969e+00) (40, -4.59843814373016357422e-01) (41, -2.27635884284973144531e+00) (42, 3.80692553520202636719e+00) (43, 4.53876304626464843750e+00) (44, 5.08867168426513671875e+00) (45, 9.48227167129516601562e-01) (46, -1.60631740093231201172e+00) (47, 1.22500503063201904297e+00) (48, 1.22889673709869384766e+00) (49, -1.02082841098308563232e-01) (50, 7.59713649749755859375e+00) (51, -8.95200252532958984375e-01) (52, -5.23629263043403625488e-02) (0, 1.20360134169459342957e-02) (1, -8.33781719207763671875e+00) (2, 1.50475764274597167969e+00) (3, 2.28638029098510742188e+00) (4, 5.30464696884155273438e+00) (5, -7.62000989913940429688e+00) (6, 2.72057592868804931641e-01) (7, -2.77960085868835449219e+00) (8, 1.73879230022430419922e+00) (9, -1.06728601455688476562e+00) (10, -3.63154363632202148438e+00) (11, 9.90417480468750000000e+00) (12, 4.51185178756713867188e+00) (13, -2.60583114624023437500e+00) (14, -1.99348998069763183594e+00) (15, 6.92208480834960937500e+00) (16, -6.71932554244995117188e+00) (17, -7.51240074634552001953e-01) (18, 1.95950281620025634766e+00) (19, 8.05136299133300781250e+00) (20, -4.58175849914550781250e+00) (21, 1.49828414916992187500e+01) (22, -1.75307869911193847656e+00) (23, 2.42221689224243164062e+00) (24, 1.67120420932769775391e+00) (25, 5.35566926002502441406e-01) (26, 3.82346451282501220703e-01) (27, -3.34849071502685546875e+00) (28, -1.73045718669891357422e+00) (29, 3.16313743591308593750e+00) (30, 3.48365724086761474609e-01) (31, 3.28389406204223632812e-01) (32, -8.29910755157470703125e+00) (33, 3.51595759391784667969e+00) (34, 1.72823500633239746094e+00) (35, -3.22516512870788574219e+00) (36, 6.14682292938232421875e+00) (37, 3.61227226257324218750e+00) (38, -4.34150075912475585938e+00) (39, -9.02780628204345703125e+00) (40, 4.00487184524536132812e+00) (41, 6.26641809940338134766e-01) (42, -5.80971717834472656250e+00) (43, 2.98877030611038208008e-01) (44, -2.85499835014343261719e+00) (45, 6.46700143814086914062e+00) (46, 1.13708460330963134766e+00) (47, -1.03567867279052734375e+01) (48, 3.96956658363342285156e+00) (49, -1.39836251735687255859e+00) (50, 4.61532711982727050781e-01) (51, -4.82544803619384765625e+00) (52, 1.24076485633850097656e+00) (53, 3.06924271583557128906e+00) (54, -5.85126698017120361328e-01) (55, 1.64167082309722900391e+00) (56, -6.72063052654266357422e-01) (57, 5.98432421684265136719e-01) (58, 5.96991419792175292969e-01) (59, -7.18578159809112548828e-01) (60, -5.79873621463775634766e-01) (61, -5.77367126941680908203e-01) (62, -9.11961078643798828125e-01) (63, -7.71529614925384521484e-01) (64, 1.78339529037475585938e+00) (65, -5.37623584270477294922e-01) (66, -5.79842269420623779297e-01) (67, -9.06010687351226806641e-01) (68, -6.56300783157348632812e-01) (69, 1.66279578208923339844e+00) (70, 9.92279946804046630859e-01) (71, 7.36276686191558837891e-01) (72, -5.75347959995269775391e-01) (73, 6.26260638236999511719e-01) (74, -9.39396142959594726562e-01) (75, 5.23800194263458251953e-01) (76, -1.07566213607788085938e+00) (77, 1.21371984481811523438e+00) (78, -7.93409407138824462891e-01) (79, -7.31933951377868652344e-01) (80, -5.78130602836608886719e-01) (81, -8.48059475421905517578e-01) (82, 5.29558658599853515625e-01) (83, -6.57865345478057861328e-01) (84, -5.90732216835021972656e-01) (85, 1.75606107711791992188e+00) (86, 2.71026921272277832031e+00) (87, 6.73127830028533935547e-01) (88, -5.29879927635192871094e-01) (89, 1.31104326248168945312e+00) (90, 1.25630199909210205078e+00) (91, -6.58429563045501708984e-01) (92, 1.24023175239562988281e+00) (93, -7.36063182353973388672e-01) (94, -8.96282732486724853516e-01) (95, -8.92281711101531982422e-01) (96, -4.83213573694229125977e-01) (97, -1.52269139885902404785e-01) 
