FANN_FLO_2.1
num_layers=3
learning_rate=0.700000
connection_rate=1.000000
network_type=0
learning_momentum=0.000000
training_algorithm=2
train_error_function=1
train_stop_function=0
cascade_output_change_fraction=0.010000
quickprop_decay=-0.000100
quickprop_mu=1.750000
rprop_increase_factor=1.200000
rprop_decrease_factor=0.500000
rprop_delta_min=0.000000
rprop_delta_max=50.000000
rprop_delta_zero=0.100000
cascade_output_stagnation_epochs=12
cascade_candidate_change_fraction=0.010000
cascade_candidate_stagnation_epochs=12
cascade_max_out_epochs=150
cascade_min_out_epochs=50
cascade_max_cand_epochs=150
cascade_min_cand_epochs=50
cascade_num_candidate_groups=2
bit_fail_limit=3.49999994039535522461e-01
cascade_candidate_limit=1.00000000000000000000e+03
cascade_weight_multiplier=4.00000005960464477539e-01
cascade_activation_functions_count=10
cascade_activation_functions=3 5 7 8 10 11 14 15 16 17 
cascade_activation_steepnesses_count=4
cascade_activation_steepnesses=2.50000000000000000000e-01 5.00000000000000000000e-01 7.50000000000000000000e-01 1.00000000000000000000e+00 
layer_sizes=53 45 2 
scale_included=0
neurons (num_inputs, activation_function, activation_steepness)=(0, 0, 0.00000000000000000000e+00) (0, 0, 0.00000000000000000000e+00) (0, 0, 0.00000000000000000000e+00) (0, 0, 0.00000000000000000000e+00) (0, 0, 0.00000000000000000000e+00) (0, 0, 0.00000000000000000000e+00) (0, 0, 0.00000000000000000000e+00) (0, 0, 0.00000000000000000000e+00) (0, 0, 0.00000000000000000000e+00) (0, 0, 0.00000000000000000000e+00) (0, 0, 0.00000000000000000000e+00) (0, 0, 0.00000000000000000000e+00) (0, 0, 0.00000000000000000000e+00) (0, 0, 0.00000000000000000000e+00) (0, 0, 0.00000000000000000000e+00) (0, 0, 0.00000000000000000000e+00) (0, 0, 0.00000000000000000000e+00) (0, 0, 0.00000000000000000000e+00) (0, 0, 0.00000000000000000000e+00) (0, 0, 0.00000000000000000000e+00) (0, 0, 0.00000000000000000000e+00) (0, 0, 0.00000000000000000000e+00) (0, 0, 0.00000000000000000000e+00) (0, 0, 0.00000000000000000000e+00) (0, 0, 0.00000000000000000000e+00) (0, 0, 0.00000000000000000000e+00) (0, 0, 0.00000000000000000000e+00) (0, 0, 0.00000000000000000000e+00) (0, 0, 0.00000000000000000000e+00) (0, 0, 0.00000000000000000000e+00) (0, 0, 0.00000000000000000000e+00) (0, 0, 0.00000000000000000000e+00) (0, 0, 0.00000000000000000000e+00) (0, 0, 0.00000000000000000000e+00) (0, 0, 0.00000000000000000000e+00) (0, 0, 0.00000000000000000000e+00) (0, 0, 0.00000000000000000000e+00) (0, 0, 0.00000000000000000000e+00) (0, 0, 0.00000000000000000000e+00) (0, 0, 0.00000000000000000000e+00) (0, 0, 0.00000000000000000000e+00) (0, 0, 0.00000000000000000000e+00) (0, 0, 0.00000000000000000000e+00) (0, 0, 0.00000000000000000000e+00) (0, 0, 0.00000000000000000000e+00) (0, 0, 0.00000000000000000000e+00) (0, 0, 0.00000000000000000000e+00) (0, 0, 0.00000000000000000000e+00) (0, 0, 0.00000000000000000000e+00) (0, 0, 0.00000000000000000000e+00) (0, 0, 0.00000000000000000000e+00) (0, 0, 0.00000000000000000000e+00) (0, 0, 0.00000000000000000000e+00) (53, 5, 5.00000000000000000000e-01) (53, 5, 5.00000000000000000000e-01) (53, 5, 5.00000000000000000000e-01) (53, 5, 5.00000000000000000000e-01) (53, 5, 5.00000000000000000000e-01) (53, 5, 5.00000000000000000000e-01) (53, 5, 5.00000000000000000000e-01) (53, 5, 5.00000000000000000000e-01) (53, 5, 5.00000000000000000000e-01) (53, 5, 5.00000000000000000000e-01) (53, 5, 5.00000000000000000000e-01) (53, 5, 5.00000000000000000000e-01) (53, 5, 5.00000000000000000000e-01) (53, 5, 5.00000000000000000000e-01) (53, 5, 5.00000000000000000000e-01) (53, 5, 5.00000000000000000000e-01) (53, 5, 5.00000000000000000000e-01) (53, 5, 5.00000000000000000000e-01) (53, 5, 5.00000000000000000000e-01) (53, 5, 5.00000000000000000000e-01) (53, 5, 5.00000000000000000000e-01) (53, 5, 5.00000000000000000000e-01) (53, 5, 5.00000000000000000000e-01) (53, 5, 5.00000000000000000000e-01) (53, 5, 5.00000000000000000000e-01) (53, 5, 5.00000000000000000000e-01) (53, 5, 5.00000000000000000000e-01) (53, 5, 5.00000000000000000000e-01) (53, 5, 5.00000000000000000000e-01) (53, 5, 5.00000000000000000000e-01) (53, 5, 5.00000000000000000000e-01) (53, 5, 5.00000000000000000000e-01) (53, 5, 5.00000000000000000000e-01) (53, 5, 5.00000000000000000000e-01) (53, 5, 5.00000000000000000000e-01) (53, 5, 5.00000000000000000000e-01) (53, 5, 5.00000000000000000000e-01) (53, 5, 5.00000000000000000000e-01) (53, 5, 5.00000000000000000000e-01) (53, 5, 5.00000000000000000000e-01) (53, 5, 5.00000000000000000000e-01) (53, 5, 5.00000000000000000000e-01) (53, 5, 5.00000000000000000000e-01) (53, 5, 5.00000000000000000000e-01) (0, 5, 0.00000000000000000000e+00) (45, 5, 5.00000000000000000000e-01) (0, 5, 0.00000000000000000000e+00) 
connections (connected_to_neuron, weight)=(0, -2.00735721588134765625e+01) (1, 2.08049507141113281250e+01) (2, 1.30649971961975097656e+00) (3, 1.32559804916381835938e+01) (4, 3.14414978027343750000e-01) (5, -2.57035522460937500000e+01) (6, 3.64636154174804687500e+01) (7, 3.95690460205078125000e+01) (8, -4.29323673248291015625e+00) (9, 1.07832250595092773438e+01) (10, -1.47631359100341796875e+01) (11, 2.73075447082519531250e+01) (12, 2.44437503814697265625e+01) (13, 5.80368385314941406250e+01) (14, -4.83939170837402343750e+00) (15, -9.34245872497558593750e+00) (16, 6.45007133483886718750e+00) (17, 1.86924571990966796875e+01) (18, -3.95453910827636718750e+01) (19, 8.64021396636962890625e+00) (20, 5.56342658996582031250e+01) (21, -1.78492527008056640625e+01) (22, 3.10374660491943359375e+01) (23, -3.14061617851257324219e+00) (24, 4.06465959548950195312e+00) (25, -4.34846611022949218750e+01) (26, 2.83359680175781250000e+01) (27, 6.94576721191406250000e+01) (28, 2.53327392578125000000e+02) (29, -5.29337835311889648438e+00) (30, 2.71992626190185546875e+01) (31, -4.84749794006347656250e+00) (32, 4.79106979370117187500e+01) (33, 2.11033496856689453125e+01) (34, -2.11829376220703125000e+01) (35, 2.28636980056762695312e+00) (36, 2.56227073669433593750e+01) (37, 9.17245960235595703125e+00) (38, -4.30190811157226562500e+01) (39, 2.36673221588134765625e+01) (40, -1.92778358459472656250e+01) (41, -3.74448657035827636719e+00) (42, 1.74876289367675781250e+01) (43, 5.39483261108398437500e+01) (44, -8.42785930633544921875e+00) (45, -4.66246223449707031250e+00) (46, 3.37897644042968750000e+01) (47, 2.74216747283935546875e+01) (48, -1.67785263061523437500e+01) (49, 2.12177906036376953125e+01) (50, 3.70003008842468261719e+00) (51, 1.76111292839050292969e+00) (52, 3.16390722990036010742e-01) (0, 3.27092266082763671875e+00) (1, 9.94905710220336914062e-01) (2, 1.40230655670166015625e+00) (3, -9.02535974979400634766e-01) (4, 1.40833842754364013672e+00) (5, 6.02343857288360595703e-01) (6, -3.75719571113586425781e+00) (7, 2.56119942665100097656e+00) (8, 3.98402976989746093750e+00) (9, -3.37625455856323242188e+00) (10, -2.57662606239318847656e+00) (11, 1.19952821731567382812e+01) (12, 1.04732811450958251953e+00) (13, -2.55675649642944335938e+00) (14, 6.13432168960571289062e-01) (15, 5.92626523971557617188e+00) (16, -6.69265151023864746094e-01) (17, -3.60263824462890625000e-01) (18, -1.23903608322143554688e+00) (19, 1.20041828155517578125e+01) (20, 1.69422399997711181641e+00) (21, 6.92176723480224609375e+00) (22, -8.66177856922149658203e-01) (23, -1.01279675960540771484e+00) (24, -1.53111219406127929688e+00) (25, 2.47696304321289062500e+00) (26, -2.81816387176513671875e+00) (27, 5.23641204833984375000e+00) (28, 5.76011514663696289062e+00) (29, 1.06725776195526123047e+00) (30, -2.54403567314147949219e+00) (31, 5.43885850906372070312e+00) (32, 9.34338033199310302734e-01) (33, -1.11371648311614990234e+00) (34, -8.21351945400238037109e-01) (35, 6.32332468032836914062e+00) (36, 1.72178115844726562500e+01) (37, -9.62470149993896484375e+00) (38, 1.70244443416595458984e+00) (39, 9.72089290618896484375e+00) (40, 4.29202175140380859375e+00) (41, 1.08309936523437500000e+00) (42, -2.15591239929199218750e+00) (43, 7.65804231166839599609e-01) (44, 1.19629325866699218750e+01) (45, -3.60174989700317382812e+00) (46, -2.93250823020935058594e+00) (47, 1.27455482482910156250e+01) (48, 1.64359903335571289062e+00) (49, 2.94755411148071289062e+00) (50, 1.72805142402648925781e+00) (51, -2.23131632804870605469e+00) (52, 2.75682973861694335938e+00) (0, 6.64949941635131835938e+00) (1, -4.00545746088027954102e-01) (2, 1.05196876525878906250e+01) (3, -3.96136999130249023438e-01) (4, 5.00464737415313720703e-01) (5, -3.32878649234771728516e-01) (6, 7.65824913978576660156e-01) (7, 1.31644287109375000000e+01) (8, -2.60655403137207031250e+00) (9, 7.22928941249847412109e-01) (10, -1.20367705821990966797e+00) (11, 1.42996950149536132812e+01) (12, -6.50756788253784179688e+00) (13, 1.72073733806610107422e+00) (14, 6.24103403091430664062e+00) (15, 8.15069675445556640625e+00) (16, 1.15522778034210205078e+00) (17, 5.55452108383178710938e+00) (18, 8.17109489440917968750e+00) (19, -6.44366168975830078125e+00) (20, 6.30967712402343750000e+00) (21, -8.42449474334716796875e+00) (22, 1.06740942001342773438e+01) (23, 1.98719382286071777344e+00) (24, 3.43940048217773437500e+01) (25, 2.17432427406311035156e+00) (26, -4.40270519256591796875e+00) (27, 1.86229658126831054688e+00) (28, 1.06031293869018554688e+01) (29, -1.14960832595825195312e+01) (30, 1.01009588241577148438e+01) (31, -3.62066411972045898438e+00) (32, 9.86096763610839843750e+00) (33, 7.02306842803955078125e+00) (34, 2.97804236412048339844e+00) (35, -9.72314357757568359375e+00) (36, 1.32120847702026367188e+01) (37, 1.18059225380420684814e-01) (38, 1.93917965888977050781e+00) (39, 4.38035637140274047852e-01) (40, 4.20884227752685546875e+00) (41, 1.80655460357666015625e+01) (42, -4.72364377975463867188e+00) (43, 1.52127897739410400391e+00) (44, -1.71523571014404296875e+00) (45, 1.61335620880126953125e+01) (46, 2.95348858833312988281e+00) (47, 3.47922086715698242188e+00) (48, -7.31346726417541503906e-01) (49, 5.28559637069702148438e+00) (50, -1.58503067493438720703e+00) (51, 4.29435777664184570312e+00) (52, 1.37864446640014648438e+00) (0, 5.29205083847045898438e+00) (1, 9.45021212100982666016e-01) (2, -1.64160346984863281250e+00) (3, 3.77282309532165527344e+00) (4, 1.03521661758422851562e+01) (5, -4.37116241455078125000e+00) (6, 7.94490098953247070312e+00) (7, 6.06845378875732421875e-01) (8, 2.03580212593078613281e+00) (9, -3.49320983886718750000e+00) (10, 5.32192325592041015625e+00) (11, 5.69513416290283203125e+00) (12, 7.10152912139892578125e+00) (13, 1.01681661605834960938e+01) (14, -2.81131935119628906250e+00) (15, -2.49660181999206542969e+00) (16, 6.70898675918579101562e+00) (17, 1.86347663402557373047e+00) (18, -2.58740520477294921875e+00) (19, 2.62363576889038085938e+00) (20, -1.36618053913116455078e+00) (21, -2.29749321937561035156e+00) (22, 8.08554649353027343750e+00) (23, 2.96547269821166992188e+00) (24, 2.89725818634033203125e+01) (25, -1.34536549448966979980e-01) (26, 2.98008298873901367188e+00) (27, -1.54809653759002685547e-01) (28, 8.17980384826660156250e+00) (29, -2.37482730299234390259e-02) (30, 1.31985750198364257812e+01) (31, -1.54958410263061523438e+01) (32, -4.59795665740966796875e+00) (33, 5.84020280838012695312e+00) (34, 4.63796567916870117188e+00) (35, 1.05938434600830078125e-01) (36, -7.59111106395721435547e-01) (37, 1.23827142715454101562e+01) (38, -5.77003860473632812500e+00) (39, 9.63950729370117187500e+00) (40, 5.96255922317504882812e+00) (41, 1.68901431560516357422e+00) (42, 1.22059478759765625000e+01) (43, -8.05197620391845703125e+00) (44, 1.44541478157043457031e+00) (45, -7.46025860309600830078e-01) (46, 1.53659284114837646484e+00) (47, 4.18119716644287109375e+00) (48, 4.12275046110153198242e-01) (49, 5.27723371982574462891e-01) (50, 6.66427755355834960938e+00) (51, 7.49099314212799072266e-01) (52, 1.96298527717590332031e+00) (0, 1.00085430145263671875e+01) (1, -3.32994818687438964844e+00) (2, 1.46966094970703125000e+01) (3, -2.35313796997070312500e+00) (4, 1.17124748229980468750e+01) (5, -3.22155666351318359375e+00) (6, 1.14571928977966308594e+00) (7, 2.67124652862548828125e+00) (8, 1.82164669036865234375e+01) (9, -4.98978805541992187500e+00) (10, 1.53720731735229492188e+01) (11, -3.26747727394104003906e+00) (12, 2.52659344673156738281e+00) (13, 4.24299192428588867188e+00) (14, 1.50999546051025390625e+00) (15, -3.01444262266159057617e-01) (16, -1.49868893623352050781e+00) (17, 1.57043600082397460938e+01) (18, 9.64853446930646896362e-03) (19, -1.73737478256225585938e+00) (20, -6.59986972808837890625e-01) (21, 6.90027904510498046875e+00) (22, 4.73054742813110351562e+00) (23, -2.23106488585472106934e-01) (24, 1.90031111240386962891e+00) (25, -3.17140251398086547852e-01) (26, -3.45842808485031127930e-01) (27, 3.67448449134826660156e+00) (28, 7.63168001174926757812e+00) (29, 5.75880289077758789062e+00) (30, 4.81095123291015625000e+00) (31, -1.59051256179809570312e+01) (32, 1.81800436973571777344e+00) (33, -2.77953648567199707031e+00) (34, 1.64367542266845703125e+01) (35, -7.21328914165496826172e-01) (36, 2.03941416740417480469e+00) (37, -9.24394702911376953125e+00) (38, 6.09656906127929687500e+00) (39, 3.09723834991455078125e+01) (40, -4.36896514892578125000e+00) (41, 1.40496339797973632812e+01) (42, 5.57392263412475585938e+00) (43, -1.18468856811523437500e+00) (44, 8.90789794921875000000e+00) (45, 5.78787279129028320312e+00) (46, 4.19915676116943359375e-01) (47, -4.14750385284423828125e+00) (48, 4.59193922579288482666e-02) (49, 1.72416896820068359375e+01) (50, -6.06934165954589843750e+00) (51, 2.93845653533935546875e+00) (52, 2.04766678810119628906e+00) (0, 1.86054321289062500000e+02) (1, 1.78557739257812500000e+02) (2, 2.58877429962158203125e+01) (3, -7.29278747558593750000e+02) (4, 1.08449714660644531250e+02) (5, 1.50000000000000000000e+03) (6, 2.08210678100585937500e+01) (7, -8.52518798828125000000e+02) (8, 8.19322204589843750000e+01) (9, 6.90160583496093750000e+02) (10, 1.18221084594726562500e+02) (11, -2.67830688476562500000e+02) (12, -4.21808532714843750000e+02) (13, 4.72664764404296875000e+02) (14, 3.85156059265136718750e+01) (15, 4.24231300354003906250e+01) (16, 2.39423965454101562500e+02) (17, 8.17683532714843750000e+02) (18, 6.06524925231933593750e+01) (19, -4.91187652587890625000e+02) (20, 1.76406478881835937500e+02) (21, 4.03752807617187500000e+02) (22, 3.57923622131347656250e+01) (23, -1.73438934326171875000e+02) (24, -2.00070500373840332031e+00) (25, 4.60582763671875000000e+02) (26, 4.22219970703125000000e+02) (27, -8.16290664672851562500e+01) (28, -3.28910339355468750000e+02) (29, 8.12336486816406250000e+02) (30, 7.76745910644531250000e+01) (31, 1.93068180084228515625e+01) (32, 4.47999603271484375000e+02) (33, 4.18453264236450195312e+00) (34, 4.03146972656250000000e+01) (35, -3.70343551635742187500e+01) (36, -4.76986770629882812500e+01) (37, 6.65257324218750000000e+02) (38, 3.60796447753906250000e+02) (39, -5.46829040527343750000e+02) (40, 3.74357635498046875000e+02) (41, 2.33506774902343750000e+02) (42, 2.04159507751464843750e+01) (43, -2.86683105468750000000e+02) (44, 2.39479568481445312500e+02) (45, 1.10929638671875000000e+03) (46, 3.31219177246093750000e+01) (47, -5.89040649414062500000e+02) (48, 4.47545166015625000000e+01) (49, 1.39264953613281250000e+02) (50, 9.79641479492187500000e+02) (51, -4.44758636474609375000e+02) (52, -3.41264963150024414062e-01) (0, 1.04836711883544921875e+01) (1, -2.03162307739257812500e+02) (2, 7.90600036621093750000e+02) (3, 3.08551239013671875000e+02) (4, -9.85600204467773437500e+01) (5, 2.59431228637695312500e+01) (6, 3.33763305664062500000e+02) (7, 2.44852813720703125000e+02) (8, -9.75913619995117187500e+01) (9, 1.77883243560791015625e+01) (10, 1.87789703369140625000e+02) (11, 5.98516235351562500000e+02) (12, -6.61691970825195312500e+01) (13, 1.16493354797363281250e+02) (14, 6.62505111694335937500e+01) (15, 1.35642929077148437500e+02) (16, -1.03018287658691406250e+02) (17, 1.77768077850341796875e+01) (18, 2.67719238281250000000e+02) (19, 1.23493621826171875000e+02) (20, 7.14211959838867187500e+01) (21, 2.53378658294677734375e+01) (22, 1.98516586303710937500e+02) (23, -7.87053442001342773438e+00) (24, -8.34135055541992187500e+00) (25, 1.93370354175567626953e+00) (26, 2.97298614501953125000e+02) (27, 5.32555053710937500000e+02) (28, 7.02896057128906250000e+02) (29, 2.45459308624267578125e+01) (30, 1.43856239318847656250e+01) (31, -3.38378486633300781250e+01) (32, -9.97501220703125000000e+01) (33, 4.11113403320312500000e+02) (34, 2.47014999389648437500e+02) (35, 1.45840959548950195312e+01) (36, 8.58831329345703125000e+01) (37, 6.28254821777343750000e+02) (38, -4.90443438291549682617e-01) (39, -1.56962261199951171875e+01) (40, 9.51919174194335937500e+01) (41, 3.12015106201171875000e+02) (42, -3.09671447753906250000e+02) (43, 1.02086135864257812500e+02) (44, -9.39459762573242187500e+01) (45, 6.71383972167968750000e+01) (46, 2.11028396606445312500e+02) (47, 1.35005844116210937500e+02) (48, 1.38925628662109375000e+02) (49, 2.14274093627929687500e+02) (50, -7.11151885986328125000e+01) (51, 1.88593692779541015625e+01) (52, -2.00689816474914550781e+00) (0, 4.07348585128784179688e+00) (1, 1.91773796081542968750e+00) (2, 1.85148274898529052734e+00) (3, -3.39745497703552246094e+00) (4, 2.99924230575561523438e+00) (5, 3.96410167217254638672e-01) (6, 1.45637273788452148438e+00) (7, -3.99577468633651733398e-01) (8, 4.49502515792846679688e+00) (9, 2.33335161209106445312e+00) (10, -7.92006373405456542969e-01) (11, -1.14717578887939453125e+00) (12, 2.82244205474853515625e+00) (13, 6.89652740955352783203e-01) (14, -4.86349761486053466797e-01) (15, 4.57018345594406127930e-01) (16, 8.83954143524169921875e+00) (17, -7.32458651065826416016e-01) (18, 2.44237685203552246094e+00) (19, -1.28362381458282470703e+00) (20, 2.04541492462158203125e+00) (21, 9.69430744647979736328e-01) (22, -1.63209903240203857422e+00) (23, 2.70273065567016601562e+00) (24, 1.23646974563598632812e+00) (25, -1.28816628456115722656e+00) (26, 1.40520942211151123047e+00) (27, 3.46522784233093261719e+00) (28, 1.44805736541748046875e+01) (29, 1.12492179870605468750e+00) (30, 1.93116158246994018555e-01) (31, -1.19953382015228271484e+00) (32, -5.51106929779052734375e-01) (33, 3.35993552207946777344e+00) (34, -2.39470696449279785156e+00) (35, 5.91991758346557617188e+00) (36, -2.43529105186462402344e+00) (37, 2.74288964271545410156e+00) (38, 1.60176491737365722656e+00) (39, -6.24425634741783142090e-02) (40, 4.99024391174316406250e+00) (41, 1.99627265334129333496e-01) (42, -4.06021088361740112305e-01) (43, 2.84712791442871093750e+00) (44, 8.44286561012268066406e-01) (45, 1.15937983989715576172e+00) (46, 3.37541669607162475586e-01) (47, 1.98748672008514404297e+00) (48, 6.81589305400848388672e-01) (49, -1.59491170197725296021e-02) (50, 2.58725881576538085938e+00) (51, 1.63559150695800781250e+00) (52, 2.71513986587524414062e+00) (0, 8.54609203338623046875e+00) (1, -2.73967313766479492188e+00) (2, 1.37321817874908447266e+00) (3, 2.66269302368164062500e+00) (4, 1.27909350395202636719e+00) (5, -3.22596287727355957031e+00) (6, 5.64793443679809570312e+00) (7, 2.65724897384643554688e+00) (8, -1.97250115871429443359e+00) (9, -1.71720612049102783203e+00) (10, 2.25704975128173828125e+01) (11, 2.34537672996520996094e+00) (12, 1.57870035171508789062e+01) (13, -2.02388906478881835938e+00) (14, 2.49582653045654296875e+01) (15, -3.57845735549926757812e+00) (16, 4.04727506637573242188e+00) (17, -8.99561691284179687500e+00) (18, 3.21066522598266601562e+00) (19, 2.48303775787353515625e+01) (20, 6.72281837463378906250e+00) (21, 2.52243328094482421875e+00) (22, -1.89772186279296875000e+01) (23, 8.91580581665039062500e+00) (24, -8.48260998725891113281e-01) (25, 2.25190448760986328125e+01) (26, -3.38489294052124023438e-01) (27, -6.93098306655883789062e+00) (28, 1.40449151396751403809e-01) (29, 3.06349420547485351562e+00) (30, 3.15079897642135620117e-01) (31, 3.11093497276306152344e+00) (32, -2.13972148895263671875e+01) (33, 6.94216251373291015625e-01) (34, 7.18088245391845703125e+00) (35, 2.19412612915039062500e+01) (36, -2.43085193634033203125e+01) (37, 1.13036737442016601562e+01) (38, 1.15773515701293945312e+01) (39, -9.40570354461669921875e-01) (40, 1.77087068557739257812e+00) (41, 1.45566201210021972656e+00) (42, 9.65444207191467285156e-01) (43, 1.81865882873535156250e+00) (44, 7.10133171081542968750e+00) (45, -3.66182065010070800781e+00) (46, -3.85079717636108398438e+00) (47, 1.45484590530395507812e+01) (48, -3.53719234466552734375e+00) (49, 1.52198362350463867188e+01) (50, 2.34961733222007751465e-01) (51, 1.16026532649993896484e+00) (52, 2.16118168830871582031e+00) (0, -1.53193795680999755859e+00) (1, 4.80822324752807617188e+00) (2, -7.28581285476684570312e+00) (3, 2.38245201110839843750e+01) (4, 1.24231863021850585938e+00) (5, -8.15648853778839111328e-01) (6, 5.32125854492187500000e+00) (7, 5.38431465625762939453e-01) (8, 5.39117288589477539062e+00) (9, 1.94144296646118164062e+00) (10, -6.33691930770874023438e+00) (11, 2.43863296508789062500e+00) (12, 1.03821201324462890625e+01) (13, 2.24802464246749877930e-01) (14, 1.09832782745361328125e+01) (15, -7.55901670455932617188e+00) (16, 1.06915891170501708984e+00) (17, -1.08726501464843750000e+00) (18, 6.72502946853637695312e+00) (19, 4.52666580677032470703e-01) (20, -1.55239009857177734375e+00) (21, -2.08475947380065917969e+00) (22, 1.13615665435791015625e+01) (23, 3.02856206893920898438e+00) (24, -6.57897663116455078125e+00) (25, 1.04420738220214843750e+01) (26, -3.25637173652648925781e+00) (27, -4.11961585283279418945e-01) (28, 3.68300271034240722656e+00) (29, -2.20099830627441406250e+00) (30, 1.14366436004638671875e+00) (31, 6.81998729705810546875e+00) (32, -4.02929306030273437500e+00) (33, 2.09718370437622070312e+00) (34, -2.11331415176391601562e+00) (35, 1.29775228500366210938e+01) (36, -4.33767700195312500000e+00) (37, -6.41894340515136718750e-01) (38, 6.66330575942993164062e+00) (39, 3.79947900772094726562e+00) (40, -1.12664854526519775391e+00) (41, -4.33525371551513671875e+00) (42, 3.60480451583862304688e+00) (43, 5.57708644866943359375e+00) (44, -3.14988422393798828125e+00) (45, -3.98482978343963623047e-01) (46, 3.10232772827148437500e+01) (47, -1.74971723556518554688e+00) (48, 4.78508911132812500000e+01) (49, 2.52864384651184082031e+00) (50, 2.44849872589111328125e+00) (51, -7.07515382766723632812e+00) (52, 2.14767313003540039062e+00) (0, 2.72641658782958984375e+00) (1, 4.69956874847412109375e+00) (2, -6.20343828201293945312e+00) (3, 6.03525280952453613281e-01) (4, -8.95162403583526611328e-01) (5, -1.47726516723632812500e+01) (6, 1.43958711624145507812e+01) (7, 2.93688259124755859375e+01) (8, 2.01070594787597656250e+01) (9, 4.71461564302444458008e-01) (10, -8.74515342712402343750e+00) (11, 2.60519266128540039062e+00) (12, 4.06225776672363281250e+00) (13, 1.76485955715179443359e+00) (14, -8.55020904541015625000e+00) (15, 3.44760847091674804688e+00) (16, 1.67978172302246093750e+01) (17, -1.34981796145439147949e-01) (18, 6.15279138088226318359e-01) (19, -1.87011754512786865234e+00) (20, -9.74480062723159790039e-02) (21, -2.38115715980529785156e+00) (22, 1.01040639877319335938e+01) (23, 2.39017176628112792969e+00) (24, -9.04862880706787109375e+00) (25, 5.35858154296875000000e+00) (26, 6.93669986724853515625e+00) (27, 1.08051728457212448120e-02) (28, -4.21850681304931640625e+00) (29, 8.66574668884277343750e+00) (30, 9.89634454250335693359e-01) (31, 5.85295796394348144531e-01) (32, 1.06168041229248046875e+01) (33, -5.37048721313476562500e+00) (34, 8.47518146038055419922e-01) (35, 4.13210296630859375000e+00) (36, -3.34538412094116210938e+00) (37, 6.54306793212890625000e+00) (38, -3.45925498008728027344e+00) (39, 1.46718196868896484375e+01) (40, 9.91734695434570312500e+00) (41, 2.90372259914875030518e-02) (42, -9.75438117980957031250e+00) (43, 2.74184060096740722656e+00) (44, 1.48844182491302490234e+00) (45, -1.44249305725097656250e+01) (46, 3.15849035978317260742e-01) (47, 1.67278747558593750000e+01) (48, 1.25004730224609375000e+01) (49, 1.12703216075897216797e+00) (50, 1.67785894870758056641e+00) (51, -2.41295313835144042969e+00) (52, 2.03597235679626464844e+00) (0, 2.51978611946105957031e+00) (1, 6.18939399719238281250e+00) (2, 5.75058746337890625000e+01) (3, -1.57679290771484375000e+01) (4, 2.71354794502258300781e+00) (5, 6.05160617828369140625e+00) (6, 6.27766609191894531250e+00) (7, -1.77620220184326171875e+01) (8, -4.13768005371093750000e+00) (9, 1.02050268650054931641e+00) (10, 6.01991128921508789062e+00) (11, 2.46011114120483398438e+00) (12, 6.75703859329223632812e+00) (13, -3.62334060668945312500e+00) (14, 3.69287228584289550781e+00) (15, 1.69006109237670898438e+00) (16, -2.41946864128112792969e+00) (17, 5.94467341899871826172e-01) (18, -1.43054211139678955078e+00) (19, 1.29318819046020507812e+01) (20, -4.80425882339477539062e+00) (21, 1.66857509613037109375e+01) (22, -1.86610609292984008789e-01) (23, 1.06011772155761718750e+00) (24, -8.96721363067626953125e+00) (25, 4.26490306854248046875e+00) (26, -1.02208824157714843750e+01) (27, 1.21514921188354492188e+01) (28, 1.50800065994262695312e+01) (29, 5.21550476551055908203e-01) (30, -4.78709554672241210938e+00) (31, 1.12629737854003906250e+01) (32, 1.01032047271728515625e+01) (33, -5.36372661590576171875e+00) (34, 4.94382953643798828125e+00) (35, 8.27841460704803466797e-01) (36, 5.38297033309936523438e+00) (37, 5.95562839508056640625e+00) (38, -7.24092149734497070312e+00) (39, 5.68793582916259765625e+00) (40, 8.96104907989501953125e+00) (41, 1.51399450302124023438e+01) (42, -4.32754904031753540039e-01) (43, -6.13356637954711914062e+00) (44, -1.83324203491210937500e+01) (45, 2.66590251922607421875e+01) (46, -2.15370488166809082031e+00) (47, 2.69688549041748046875e+01) (48, -1.13010435104370117188e+01) (49, -1.16726374253630638123e-02) (50, 2.23970437049865722656e+00) (51, 5.79936456680297851562e+00) (52, 2.04232740402221679688e+00) (0, 5.07004470825195312500e+01) (1, 1.31760225296020507812e+01) (2, -1.77094402313232421875e+01) (3, -4.77756786346435546875e+00) (4, 6.22780189514160156250e+01) (5, -1.28557398915290832520e-01) (6, 3.15583648681640625000e+01) (7, -4.80444869995117187500e+01) (8, 5.63261866569519042969e-01) (9, -4.50160741806030273438e+00) (10, 8.62067604064941406250e+00) (11, 3.73646140098571777344e+00) (12, 3.67184638977050781250e+01) (13, 1.16199188232421875000e+01) (14, -2.13522171974182128906e+00) (15, -9.17639923095703125000e+00) (16, 9.31997394561767578125e+00) (17, -9.98521518707275390625e+00) (18, -2.78942406177520751953e-01) (19, 3.53564758300781250000e+01) (20, -3.42005753517150878906e+00) (21, 1.31006088256835937500e+01) (22, -6.69482374191284179688e+00) (23, 1.94020450115203857422e+00) (24, -6.23116445541381835938e+00) (25, 3.47018699645996093750e+01) (26, 3.59084777832031250000e+01) (27, -1.44960556030273437500e+01) (28, -1.21079301834106445312e+01) (29, 4.13133049011230468750e+01) (30, 4.96545410156250000000e+00) (31, -4.91016101837158203125e+00) (32, 7.47175312042236328125e+00) (33, 4.83746814727783203125e+00) (34, -1.88370478153228759766e+00) (35, -1.68884336948394775391e+00) (36, 5.98528814315795898438e+00) (37, -7.14008426666259765625e+00) (38, 1.85170382261276245117e-01) (39, 3.08799953460693359375e+01) (40, 1.92536563873291015625e+01) (41, 4.41606101989746093750e+01) (42, -1.76565361022949218750e+00) (43, -1.47935972213745117188e+01) (44, 8.34315776824951171875e+00) (45, 5.55075988769531250000e+01) (46, -3.75172519683837890625e+00) (47, -3.74843573570251464844e+00) (48, 2.73663735389709472656e+00) (49, 8.33836555480957031250e+00) (50, -4.18691520690917968750e+01) (51, 7.90076160430908203125e+00) (52, 2.03038954734802246094e+00) (0, 1.49869556427001953125e+01) (1, -7.26183795928955078125e+00) (2, -1.67620813846588134766e+00) (3, 2.30331921577453613281e+00) (4, 2.55218720436096191406e+00) (5, -3.18086242675781250000e+00) (6, -2.13721346855163574219e+00) (7, 7.12173175811767578125e+00) (8, 2.00954771041870117188e+00) (9, -3.48555564880371093750e-01) (10, 7.93463039398193359375e+00) (11, -3.40853428840637207031e+00) (12, 5.89981853961944580078e-01) (13, -4.79379892349243164062e+00) (14, -2.62213218957185745239e-02) (15, 7.97831392288208007812e+00) (16, -6.16845178604125976562e+00) (17, -4.76354885101318359375e+00) (18, 8.35876083374023437500e+00) (19, 1.65714073181152343750e+01) (20, -9.52354240417480468750e+00) (21, 9.30710601806640625000e+00) (22, 3.97708535194396972656e-01) (23, 1.73787188529968261719e+00) (24, -9.69579100608825683594e-01) (25, 1.37065486907958984375e+01) (26, -1.11403322219848632812e+01) (27, -4.78301858901977539062e+00) (28, 8.06584644317626953125e+00) (29, -1.64975147247314453125e+01) (30, 2.10246825218200683594e+00) (31, 7.32945537567138671875e+00) (32, 9.05510807037353515625e+00) (33, -3.69918751716613769531e+00) (34, 3.43297767639160156250e+00) (35, -2.43638896942138671875e+00) (36, 1.08658819198608398438e+01) (37, 8.30733871459960937500e+00) (38, -5.22624826431274414062e+00) (39, -3.04712390899658203125e+00) (40, 2.09604859352111816406e+00) (41, -1.98703022003173828125e+01) (42, -2.55660980939865112305e-01) (43, 3.04623737335205078125e+01) (44, 5.03999948501586914062e+00) (45, 1.26405620574951171875e+01) (46, -1.83187389373779296875e+00) (47, -5.24054813385009765625e+00) (48, -2.34739089012145996094e+00) (49, 4.12951797246932983398e-01) (50, 1.99361652135848999023e-01) (51, 2.14552593231201171875e+00) (52, 2.75507068634033203125e+00) (0, -6.52788877487182617188e+00) (1, 4.99194478988647460938e+00) (2, 5.60462331771850585938e+00) (3, 7.96819478273391723633e-02) (4, -5.67978048324584960938e+00) (5, 1.51718759536743164062e+01) (6, 1.01949987411499023438e+01) (7, -2.07424712181091308594e+00) (8, -1.44374895095825195312e+01) (9, 6.89308834075927734375e+00) (10, 4.82932281494140625000e+00) (11, 2.47351574897766113281e+00) (12, -2.78736639022827148438e+00) (13, 2.72456836700439453125e+00) (14, 1.56272339820861816406e+00) (15, 5.80880343914031982422e-01) (16, -6.80895268917083740234e-01) (17, 1.23128414154052734375e+00) (18, 9.55114662647247314453e-01) (19, 2.09534215927124023438e+00) (20, 2.85157036781311035156e+00) (21, 1.26573383808135986328e+00) (22, 9.08826351165771484375e+00) (23, -2.53022265434265136719e+00) (24, -2.53866767883300781250e+00) (25, 2.49214625358581542969e+00) (26, 5.98116207122802734375e+00) (27, -8.06601166725158691406e-01) (28, 1.14909672737121582031e+00) (29, -5.92704105377197265625e+00) (30, 2.84999752044677734375e+00) (31, 4.27528285980224609375e+00) (32, 1.74100697040557861328e+00) (33, 1.13388836383819580078e+00) (34, 2.43668532371520996094e+00) (35, -1.78216719627380371094e+00) (36, 1.47331500053405761719e+00) (37, 9.00364339351654052734e-01) (38, 9.59982812404632568359e-01) (39, 1.31602406501770019531e+00) (40, -2.10123848915100097656e+00) (41, 6.81530177593231201172e-01) (42, 1.57073955535888671875e+01) (43, -1.82438004016876220703e+00) (44, 6.41445398330688476562e+00) (45, -5.96884298324584960938e+00) (46, 2.33752651214599609375e+01) (47, -9.56659793853759765625e-01) (48, -3.68446826934814453125e+00) (49, 9.91272747516632080078e-01) (50, 1.32477140426635742188e+01) (51, 4.36742156744003295898e-01) (52, 2.24598121643066406250e+00) (0, 1.60766391754150390625e+01) (1, -9.62897872924804687500e+00) (2, 5.48297882080078125000e-01) (3, 5.27425432205200195312e+00) (4, 3.26176333427429199219e+00) (5, 1.62792110443115234375e+01) (6, -2.91956710815429687500e+00) (7, -2.75983405113220214844e+00) (8, 3.12949991226196289062e+00) (9, -3.69165635108947753906e+00) (10, 2.66941976547241210938e+00) (11, 2.18565726280212402344e+00) (12, 1.97798657417297363281e+00) (13, 6.82757079601287841797e-01) (14, 4.37086194753646850586e-01) (15, 1.49335789680480957031e+00) (16, 8.41076850891113281250e+00) (17, 4.29088830947875976562e+00) (18, 8.90673696994781494141e-01) (19, -8.13604450225830078125e+00) (20, -2.23776841163635253906e+00) (21, 5.56736040115356445312e+00) (22, -6.05829048156738281250e+00) (23, 1.76863706111907958984e+00) (24, -9.58328533172607421875e+00) (25, 1.21863679885864257812e+01) (26, 3.10205307006835937500e+01) (27, -2.07827639579772949219e+00) (28, -3.06551289558410644531e+00) (29, 2.09555282592773437500e+01) (30, 7.38817358016967773438e+00) (31, -5.46488809585571289062e+00) (32, 3.09715795516967773438e+00) (33, 1.39893114566802978516e+00) (34, -4.47596645355224609375e+00) (35, 1.45563554763793945312e+01) (36, 1.49036145210266113281e+00) (37, 1.21451818943023681641e+00) (38, 6.36021566390991210938e+00) (39, -5.13788223266601562500e+00) (40, 3.04675364494323730469e+00) (41, -5.03954982757568359375e+00) (42, 1.76553452014923095703e+00) (43, 2.96371626853942871094e+00) (44, 4.40931797027587890625e+00) (45, -2.54087543487548828125e+00) (46, -1.91305816173553466797e+00) (47, 4.77546596527099609375e+00) (48, 2.27366185188293457031e+00) (49, 7.95712471008300781250e-01) (50, -9.44510364532470703125e+00) (51, 8.47233676910400390625e+00) (52, 2.62991952896118164062e+00) (0, 2.95380798339843750000e+02) (1, -1.94218032836914062500e+02) (2, 6.87320983886718750000e+02) (3, 6.81074462890625000000e+02) (4, -1.50000000000000000000e+03) (5, 1.22488861083984375000e+01) (6, 9.87453491210937500000e+02) (7, 1.50000000000000000000e+03) (8, 4.65915985107421875000e+01) (9, 3.68339294433593750000e+02) (10, 3.84838928222656250000e+02) (11, -4.14779434204101562500e+01) (12, 1.91895416259765625000e+02) (13, 1.11337913513183593750e+02) (14, 8.41048660278320312500e+01) (15, 1.11706352233886718750e+02) (16, 9.18039703369140625000e+01) (17, 5.92219400405883789062e+00) (18, 7.11494064331054687500e+01) (19, 6.41907775878906250000e+02) (20, -4.60792968750000000000e+02) (21, 6.75990112304687500000e+02) (22, 8.90012084960937500000e+02) (23, 6.60707885742187500000e+02) (24, -3.64065589904785156250e+01) (25, 1.24033594131469726562e+00) (26, 5.15230590820312500000e+02) (27, 1.47841766357421875000e+02) (28, 3.76233795166015625000e+02) (29, 1.51243713378906250000e+02) (30, 5.73638343811035156250e+01) (31, 1.11101196289062500000e+02) (32, -1.65900741577148437500e+02) (33, 4.23500427246093750000e+02) (34, 1.18120559692382812500e+02) (35, 2.80741760253906250000e+02) (36, 2.43610061645507812500e+02) (37, 8.97470779418945312500e+01) (38, 3.37462615966796875000e+02) (39, 2.87387514114379882812e+00) (40, 6.33547554016113281250e+01) (41, 1.24877920150756835938e+01) (42, 1.44586990356445312500e+02) (43, 1.02440849304199218750e+02) (44, -2.43155479431152343750e+01) (45, 9.88488464355468750000e+02) (46, 8.87055969238281250000e+00) (47, 8.92743713378906250000e+02) (48, 1.24786575317382812500e+02) (49, 2.77486419677734375000e+02) (50, -8.63880462646484375000e+01) (51, 2.48392852783203125000e+02) (52, -4.42555923461914062500e+01) (0, -4.17417812347412109375e+00) (1, -2.93069529533386230469e+00) (2, 5.36314535140991210938e+00) (3, 8.08598613739013671875e+00) (4, -1.38902783393859863281e+00) (5, 1.88479900360107421875e+00) (6, 9.19006252288818359375e+00) (7, -6.89052104949951171875e+00) (8, 1.02994794845581054688e+01) (9, -5.82404375076293945312e+00) (10, 5.47807395458221435547e-01) (11, 2.17305994033813476562e+00) (12, 1.08477592468261718750e+00) (13, -1.07066023349761962891e+00) (14, 4.37627887725830078125e+00) (15, -7.52459526062011718750e-01) (16, 4.43252754211425781250e+00) (17, 1.07758355140686035156e+00) (18, -4.43987321853637695312e+00) (19, 2.44309878349304199219e+00) (20, 9.75648975372314453125e+00) (21, 6.79035472869873046875e+00) (22, -2.96911090612411499023e-01) (23, -8.41872310638427734375e+00) (24, -9.57463645935058593750e+00) (25, 6.89802408218383789062e+00) (26, 2.35386419296264648438e+00) (27, -3.61301124095916748047e-01) (28, 1.07787618637084960938e+01) (29, -5.84810209274291992188e+00) (30, 6.80943202972412109375e+00) (31, -2.22397065162658691406e+00) (32, -2.70418953895568847656e+00) (33, 2.24178344011306762695e-01) (34, -3.62134188413619995117e-01) (35, 1.29264936447143554688e+01) (36, 1.42298259735107421875e+01) (37, 9.11673545837402343750e+00) (38, -3.47867870330810546875e+00) (39, -2.12431645393371582031e+00) (40, -1.35263786315917968750e+01) (41, -1.91994106769561767578e+00) (42, 4.11860322952270507812e+00) (43, 7.54261445999145507812e+00) (44, 9.28685069084167480469e-01) (45, -2.33015561103820800781e+00) (46, 1.86040878295898437500e+00) (47, 4.69030171632766723633e-01) (48, 7.70333957672119140625e+00) (49, 1.33612990379333496094e+00) (50, -5.93508183956146240234e-01) (51, -8.42391014099121093750e-01) (52, 3.04420566558837890625e+00) (0, 2.60721254348754882812e+00) (1, -3.01593208312988281250e+00) (2, 2.29955625534057617188e+00) (3, 4.91957044601440429688e+00) (4, 1.96635329723358154297e+00) (5, 6.63675212860107421875e+00) (6, 1.06233513355255126953e+00) (7, -1.96798121929168701172e+00) (8, 4.03321599960327148438e+00) (9, -3.28448724746704101562e+00) (10, 8.99029159545898437500e+00) (11, 1.63172018527984619141e+00) (12, 1.68209135532379150391e+00) (13, 1.31096100807189941406e+00) (14, 2.35874032974243164062e+00) (15, 2.02714383602142333984e-01) (16, 2.56059551239013671875e+00) (17, 9.86330866813659667969e-01) (18, 5.27876329421997070312e+00) (19, -2.85301595926284790039e-01) (20, -1.38740316033363342285e-01) (21, -3.81046473979949951172e-01) (22, 1.01322710514068603516e+00) (23, 2.98346543312072753906e+00) (24, 1.18126082420349121094e+00) (25, -2.26171565055847167969e+00) (26, 1.76933574676513671875e+00) (27, 5.87292766571044921875e+00) (28, 1.29748144149780273438e+01) (29, -1.32315719127655029297e+00) (30, -3.73404264450073242188e-01) (31, 4.57802581787109375000e+00) (32, 1.53761634826660156250e+01) (33, 2.08997035026550292969e+00) (34, -3.62891256809234619141e-01) (35, -2.99973160028457641602e-01) (36, 1.58227806091308593750e+01) (37, 2.15251731872558593750e+00) (38, 4.95189502835273742676e-02) (39, -1.07226312160491943359e+00) (40, 1.07394142150878906250e+01) (41, -6.14035546779632568359e-01) (42, 3.18700766563415527344e+00) (43, -1.19873511791229248047e+00) (44, 4.89088392257690429688e+00) (45, -3.39815640449523925781e+00) (46, 2.57530379295349121094e+00) (47, 7.78628349304199218750e-01) (48, 2.66932511329650878906e+00) (49, -5.05653476715087890625e+00) (50, 3.13282680511474609375e+00) (51, 2.09223961830139160156e+00) (52, 2.28281497955322265625e+00) (0, 1.42863556742668151855e-01) (1, -3.34401035308837890625e+00) (2, 1.66991579532623291016e+00) (3, 5.71456766128540039062e+00) (4, -5.70968329906463623047e-01) (5, 3.98989772796630859375e+00) (6, 5.62772655487060546875e+00) (7, -2.01618170738220214844e+00) (8, 7.50806152820587158203e-01) (9, -3.22170662879943847656e+00) (10, 6.75078272819519042969e-01) (11, 5.02637290954589843750e+00) (12, -2.43479156494140625000e+00) (13, 3.30729722976684570312e+00) (14, 3.42456907033920288086e-01) (15, 1.17554783821105957031e+00) (16, -4.27074193954467773438e+00) (17, 4.37336015701293945312e+00) (18, -3.94276499748229980469e-01) (19, 3.22847962379455566406e-01) (20, -1.04673373699188232422e+00) (21, 1.67575275897979736328e+00) (22, -3.22826385498046875000e-01) (23, 2.69228124618530273438e+00) (24, 5.99508762359619140625e+00) (25, 1.17769432067871093750e+00) (26, 7.75642442703247070312e+00) (27, -3.46509671211242675781e+00) (28, -4.56010293960571289062e+00) (29, 2.80381894111633300781e+00) (30, 7.75348043441772460938e+00) (31, 5.29182367026805877686e-02) (32, -2.05276980996131896973e-01) (33, 1.64867699146270751953e+00) (34, 2.33227133750915527344e+00) (35, -2.21352052688598632812e+00) (36, 2.51522850990295410156e+00) (37, -5.42418432235717773438e+00) (38, 3.05602741241455078125e+00) (39, 4.52730655670166015625e+00) (40, 3.78163290023803710938e+00) (41, 6.36650896072387695312e+00) (42, -7.27698945999145507812e+00) (43, 1.64450883865356445312e+00) (44, -4.08856272697448730469e-01) (45, -1.43652498722076416016e+00) (46, -2.24663242697715759277e-01) (47, 6.15231895446777343750e+00) (48, -3.11846804618835449219e+00) (49, 1.47238373756408691406e+00) (50, 3.84513556957244873047e-01) (51, 4.82513761520385742188e+00) (52, 2.65635704994201660156e+00) (0, 1.06124222278594970703e+00) (1, 1.35193645954132080078e+00) (2, -8.59365582466125488281e-01) (3, -7.51181542873382568359e-01) (4, -5.52946567535400390625e-01) (5, 8.18746507167816162109e-01) (6, 3.49923968315124511719e-01) (7, -4.82928812503814697266e-01) (8, -8.93946960568428039551e-02) (9, 3.36899250745773315430e-01) (10, 6.30036175251007080078e-01) (11, -4.77624714374542236328e-01) (12, -2.14418187737464904785e-01) (13, 4.62415158748626708984e-01) (14, -4.08944368362426757812e-01) (15, 6.55596256256103515625e-01) (16, 4.26938891410827636719e-01) (17, 9.34297919273376464844e-01) (18, -5.47840520739555358887e-02) (19, -1.87814429402351379395e-01) (20, -6.78717195987701416016e-01) (21, -6.39878749847412109375e-01) (22, -1.76479744911193847656e+00) (23, 1.75069403648376464844e+00) (24, -3.77881026268005371094e+00) (25, 8.62496089935302734375e+00) (26, -5.76074552536010742188e+00) (27, -3.14347314834594726562e+00) (28, 3.33633804321289062500e+00) (29, -1.53600752353668212891e+00) (30, -2.26315990090370178223e-01) (31, 1.55379223823547363281e+00) (32, 1.48667657375335693359e+00) (33, 7.85722255706787109375e-01) (34, 7.40394890308380126953e-01) (35, -1.24500679969787597656e+00) (36, -4.21311752870678901672e-03) (37, 6.83419048786163330078e-01) (38, -7.44600594043731689453e-01) (39, -4.01769399642944335938e-01) (40, 5.09088218212127685547e-01) (41, 1.20503211021423339844e+00) (42, -1.68530702590942382812e-01) (43, -3.44833672046661376953e-01) (44, -2.17553281784057617188e+00) (45, 2.19344988465309143066e-01) (46, -3.28984409570693969727e-02) (47, 1.80633568763732910156e+00) (48, 1.23115666210651397705e-01) (49, -1.86050713062286376953e-01) (50, 8.72329249978065490723e-02) (51, -5.96116762608289718628e-03) (52, 3.49370217323303222656e+00) (0, 7.86268091201782226562e+00) (1, -3.69960808753967285156e+00) (2, -9.07348036766052246094e-01) (3, 1.82892608642578125000e+00) (4, 1.66484045982360839844e+00) (5, 2.94394087791442871094e+00) (6, -6.43370246887207031250e+00) (7, 4.40120172500610351562e+00) (8, -7.69337034225463867188e+00) (9, 6.83682644739747047424e-03) (10, -1.62753060460090637207e-01) (11, 1.65631790161132812500e+01) (12, 1.96382296085357666016e+00) (13, -1.41785836219787597656e+00) (14, 1.84077775478363037109e+00) (15, 2.38341403007507324219e+00) (16, -4.49486923217773437500e+00) (17, 1.32139329910278320312e+01) (18, -9.19851970672607421875e+00) (19, 9.57831001281738281250e+00) (20, 9.83592808246612548828e-01) (21, 2.26758537292480468750e+01) (22, 1.60943806171417236328e+00) (23, -4.94476747512817382812e+00) (24, 7.25493574142456054688e+00) (25, 8.62217044830322265625e+00) (26, 2.11977291107177734375e+00) (27, -2.34170589447021484375e+01) (28, -9.08506488800048828125e+00) (29, 1.75592479705810546875e+01) (30, 2.15676538646221160889e-02) (31, 6.42564392089843750000e+00) (32, 4.49636459350585937500e+00) (33, -8.26951742172241210938e-01) (34, 5.84968709945678710938e+00) (35, -5.99305343627929687500e+00) (36, 7.49376964569091796875e+00) (37, 2.35164880752563476562e+00) (38, -4.00366926193237304688e+00) (39, 2.28253507614135742188e+00) (40, 2.90325379371643066406e+00) (41, 9.58916068077087402344e-01) (42, 3.80633139610290527344e+00) (43, -4.14610910415649414062e+00) (44, 6.82760047912597656250e+00) (45, -1.16484012603759765625e+01) (46, 1.36728925704956054688e+01) (47, -2.01793622970581054688e+00) (48, 1.67495479583740234375e+01) (49, 1.70640790462493896484e+00) (50, 2.49265718460083007812e+00) (51, -4.39519119262695312500e+00) (52, 2.50768208503723144531e+00) (0, 3.53033065795898437500e+00) (1, -1.69586544036865234375e+01) (2, 3.77075531005859375000e+02) (3, 1.13050048828125000000e+02) (4, 4.21707916259765625000e+01) (5, -1.29027233123779296875e+01) (6, 2.16993652343750000000e+02) (7, 4.61609764099121093750e+01) (8, 7.76223297119140625000e+01) (9, 1.32589111328125000000e+02) (10, 1.80155258178710937500e+01) (11, -1.93739013671875000000e+01) (12, 9.38180160522460937500e+01) (13, 2.76298400878906250000e+02) (14, 1.24312156677246093750e+02) (15, -9.26901397705078125000e+01) (16, -1.50000000000000000000e+03) (17, 1.09852795410156250000e+03) (18, 1.09384790039062500000e+03) (19, 1.50000000000000000000e+03) (20, 2.21755996704101562500e+02) (21, 7.10618515014648437500e+01) (22, 2.97927093505859375000e+02) (23, -7.83463211059570312500e+01) (24, 1.40483306884765625000e+02) (25, 7.01223230361938476562e+00) (26, 5.24184837341308593750e+01) (27, 4.46775588989257812500e+01) (28, 2.06645980834960937500e+02) (29, 2.81008186340332031250e+01) (30, 4.28779487609863281250e+01) (31, -2.68090858459472656250e+01) (32, -4.63088226318359375000e+01) (33, 1.13489967346191406250e+02) (34, 4.40910186767578125000e+01) (35, 7.38864440917968750000e+01) (36, 7.74720251560211181641e-01) (37, 8.50516967773437500000e+01) (38, 2.17435169219970703125e+01) (39, 5.80943565368652343750e+01) (40, -2.14046768188476562500e+02) (41, 9.18566741943359375000e+01) (42, 3.67638641357421875000e+02) (43, 1.72266540527343750000e+02) (44, 2.52679214477539062500e+01) (45, -5.03990402221679687500e+01) (46, 2.12454040527343750000e+02) (47, 2.55742614746093750000e+02) (48, 2.83904937744140625000e+02) (49, 7.73860778808593750000e+01) (50, -1.36778045654296875000e+02) (51, 1.99983657836914062500e+02) (52, -1.23598403930664062500e+01) (0, 2.23844585418701171875e+01) (1, -5.42255449295043945312e+00) (2, 1.58216547966003417969e+00) (3, 9.58101558685302734375e+00) (4, 2.52597212791442871094e+00) (5, 1.88361034393310546875e+01) (6, -2.69538521766662597656e+00) (7, 1.25451457500457763672e+00) (8, -1.07883739471435546875e+00) (9, 5.44083166122436523438e+00) (10, -1.55752646923065185547e+00) (11, 6.88149499893188476562e+00) (12, -2.58046865463256835938e+00) (13, 9.17026042938232421875e+00) (14, 1.25821888446807861328e+00) (15, 3.87858939170837402344e+00) (16, 3.55977201461791992188e+00) (17, 2.34744510650634765625e+01) (18, -1.20029628276824951172e+00) (19, -3.12050056457519531250e+00) (20, 4.28313589096069335938e+00) (21, 6.17460155487060546875e+00) (22, 5.77512645721435546875e+00) (23, 2.96394266188144683838e-02) (24, -5.60454320907592773438e+00) (25, -1.71320307254791259766e+00) (26, 2.55100898742675781250e+01) (27, 1.87747287750244140625e+01) (28, 1.94458808898925781250e+01) (29, -5.02041816711425781250e+00) (30, 5.22454738616943359375e+00) (31, 8.51951241493225097656e-01) (32, 2.54844999313354492188e+00) (33, 1.22051401138305664062e+01) (34, 2.33866977691650390625e+00) (35, -3.26991343498229980469e+00) (36, 8.40598297119140625000e+00) (37, 2.62552976608276367188e+00) (38, -2.84176111221313476562e+00) (39, 9.18678951263427734375e+00) (40, -8.16683673858642578125e+00) (41, 2.60416364669799804688e+00) (42, 1.20138216018676757812e+01) (43, 6.01866769790649414062e+00) (44, -6.02707195281982421875e+00) (45, 1.43639445304870605469e+00) (46, 2.89344539642333984375e+01) (47, 7.20183610916137695312e+00) (48, -2.13111591339111328125e+00) (49, -1.34683644771575927734e+00) (50, 3.44033813476562500000e+01) (51, 6.35785865783691406250e+00) (52, 3.44950318336486816406e-01) (0, -7.43239116668701171875e+00) (1, 5.17135986328125000000e+02) (2, 5.06705902099609375000e+02) (3, 5.02892028808593750000e+02) (4, 1.09021692276000976562e+01) (5, 1.65962657928466796875e+01) (6, 9.70352458953857421875e+00) (7, 1.83267574310302734375e+01) (8, 1.31325016021728515625e+01) (9, 1.26814460754394531250e+01) (10, 1.80275440216064453125e+01) (11, 1.54194717407226562500e+01) (12, 1.45586252212524414062e+01) (13, 1.39846696853637695312e+01) (14, 1.80512905120849609375e+01) (15, 1.10615911483764648438e+01) (16, 9.52071285247802734375e+00) (17, 1.46914129257202148438e+01) (18, 1.68680763244628906250e+01) (19, 1.55910272598266601562e+01) (20, 1.64538879394531250000e+01) (21, 1.34992303848266601562e+01) (22, 1.72601184844970703125e+01) (23, 2.54270019531250000000e+01) (24, 1.00451393127441406250e+01) (25, 2.76008071899414062500e+01) (26, 1.16763811111450195312e+01) (27, 1.89386253356933593750e+01) (28, 2.16979999542236328125e+01) (29, 9.84465694427490234375e+00) (30, 1.58163013458251953125e+01) (31, 1.09055328369140625000e+01) (32, 1.18959808349609375000e+01) (33, 1.71186695098876953125e+01) (34, 1.55958728790283203125e+01) (35, 1.65492572784423828125e+01) (36, 1.28325176239013671875e+01) (37, 1.31619682312011718750e+01) (38, 1.86739578247070312500e+01) (39, 2.41027297973632812500e+01) (40, -1.30213879394531250000e+03) (41, 5.00109161376953125000e+02) (42, 5.01163574218750000000e+02) (43, 5.18695861816406250000e+02) (44, 1.24057292938232421875e+01) (45, 1.37913093566894531250e+01) (46, 1.43651037216186523438e+01) (47, 2.18552169799804687500e+01) (48, 1.86485958099365234375e+01) (49, 1.15162420272827148438e+01) (50, 1.36797914505004882812e+01) (51, 1.70977077484130859375e+01) (52, -7.27195549011230468750e+00) (0, -3.52391457557678222656e+00) (1, 1.36595273017883300781e+00) (2, 9.31005382537841796875e+00) (3, 8.25261020660400390625e+00) (4, 2.17543077468872070312e+00) (5, -1.66293716430664062500e+00) (6, 4.99674797058105468750e+00) (7, 4.74935960769653320312e+00) (8, -1.84042358398437500000e+01) (9, 1.01149711608886718750e+01) (10, 4.71962165832519531250e+00) (11, 4.36161947250366210938e+00) (12, 7.63390445709228515625e+00) (13, 3.28974318504333496094e+00) (14, 2.37786026000976562500e+01) (15, -7.49949502944946289062e+00) (16, 1.16359958648681640625e+01) (17, -1.03814530372619628906e+00) (18, 2.43525695800781250000e+01) (19, -2.17970705032348632812e+00) (20, -1.15292930603027343750e+00) (21, -1.56663358211517333984e-01) (22, 4.32401990890502929688e+00) (23, 5.07248210906982421875e+00) (24, -4.49474048614501953125e+00) (25, 3.62911891937255859375e+00) (26, 4.85758113861083984375e+00) (27, 2.33620405197143554688e+00) (28, -3.88838338851928710938e+00) (29, 2.31440563201904296875e+01) (30, 9.82408905029296875000e+00) (31, -9.17542636394500732422e-01) (32, 3.07608151435852050781e+00) (33, 2.30004453659057617188e+00) (34, 6.59846687316894531250e+00) (35, -6.23531198501586914062e+00) (36, -1.27342879772186279297e+00) (37, 5.57875990867614746094e-01) (38, 3.22964310646057128906e+00) (39, 1.35478172302246093750e+01) (40, 8.20173203945159912109e-01) (41, 2.76671099662780761719e+00) (42, 8.47754478454589843750e+00) (43, -6.86324775218963623047e-01) (44, 2.27300137281417846680e-01) (45, -2.36269640922546386719e+00) (46, 5.29718351364135742188e+00) (47, 5.49710798263549804688e+00) (48, -1.43684458732604980469e+00) (49, 1.16242296993732452393e-01) (50, 1.30531501770019531250e+01) (51, 1.61977243423461914062e+00) (52, 2.04192924499511718750e+00) (0, -4.40866422653198242188e+00) (1, 9.70158159732818603516e-01) (2, 3.73996806144714355469e+00) (3, 3.53531360626220703125e+00) (4, -1.75537312030792236328e+00) (5, -3.28842782974243164062e+00) (6, 7.06933403015136718750e+00) (7, 6.48775196075439453125e+00) (8, 3.91830968856811523438e+00) (9, -3.33620047569274902344e+00) (10, 4.60227918624877929688e+00) (11, -3.63564252853393554688e-01) (12, -3.55924129486083984375e+00) (13, 1.46426820755004882812e+01) (14, -1.13142120838165283203e+00) (15, 6.14514589309692382812e-01) (16, -3.12763953208923339844e+00) (17, 3.44562149047851562500e+00) (18, 3.38306450843811035156e+00) (19, -7.38729238510131835938e-01) (20, 4.09794473648071289062e+00) (21, 7.12982416152954101562e-01) (22, 2.44108700752258300781e+00) (23, -2.46453118324279785156e+00) (24, 3.34803271293640136719e+00) (25, 2.29826474189758300781e+00) (26, 5.68917989730834960938e+00) (27, -7.86306524276733398438e+00) (28, 2.40249919891357421875e+00) (29, 1.19522571563720703125e+01) (30, -1.77300834655761718750e+00) (31, -2.57568359375000000000e+00) (32, 5.77756357192993164062e+00) (33, 4.45252323150634765625e+00) (34, -4.79197025299072265625e-01) (35, -1.04440040588378906250e+01) (36, 8.57601642608642578125e-01) (37, 3.77979898452758789062e+00) (38, 2.58930826187133789062e+00) (39, -7.45978546142578125000e+00) (40, -5.09022760391235351562e+00) (41, 2.17232894897460937500e+00) (42, 8.40567493438720703125e+00) (43, 4.73386347293853759766e-01) (44, 3.55501800775527954102e-01) (45, -1.99356961250305175781e+00) (46, 1.43102943897247314453e+00) (47, 1.83543038368225097656e+00) (48, 3.29261970520019531250e+00) (49, -2.17409864068031311035e-01) (50, 1.45634245872497558594e+00) (51, -2.45857052505016326904e-03) (52, 2.60341238975524902344e+00) (0, 1.72827169299125671387e-01) (1, 4.40446615219116210938e-01) (2, 4.37665462493896484375e+00) (3, -2.99797558784484863281e+00) (4, 5.13720571994781494141e-01) (5, -2.54928159713745117188e+00) (6, 4.16466999053955078125e+00) (7, 1.34572184085845947266e+00) (8, 5.33655595779418945312e+00) (9, 2.23661112785339355469e+00) (10, -2.13502836227416992188e+00) (11, -1.62048649787902832031e+00) (12, -3.19628381729125976562e+00) (13, 3.16690158843994140625e+00) (14, 4.07794284820556640625e+00) (15, -6.67836189270019531250e+00) (16, -5.18312025070190429688e+00) (17, -8.03702712059020996094e-01) (18, 1.39491832256317138672e+00) (19, 2.54775447845458984375e+01) (20, -7.75586545467376708984e-01) (21, 2.63441562652587890625e+01) (22, -6.64473199844360351562e+00) (23, 4.42578345537185668945e-02) (24, 7.71664667129516601562e+00) (25, 1.36124038696289062500e+00) (26, 1.51584720611572265625e+00) (27, -1.44765472412109375000e+00) (28, 3.67127823829650878906e+00) (29, -2.13916921615600585938e+00) (30, 2.96384072303771972656e+00) (31, -3.66887235641479492188e+00) (32, -1.70299780368804931641e+00) (33, 3.16118502616882324219e+00) (34, 6.77836954593658447266e-01) (35, -2.67798900604248046875e+00) (36, -6.49565553665161132812e+00) (37, 4.80387449264526367188e+00) (38, 4.19609844684600830078e-01) (39, 1.56281125545501708984e+00) (40, -6.39137220382690429688e+00) (41, 1.07952013611793518066e-01) (42, -9.22302246093750000000e-01) (43, 9.32780742645263671875e+00) (44, 8.16349089145660400391e-01) (45, 3.79917001724243164062e+00) (46, -1.16389513015747070312e+00) (47, -1.42343312501907348633e-01) (48, -2.68354082107543945312e+00) (49, 1.32750034332275390625e+00) (50, 4.16450977325439453125e-01) (51, 1.01352953910827636719e+00) (52, 2.97725176811218261719e+00) (0, 7.91406784057617187500e+01) (1, 1.06538181304931640625e+01) (2, -4.28963508605957031250e+01) (3, 4.17814102172851562500e+01) (4, 6.31238250732421875000e+01) (5, 1.13462419509887695312e+01) (6, 5.59193191528320312500e+01) (7, -3.34708099365234375000e+01) (8, 9.64414882659912109375e+00) (9, 9.54848861694335937500e+00) (10, 1.58851226806640625000e+02) (11, 1.58970880508422851562e+00) (12, 1.35309982299804687500e+02) (13, -2.98673763275146484375e+01) (14, 4.43718986511230468750e+01) (15, 8.23625564575195312500e+01) (16, -1.82381500244140625000e+02) (17, 4.60136070251464843750e+01) (18, 2.18631866455078125000e+02) (19, 1.68507690429687500000e+01) (20, 2.47590236663818359375e+01) (21, -1.40260955810546875000e+02) (22, 2.46084518432617187500e+01) (23, 1.51296249389648437500e+02) (24, 8.87440204620361328125e+00) (25, 2.36433124542236328125e+01) (26, 3.26823234558105468750e+01) (27, 1.62032175064086914062e+00) (28, 3.25623413085937500000e+02) (29, -3.41691474914550781250e+01) (30, 3.19878120422363281250e+01) (31, 1.37647409439086914062e+01) (32, -5.13091125488281250000e+01) (33, 8.59489517211914062500e+01) (34, 3.84928588867187500000e+01) (35, 1.98589897155761718750e+01) (36, 4.74534530639648437500e+01) (37, -5.34925580024719238281e-01) (38, 5.20668649673461914062e+00) (39, 6.78349761962890625000e+01) (40, -1.86856937408447265625e+01) (41, 5.97584609985351562500e+01) (42, 4.87360191345214843750e+00) (43, 8.85261383056640625000e+01) (44, 5.38730392456054687500e+01) (45, 1.05324180603027343750e+02) (46, -4.05989761352539062500e+01) (47, 1.48822311401367187500e+02) (48, -5.94263458251953125000e+00) (49, 2.83530831336975097656e+00) (50, 6.52383728027343750000e+01) (51, 2.59959735870361328125e+01) (52, -1.70980465412139892578e+00) (0, 1.44090557098388671875e+00) (1, 3.39922595024108886719e+00) (2, -6.36904761195182800293e-02) (3, -5.01077699661254882812e+00) (4, 1.49447679519653320312e+00) (5, 2.75680512189865112305e-01) (6, -3.59581619501113891602e-01) (7, -2.81317502260208129883e-01) (8, 4.03244924545288085938e+00) (9, -1.34034946560859680176e-01) (10, 4.30386394262313842773e-01) (11, -2.04359436035156250000e+00) (12, 1.51219773292541503906e+00) (13, -3.83210730552673339844e+00) (14, 1.58031630516052246094e+00) (15, 1.25716412067413330078e+00) (16, 3.53313279151916503906e+00) (17, -6.42670631408691406250e-01) (18, -6.20938956737518310547e-01) (19, 6.52146577835083007812e-01) (20, -7.54014611244201660156e-01) (21, 1.37655806541442871094e+00) (22, -2.23106217384338378906e+00) (23, 8.31046104431152343750e-01) (24, -6.59272015094757080078e-01) (25, 2.43113338947296142578e-01) (26, -3.28268122673034667969e+00) (27, 8.59745442867279052734e-01) (28, -9.13814067840576171875e+00) (29, 7.38354492187500000000e+00) (30, 1.88297295570373535156e+00) (31, 8.55821990966796875000e+00) (32, 8.45682442188262939453e-01) (33, -1.07632160186767578125e+00) (34, -1.71122103929519653320e-01) (35, 1.39815449714660644531e+00) (36, 2.97222685813903808594e+00) (37, -7.11420714855194091797e-01) (38, 1.11972963809967041016e+00) (39, -2.22465062141418457031e+00) (40, -5.93101561069488525391e-01) (41, 1.01769888401031494141e+00) (42, 2.26560974121093750000e+00) (43, -1.03363525867462158203e+00) (44, 1.64262712001800537109e+00) (45, 3.16890478134155273438e+00) (46, -1.04938961565494537354e-01) (47, -2.63589930534362792969e+00) (48, 1.15818083286285400391e+00) (49, 9.51720416545867919922e-01) (50, -1.10544812679290771484e+00) (51, -3.81302461028099060059e-02) (52, 3.61627674102783203125e+00) (0, -7.96852661132812500000e+02) (1, 5.74259216308593750000e+02) (2, 7.17690246582031250000e+02) (3, 5.95359375000000000000e+02) (4, 7.06059570312500000000e+01) (5, 8.53631973266601562500e+00) (6, 3.59804382324218750000e+01) (7, 4.10798549652099609375e+00) (8, 3.36258697509765625000e+00) (9, 2.16734180450439453125e+01) (10, 5.54358253479003906250e+01) (11, 6.94962739944458007812e+00) (12, 1.37626388549804687500e+02) (13, -6.83264160156250000000e+00) (14, 1.60736446380615234375e+01) (15, 5.95888481140136718750e+01) (16, -1.55918846130371093750e+01) (17, 3.98836441040039062500e+01) (18, 7.36349639892578125000e+01) (19, 1.04441175460815429688e+01) (20, 8.23741912841796875000e+00) (21, 1.29273343086242675781e+00) (22, 2.55443878173828125000e+01) (23, 3.68811149597167968750e+01) (24, 5.09827079772949218750e+01) (25, 1.86495265960693359375e+01) (26, -7.20560598373413085938e+00) (27, 9.27243614196777343750e+00) (28, 1.52053573608398437500e+02) (29, -2.55068063735961914062e+00) (30, 2.56237297058105468750e+01) (31, 8.10334491729736328125e+00) (32, -1.76550447940826416016e-01) (33, 1.59999603271484375000e+02) (34, 2.73996086120605468750e+01) (35, 2.28655862808227539062e+00) (36, 5.32791435718536376953e-01) (37, 1.49483156204223632812e+01) (38, 3.16984519958496093750e+01) (39, 1.07578926086425781250e+01) (40, 2.61183223724365234375e+01) (41, 1.40523080825805664062e+01) (42, 4.10155725479125976562e+00) (43, 3.89205970764160156250e+01) (44, 4.17117729187011718750e+01) (45, -7.64211893081665039062e+00) (46, 1.21275405883789062500e+01) (47, 7.29395446777343750000e+01) (48, 3.06049704551696777344e+00) (49, 1.27998876571655273438e+01) (50, 1.74637088775634765625e+01) (51, 3.41659202575683593750e+01) (52, -3.71957612037658691406e+00) (0, -5.68987703323364257812e+00) (1, -5.82757520675659179688e+00) (2, 1.45764827728271484375e+01) (3, 8.43426513671875000000e+00) (4, 9.20472145080566406250e+00) (5, -2.16043663024902343750e+00) (6, -1.32097835540771484375e+01) (7, 1.14871816635131835938e+01) (8, -8.45257818698883056641e-01) (9, 2.73826866149902343750e+01) (10, -4.72853755950927734375e+00) (11, -3.49292898178100585938e+00) (12, 1.02058124542236328125e+01) (13, -8.45137119293212890625e+00) (14, 8.46360385417938232422e-01) (15, 6.14078807830810546875e+00) (16, 9.09633255004882812500e+00) (17, -1.11065301895141601562e+01) (18, -7.61680543422698974609e-01) (19, 2.74136753082275390625e+01) (20, -4.88458299636840820312e+00) (21, 6.54223823547363281250e+00) (22, -2.12362957000732421875e+01) (23, 1.83585128784179687500e+01) (24, -6.78779506683349609375e+00) (25, 8.86292934417724609375e+00) (26, -1.37541675567626953125e+01) (27, 3.65457952022552490234e-01) (28, 1.97104320526123046875e+01) (29, -1.95774948596954345703e+00) (30, -4.70022583007812500000e+00) (31, 1.10208854675292968750e+01) (32, 2.62574653625488281250e+01) (33, 7.94395208358764648438e-01) (34, 3.71015143394470214844e+00) (35, -8.24904251098632812500e+00) (36, 4.85794687271118164062e+00) (37, -7.37919330596923828125e+00) (38, 4.72658538818359375000e+00) (39, 1.26168459653854370117e-01) (40, 2.98941230773925781250e+00) (41, 1.38155374526977539062e+01) (42, 6.14704227447509765625e+00) (43, -1.51839780807495117188e+01) (44, 2.55614509582519531250e+01) (45, -3.27968750000000000000e+01) (46, 3.90602797269821166992e-01) (47, 3.44351959228515625000e+00) (48, -5.23737239837646484375e+00) (49, 2.34801864624023437500e+01) (50, 8.79309272766113281250e+00) (51, -6.40034341812133789062e+00) (52, 2.19472002983093261719e+00) (0, 2.05672097206115722656e+00) (1, -1.67370784282684326172e+00) (2, 3.41940188407897949219e+00) (3, -3.22557163238525390625e+00) (4, 5.49027585983276367188e+00) (5, -6.50821352005004882812e+00) (6, 1.56023323535919189453e+00) (7, 3.80164477974176406860e-03) (8, -6.97159647941589355469e-01) (9, -8.63761615753173828125e+00) (10, -1.13248848915100097656e+00) (11, 7.71663236618041992188e+00) (12, -3.28750348091125488281e+00) (13, -3.62614572048187255859e-01) (14, 2.79936075210571289062e-01) (15, 3.87010240554809570312e+00) (16, -1.05092954635620117188e+01) (17, 5.42340612411499023438e+00) (18, 2.68194049596786499023e-01) (19, -1.68386638164520263672e+00) (20, -1.07477340698242187500e+01) (21, 9.49965381622314453125e+00) (22, -1.06579482555389404297e+00) (23, -1.09869825839996337891e+00) (24, -6.04856491088867187500e+00) (25, 4.13708782196044921875e+00) (26, 5.23834896087646484375e+00) (27, -2.15718746185302734375e+00) (28, 1.87630221247673034668e-01) (29, 1.23137664794921875000e+01) (30, -1.02580614089965820312e+01) (31, 4.59396600723266601562e-01) (32, 3.35378623008728027344e+00) (33, 1.90407049655914306641e+00) (34, -3.05782985687255859375e+00) (35, 6.43966579809784889221e-03) (36, 3.10107445716857910156e+00) (37, 1.24208211898803710938e+00) (38, -7.14888286590576171875e+00) (39, 3.64690327644348144531e+00) (40, 8.94574880599975585938e-01) (41, 4.92420816421508789062e+00) (42, 4.70736503601074218750e-01) (43, -5.41073799133300781250e+00) (44, -5.36825418472290039062e+00) (45, 4.71605396270751953125e+00) (46, 1.80229401588439941406e+00) (47, -5.46317994594573974609e-01) (48, 6.54234528541564941406e-01) (49, -1.07646262645721435547e+00) (50, 3.75182080268859863281e+00) (51, -2.27811980247497558594e+00) (52, 3.21375703811645507812e+00) (0, 1.44480705261230468750e+00) (1, -9.30584296584129333496e-02) (2, -1.74533712863922119141e+00) (3, 1.67389917373657226562e+00) (4, 3.83307075500488281250e+00) (5, -7.82177150249481201172e-01) (6, -2.09392476081848144531e+00) (7, 6.78555130958557128906e-01) (8, 1.87402737140655517578e+00) (9, 4.17013943195343017578e-01) (10, -1.44012045860290527344e+00) (11, 1.01693201065063476562e+00) (12, -3.45679789781570434570e-01) (13, 1.21685552597045898438e+00) (14, -7.84177064895629882812e+00) (15, 6.01526498794555664062e+00) (16, 1.72719442844390869141e+00) (17, -2.19359159469604492188e+00) (18, -3.48861598968505859375e+00) (19, 1.07060365676879882812e+01) (20, -1.03422441482543945312e+01) (21, 3.16988778114318847656e+00) (22, 1.48978900909423828125e+01) (23, 1.76592513918876647949e-01) (24, -9.06065750122070312500e+00) (25, 3.70201921463012695312e+00) (26, 1.02412166595458984375e+01) (27, 1.45114690065383911133e-01) (28, 4.89290046691894531250e+00) (29, -8.56696701049804687500e+00) (30, 1.50494110584259033203e+00) (31, 3.10408592224121093750e+00) (32, -3.77100348472595214844e+00) (33, 2.24117565155029296875e+00) (34, -2.16647076606750488281e+00) (35, 9.02047443389892578125e+00) (36, 2.17605495452880859375e+00) (37, 2.00714850425720214844e+00) (38, 1.94994330406188964844e+00) (39, -9.94215679168701171875e+00) (40, 2.24882388114929199219e+00) (41, -1.22087538242340087891e+00) (42, -5.93810749053955078125e+00) (43, 6.32150745391845703125e+00) (44, 1.96196496486663818359e+00) (45, 4.47262430191040039062e+00) (46, -1.91914474964141845703e+00) (47, -1.12653934955596923828e+00) (48, 6.62674725055694580078e-01) (49, -1.51444733142852783203e+00) (50, -2.31558251380920410156e+00) (51, 3.80110764503479003906e+00) (52, 3.09203004837036132812e+00) (0, 1.93438434600830078125e+01) (1, 3.24813575744628906250e+01) (2, 6.42439424991607666016e-01) (3, -4.60008735656738281250e+01) (4, 8.14237136840820312500e+01) (5, -1.34612636566162109375e+01) (6, 4.10912284851074218750e+01) (7, -4.19067049026489257812e+00) (8, 2.22661342620849609375e+01) (9, 5.91200370788574218750e+01) (10, -3.37352066040039062500e+01) (11, -4.64417123794555664062e+00) (12, 9.70130386352539062500e+01) (13, -1.01043834686279296875e+01) (14, 2.83471145629882812500e+01) (15, -3.62041854858398437500e+00) (16, -9.76921367645263671875e+00) (17, 1.87204074859619140625e+01) (18, 9.83115768432617187500e+01) (19, -2.47460041046142578125e+01) (20, 7.00859975814819335938e+00) (21, -9.51116847991943359375e+00) (22, 6.11015439033508300781e-01) (23, 1.45897226333618164062e+01) (24, 5.81970138549804687500e+01) (25, 8.28581905364990234375e+00) (26, 4.56758642196655273438e+00) (27, -3.20709838867187500000e+01) (28, -5.38265657424926757812e+00) (29, -1.58869867324829101562e+01) (30, 2.12072181701660156250e+01) (31, 1.41047058105468750000e+01) (32, -8.16883850097656250000e+01) (33, 3.70501780509948730469e+00) (34, 5.35139179229736328125e+00) (35, 2.31751983642578125000e+02) (36, 1.81540634155273437500e+02) (37, 1.53433563232421875000e+02) (38, -2.79748725891113281250e+01) (39, -5.03522753715515136719e-01) (40, -1.43938946723937988281e+00) (41, 4.14109497070312500000e+01) (42, 2.93776664733886718750e+01) (43, -4.13788375854492187500e+01) (44, -1.39251737594604492188e+01) (45, 3.86494522094726562500e+01) (46, 3.00528717041015625000e+00) (47, 5.85372018814086914062e+00) (48, -9.22841072082519531250e+00) (49, -3.07225933074951171875e+01) (50, 2.86949005126953125000e+01) (51, 3.90482063293457031250e+01) (52, 1.16118872165679931641e+00) (0, -1.40805826187133789062e+01) (1, 1.96371517181396484375e+01) (2, 4.90769290924072265625e+00) (3, 2.31978249549865722656e+00) (4, -3.11617016792297363281e+00) (5, 2.56432700157165527344e+00) (6, 2.03260326385498046875e+01) (7, -7.87006318569183349609e-01) (8, 2.28163528442382812500e+00) (9, -2.32496547698974609375e+01) (10, 2.65410060882568359375e+01) (11, 9.98421478271484375000e+00) (12, 7.83150291442871093750e+00) (13, 2.63552832603454589844e+00) (14, 3.59142994880676269531e+00) (15, -3.30698084831237792969e+00) (16, -1.51139628887176513672e+00) (17, 9.40719699859619140625e+00) (18, 2.42248821258544921875e+00) (19, -1.03982734680175781250e+00) (20, 1.31275625228881835938e+01) (21, 4.57662492990493774414e-01) (22, -3.32962703704833984375e+00) (23, 2.71467518806457519531e+00) (24, -1.10443916320800781250e+01) (25, 4.06459122896194458008e-01) (26, 2.04353675842285156250e+01) (27, 7.94492197036743164062e+00) (28, -7.83109521865844726562e+00) (29, 7.79238700866699218750e+00) (30, 4.95870590209960937500e+01) (31, -1.28043603897094726562e+01) (32, 7.58771038055419921875e+00) (33, -3.22165718078613281250e+01) (34, 4.74642515182495117188e+00) (35, 7.11732864379882812500e+01) (36, 4.12282705307006835938e+00) (37, 1.79233894348144531250e+01) (38, 2.72896432876586914062e+00) (39, -2.25454349517822265625e+01) (40, 1.00727691650390625000e+01) (41, 5.28115892410278320312e+00) (42, 5.62704038619995117188e+00) (43, -2.74855480194091796875e+01) (44, 8.10459709167480468750e+00) (45, -1.06349983215332031250e+01) (46, 8.08846569061279296875e+00) (47, -1.16626369953155517578e+00) (48, -1.22100324630737304688e+01) (49, 2.10801658630371093750e+01) (50, 4.48920745849609375000e+01) (51, -2.31297278404235839844e+00) (52, 1.37676739692687988281e+00) (0, -2.17814469337463378906e+00) (1, 9.79899787902832031250e+00) (2, 1.48452177047729492188e+01) (3, -8.43064308166503906250e+00) (4, -1.88120651245117187500e+01) (5, 2.99568538665771484375e+01) (6, 8.31625843048095703125e+00) (7, -7.59203076362609863281e-01) (8, -7.02053117752075195312e+00) (9, 6.71185064315795898438e+00) (10, 3.07745480537414550781e+00) (11, -3.26310843229293823242e-01) (12, -2.81822395324707031250e+00) (13, 5.80803871154785156250e+00) (14, 1.04607505798339843750e+01) (15, -5.20449447631835937500e+00) (16, -1.98801827430725097656e+00) (17, 7.19537973403930664062e+00) (18, 6.42305231094360351562e+00) (19, -4.62649440765380859375e+00) (20, 4.54770374298095703125e+00) (21, -4.29577445983886718750e+00) (22, 1.20251693725585937500e+01) (23, 1.62193011492490768433e-02) (24, 6.11806869506835937500e-01) (25, -4.98285198211669921875e+00) (26, -4.25261306762695312500e+00) (27, 1.80510311126708984375e+01) (28, 5.86796738207340240479e-02) (29, -1.56311488151550292969e+00) (30, -9.12676334381103515625e-01) (31, 1.44335126876831054688e+01) (32, 4.82799005508422851562e+00) (33, 3.33466434478759765625e+00) (34, -2.55232715606689453125e+00) (35, 2.87126207351684570312e+00) (36, 4.60290193557739257812e+00) (37, 6.70788335800170898438e+00) (38, -9.80112934112548828125e+00) (39, 6.19732236862182617188e+00) (40, 2.02367515563964843750e+01) (41, -4.13754415512084960938e+00) (42, -9.26156330108642578125e+00) (43, 2.65560760498046875000e+01) (44, 4.34203767776489257812e+00) (45, -1.10499219894409179688e+01) (46, -2.29467773437500000000e+00) (47, 3.38026390075683593750e+01) (48, -1.32161350250244140625e+01) (49, -2.06486058235168457031e+00) (50, 3.33725285530090332031e+00) (51, 2.42377281188964843750e+01) (52, 2.04213976860046386719e+00) (0, 3.86477947235107421875e-01) (1, 2.22600650787353515625e+00) (2, 9.10398006439208984375e+00) (3, 3.76206588745117187500e+00) (4, -1.53724622726440429688e+01) (5, 2.63658809661865234375e+01) (6, -2.84717774391174316406e+00) (7, 2.98748683929443359375e+01) (8, -1.21348505020141601562e+01) (9, 5.55361251831054687500e+01) (10, -8.38175678253173828125e+00) (11, 2.88079223632812500000e+01) (12, -2.07524561882019042969e+00) (13, 3.51202430725097656250e+01) (14, -1.26676988601684570312e+01) (15, 7.21491289138793945312e+00) (16, -3.83588752746582031250e+01) (17, 1.93627510070800781250e+01) (18, 1.47920107841491699219e+00) (19, 1.72438697814941406250e+01) (20, -7.49563121795654296875e+00) (21, -8.35528755187988281250e+00) (22, 1.37194356918334960938e+01) (23, 4.50196838378906250000e+01) (24, 1.01265235900878906250e+02) (25, 1.48165397644042968750e+01) (26, -3.14682412147521972656e+00) (27, -7.59046602249145507812e+00) (28, 3.36692390441894531250e+01) (29, -2.09968681335449218750e+01) (30, 2.67053437232971191406e+00) (31, 2.24929962158203125000e+01) (32, -1.46728954315185546875e+01) (33, 2.70799751281738281250e+01) (34, -1.92409253120422363281e+00) (35, 2.41812686920166015625e+01) (36, -9.23681068420410156250e+00) (37, 9.30383026599884033203e-01) (38, 1.43374223709106445312e+01) (39, 4.08533525466918945312e+00) (40, 3.31351661682128906250e+00) (41, 3.58987884521484375000e+01) (42, -5.35932683944702148438e+00) (43, 5.63276576995849609375e+00) (44, -5.87972307205200195312e+00) (45, -4.07495915889739990234e-01) (46, 5.84747581481933593750e+01) (47, 6.63157176971435546875e+00) (48, -1.41890783309936523438e+01) (49, 1.20686264038085937500e+01) (50, 7.46141004562377929688e+00) (51, 4.22906446456909179688e+00) (52, 3.28042089939117431641e-01) (0, 5.05313262939453125000e+01) (1, 1.00282638549804687500e+02) (2, -4.42119598388671875000e+01) (3, -9.68804550170898437500e+00) (4, 6.79514312744140625000e+01) (5, 4.76236114501953125000e+01) (6, -1.76182727813720703125e+01) (7, -1.68233489990234375000e+01) (8, 2.47825241088867187500e+01) (9, 2.21873214721679687500e+02) (10, -1.18802108764648437500e+01) (11, -2.67549324035644531250e+00) (12, -9.19629558920860290527e-02) (13, 5.08124122619628906250e+01) (14, 1.93934345245361328125e+01) (15, -2.81227016448974609375e+01) (16, -9.91975402832031250000e+00) (17, 6.74342012405395507812e+00) (18, -1.02875537872314453125e+01) (19, 7.89033660888671875000e+01) (20, -8.53501892089843750000e+00) (21, 5.56958885192871093750e+01) (22, -1.46340360641479492188e+01) (23, 1.00529394149780273438e+01) (24, 3.22894120216369628906e+00) (25, 2.46955108642578125000e+01) (26, 3.82382545471191406250e+01) (27, -7.64288482666015625000e+01) (28, -9.55747604370117187500e+00) (29, 9.64743499755859375000e+01) (30, 5.20294570922851562500e+00) (31, -1.79489307403564453125e+01) (32, 5.67963752746582031250e+01) (33, -1.00397467613220214844e+00) (34, 3.08012733459472656250e+01) (35, -5.23983421325683593750e+01) (36, 5.57975502014160156250e+01) (37, 3.19082808494567871094e+00) (38, 1.11750402450561523438e+01) (39, -1.56110427856445312500e+02) (40, 3.24122161865234375000e+01) (41, 1.13405014038085937500e+02) (42, 1.60684490203857421875e+00) (43, -5.09770050048828125000e+01) (44, 1.49967697143554687500e+02) (45, 4.30218696594238281250e+01) (46, 1.79402962327003479004e-01) (47, -5.56489105224609375000e+01) (48, 8.82647857666015625000e+01) (49, 7.39746170043945312500e+01) (50, -6.19290135800838470459e-02) (51, -3.54104042053222656250e+01) (52, 1.54576373100280761719e+00) (0, 1.51000535488128662109e+00) (1, -6.95067596435546875000e+00) (2, 3.05602693557739257812e+00) (3, 8.48546123504638671875e+00) (4, 2.17910456657409667969e+00) (5, 1.95837342739105224609e+00) (6, -6.46550321578979492188e+00) (7, 3.77195048332214355469e+00) (8, 5.87557744979858398438e+00) (9, -5.73939323425292968750e+00) (10, -1.93973326683044433594e+00) (11, 1.46231813430786132812e+01) (12, -2.30929088592529296875e+00) (13, -2.87531852722167968750e+00) (14, 3.31144523620605468750e+00) (15, 1.02041788101196289062e+01) (16, 2.51045107841491699219e+00) (17, -1.10554587841033935547e+00) (18, -1.48326241970062255859e+00) (19, 2.42392253875732421875e+00) (20, -2.01515126228332519531e+00) (21, 5.79272079467773437500e+00) (22, 1.63633659482002258301e-01) (23, -1.20712792873382568359e+00) (24, 4.39980602264404296875e+00) (25, 4.73717260360717773438e+00) (26, 1.16501369476318359375e+01) (27, -8.67510700225830078125e+00) (28, -4.17312192916870117188e+00) (29, 1.82230377197265625000e+01) (30, 4.12464141845703125000e-02) (31, 2.24443769454956054688e+00) (32, 3.17564177513122558594e+00) (33, -2.68274807929992675781e+00) (34, 1.11796975135803222656e+00) (35, 1.99405050277709960938e+00) (36, 5.26482963562011718750e+00) (37, -8.89699459075927734375e+00) (38, 1.57452976703643798828e+00) (39, 1.02639455795288085938e+01) (40, 1.21545372009277343750e+01) (41, -5.04680585861206054688e+00) (42, -1.60376560688018798828e+00) (43, 5.08455848693847656250e+00) (44, 7.37509429454803466797e-01) (45, -1.04151177406311035156e+00) (46, 3.41260969638824462891e-01) (47, 9.56121027469635009766e-01) (48, 5.42282962799072265625e+00) (49, -1.05006198883056640625e+01) (50, 2.72296524047851562500e+00) (51, 6.17449522018432617188e+00) (52, 2.69963026046752929688e+00) (0, 2.84707603454589843750e+01) (1, 2.15403671264648437500e+01) (2, 1.20563911437988281250e+02) (3, 1.56518039703369140625e+01) (4, -2.51445941925048828125e+01) (5, 1.69178848266601562500e+01) (6, 9.01272811889648437500e+01) (7, 1.53144638061523437500e+02) (8, 4.94547033309936523438e+00) (9, 6.03803558349609375000e+01) (10, 1.82985668182373046875e+01) (11, 2.72793426513671875000e+01) (12, -3.19034347534179687500e+01) (13, 6.04270629882812500000e+01) (14, 3.54652519226074218750e+01) (15, 4.87712211608886718750e+01) (16, -1.50000000000000000000e+03) (17, 1.21663720703125000000e+03) (18, 1.27386779785156250000e+03) (19, 1.50000000000000000000e+03) (20, 8.38050842285156250000e+00) (21, 2.50837059020996093750e+01) (22, 8.78569946289062500000e+01) (23, 2.30630226135253906250e+01) (24, -3.21528434753417968750e+01) (25, 3.82544555664062500000e+01) (26, 4.25896224975585937500e+01) (27, 3.52435379028320312500e+01) (28, 1.07322967529296875000e+02) (29, 5.94542007446289062500e+01) (30, -1.26015491485595703125e+01) (31, 1.59237022399902343750e+01) (32, 2.52582340240478515625e+01) (33, 1.93990707397460937500e+01) (34, 1.50321487426757812500e+02) (35, 1.09124727249145507812e+01) (36, 9.82885131835937500000e+01) (37, 1.40009126663208007812e+01) (38, 9.97799682617187500000e+00) (39, 1.43340759277343750000e+02) (40, -3.38969182968139648438e+00) (41, 7.57749710083007812500e+01) (42, 7.80213880538940429688e+00) (43, 1.06669929504394531250e+02) (44, -3.37183151245117187500e+01) (45, 1.91299224853515625000e+02) (46, 1.67320003509521484375e+01) (47, 3.29123764038085937500e+01) (48, 1.64035072326660156250e+01) (49, 2.77858257293701171875e+01) (50, -4.98068284988403320312e+00) (51, 8.62891540527343750000e+01) (52, -8.96267890930175781250e+00) (0, 4.87795162200927734375e+00) (1, 2.48086690902709960938e+00) (2, -6.11195802688598632812e-01) (3, 4.27518033981323242188e+00) (4, -2.56628942489624023438e+00) (5, 6.99745702743530273438e+00) (6, 2.30766192078590393066e-01) (7, 3.13753771781921386719e+00) (8, -2.55918574333190917969e+00) (9, 1.02500381469726562500e+01) (10, -5.00352478027343750000e+00) (11, 7.61226844787597656250e+00) (12, 3.33679008483886718750e+00) (13, 5.08668899536132812500e+00) (14, 5.89113283157348632812e+00) (15, -1.59859895706176757812e+00) (16, 2.77630996704101562500e+00) (17, -2.86218070983886718750e+00) (18, 6.12925529479980468750e+00) (19, 5.30643653869628906250e+00) (20, 1.42092809677124023438e+01) (21, -6.94120764732360839844e-01) (22, -1.93697094917297363281e+00) (23, 4.15258979797363281250e+00) (24, 2.47074298858642578125e+01) (25, -1.84868979454040527344e+00) (26, -3.58336377143859863281e+00) (27, 6.45887231826782226562e+00) (28, 1.16629590988159179688e+01) (29, -5.12202322483062744141e-01) (30, 1.44737541675567626953e+00) (31, -9.29479300975799560547e-01) (32, 1.63862056732177734375e+01) (33, 2.06650304794311523438e+00) (34, 1.57204294204711914062e+00) (35, -8.36689352989196777344e-01) (36, 1.23636770248413085938e+01) (37, 4.64848089218139648438e+00) (38, 3.80194520950317382812e+00) (39, -7.96735715866088867188e+00) (40, -5.06608629226684570312e+00) (41, 1.39298248291015625000e+01) (42, 1.43441987037658691406e+00) (43, 5.81373167037963867188e+00) (44, -4.73675251007080078125e+00) (45, 2.31932163238525390625e+00) (46, 9.92766761779785156250e+00) (47, 5.50910663604736328125e+00) (48, 9.61412966251373291016e-01) (49, 2.99025964736938476562e+00) (50, 1.20759820938110351562e+00) (51, 5.38749456405639648438e+00) (52, 1.18675303459167480469e+00) (0, -1.38818323612213134766e+00) (1, 5.61433887481689453125e+00) (2, -6.56581115722656250000e+00) (3, 1.61461277008056640625e+01) (4, -1.09821879863739013672e+00) (5, -3.24662141501903533936e-02) (6, -6.32242202758789062500e-01) (7, 7.68621397018432617188e+00) (8, -2.61945992708206176758e-01) (9, -5.40436363220214843750e+00) (10, 1.39827709197998046875e+01) (11, 3.63623285293579101562e+00) (12, 4.89179563522338867188e+00) (13, -4.25360250473022460938e+00) (14, 2.01286125183105468750e+00) (15, 3.05923151969909667969e+00) (16, 5.05772733688354492188e+00) (17, 2.19633078575134277344e+00) (18, -5.96361875534057617188e-01) (19, -1.64902746677398681641e+00) (20, 7.43070983886718750000e+00) (21, 5.39899206161499023438e+00) (22, -6.80323028564453125000e+00) (23, 8.73091518878936767578e-01) (24, -7.83223390579223632812e+00) (25, 7.43885040283203125000e+00) (26, -5.89148807525634765625e+00) (27, 1.55240416526794433594e-01) (28, 7.75788426399230957031e-01) (29, 4.26112222671508789062e+00) (30, -1.74760371446609497070e-01) (31, 5.19804418087005615234e-01) (32, 6.11201858520507812500e+00) (33, 3.66826605796813964844e+00) (34, -4.91549205780029296875e+00) (35, 1.60659027099609375000e+00) (36, 3.33345443010330200195e-01) (37, -3.48705649375915527344e+00) (38, 1.41286242008209228516e+00) (39, 9.77142333984375000000e+00) (40, 7.14491069316864013672e-01) (41, -4.36784118413925170898e-01) (42, -3.36173701286315917969e+00) (43, 8.43352127075195312500e+00) (44, 1.48018568754196166992e-01) (45, -4.09882688522338867188e+00) (46, -1.33401167392730712891e+00) (47, 9.90799045562744140625e+00) (48, 4.29293394088745117188e+00) (49, -1.60538368225097656250e+01) (50, 3.91237187385559082031e+00) (51, 1.14466485977172851562e+01) (52, 2.27313566207885742188e+00) (0, -2.23196620941162109375e+01) (1, 6.69672489166259765625e+00) (2, 1.73559284210205078125e+01) (3, -1.89558506011962890625e+01) (4, -1.22535915374755859375e+01) (5, 1.30799674987792968750e+00) (6, -3.87515044212341308594e+00) (7, 1.50101089477539062500e+01) (8, -7.92417907714843750000e+00) (9, 5.25372934341430664062e+00) (10, 9.15949440002441406250e+00) (11, -1.19727735519409179688e+01) (12, 5.83674621582031250000e+00) (13, -1.56839466094970703125e+01) (14, 8.98289012908935546875e+00) (15, -1.51873958110809326172e+00) (16, 2.99977660179138183594e+00) (17, -2.96155810356140136719e+00) (18, -1.99621410369873046875e+01) (19, 4.41929893493652343750e+01) (20, 1.84806766510009765625e+01) (21, 4.41635668277740478516e-01) (22, -4.65192764997482299805e-01) (23, -7.79443073272705078125e+00) (24, 5.66138572692871093750e+01) (25, -4.10977458953857421875e+00) (26, -6.65732526779174804688e+00) (27, -2.74454265832901000977e-01) (28, 3.75744705200195312500e+01) (29, 3.80372136831283569336e-01) (30, -1.41359701156616210938e+01) (31, -3.86627483367919921875e+00) (32, -3.31347274780273437500e+01) (33, 1.67019977569580078125e+01) (34, 2.31172299385070800781e+00) (35, -1.71364555358886718750e+01) (36, -2.17375488281250000000e+01) (37, -1.33054351806640625000e+00) (38, 1.66623611450195312500e+01) (39, -5.90493631362915039062e+00) (40, 1.74095973968505859375e+01) (41, -6.34270477294921875000e+00) (42, -5.59326505661010742188e+00) (43, 8.32705795764923095703e-01) (44, -7.42232322692871093750e+00) (45, 4.85138702392578125000e+01) (46, 4.70220422744750976562e+00) (47, -1.59171581268310546875e+01) (48, -1.59285001754760742188e+01) (49, 1.55011358261108398438e+01) (50, 9.93743762373924255371e-02) (51, -4.48694419860839843750e+00) (52, 3.28088736534118652344e+00) (53, -1.69814825057983398438e+00) (54, 1.31254374980926513672e+00) (55, -1.21542012691497802734e+00) (56, -1.34823524951934814453e+00) (57, 1.54295647144317626953e+00) (58, 1.41875839233398437500e+00) (59, -2.00163340568542480469e+00) (60, -1.77255058288574218750e+00) (61, 1.38172268867492675781e+00) (62, 1.21450865268707275391e+00) (63, 1.13189113140106201172e+00) (64, 1.44137287139892578125e+00) (65, 1.26224040985107421875e+00) (66, 1.16938877105712890625e+00) (67, 1.84660911560058593750e+00) (68, 1.13546884059906005859e+00) (69, -1.49419367313385009766e+00) (70, 1.01757967472076416016e+00) (71, -1.73473477363586425781e+00) (72, 1.24821972846984863281e+00) (73, 1.71924531459808349609e+00) (74, 1.17664182186126708984e+00) (75, -1.55685687065124511719e+00) (76, -2.06270360946655273438e+00) (77, -2.38240551948547363281e+00) (78, 1.77313888072967529297e+00) (79, 1.34905230998992919922e+00) (80, 1.00736856460571289062e+00) (81, -1.94154989719390869141e+00) (82, 1.38251757621765136719e+00) (83, -1.37245023250579833984e+00) (84, 1.12926149368286132812e+00) (85, 9.98012900352478027344e-01) (86, 9.83699440956115722656e-01) (87, 1.26434612274169921875e+00) (88, 1.17274820804595947266e+00) (89, -1.51390385627746582031e+00) (90, -1.45213711261749267578e+00) (91, 1.48278701305389404297e+00) (92, 1.33598697185516357422e+00) (93, -1.65751528739929199219e+00) (94, -1.83489549160003662109e+00) (95, 1.19964361190795898438e+00) (96, 1.09735798835754394531e+00) (97, -2.50020480155944824219e+00) 
