FANN_FLO_2.1
num_layers=3
learning_rate=0.700000
connection_rate=1.000000
network_type=0
learning_momentum=0.000000
training_algorithm=2
train_error_function=1
train_stop_function=0
cascade_output_change_fraction=0.010000
quickprop_decay=-0.000100
quickprop_mu=1.750000
rprop_increase_factor=1.200000
rprop_decrease_factor=0.500000
rprop_delta_min=0.000000
rprop_delta_max=50.000000
rprop_delta_zero=0.100000
cascade_output_stagnation_epochs=12
cascade_candidate_change_fraction=0.010000
cascade_candidate_stagnation_epochs=12
cascade_max_out_epochs=150
cascade_min_out_epochs=50
cascade_max_cand_epochs=150
cascade_min_cand_epochs=50
cascade_num_candidate_groups=2
bit_fail_limit=3.49999994039535522461e-01
cascade_candidate_limit=1.00000000000000000000e+03
cascade_weight_multiplier=4.00000005960464477539e-01
cascade_activation_functions_count=10
cascade_activation_functions=3 5 7 8 10 11 14 15 16 17 
cascade_activation_steepnesses_count=4
cascade_activation_steepnesses=2.50000000000000000000e-01 5.00000000000000000000e-01 7.50000000000000000000e-01 1.00000000000000000000e+00 
layer_sizes=53 45 2 
scale_included=0
neurons (num_inputs, activation_function, activation_steepness)=(0, 0, 0.00000000000000000000e+00) (0, 0, 0.00000000000000000000e+00) (0, 0, 0.00000000000000000000e+00) (0, 0, 0.00000000000000000000e+00) (0, 0, 0.00000000000000000000e+00) (0, 0, 0.00000000000000000000e+00) (0, 0, 0.00000000000000000000e+00) (0, 0, 0.00000000000000000000e+00) (0, 0, 0.00000000000000000000e+00) (0, 0, 0.00000000000000000000e+00) (0, 0, 0.00000000000000000000e+00) (0, 0, 0.00000000000000000000e+00) (0, 0, 0.00000000000000000000e+00) (0, 0, 0.00000000000000000000e+00) (0, 0, 0.00000000000000000000e+00) (0, 0, 0.00000000000000000000e+00) (0, 0, 0.00000000000000000000e+00) (0, 0, 0.00000000000000000000e+00) (0, 0, 0.00000000000000000000e+00) (0, 0, 0.00000000000000000000e+00) (0, 0, 0.00000000000000000000e+00) (0, 0, 0.00000000000000000000e+00) (0, 0, 0.00000000000000000000e+00) (0, 0, 0.00000000000000000000e+00) (0, 0, 0.00000000000000000000e+00) (0, 0, 0.00000000000000000000e+00) (0, 0, 0.00000000000000000000e+00) (0, 0, 0.00000000000000000000e+00) (0, 0, 0.00000000000000000000e+00) (0, 0, 0.00000000000000000000e+00) (0, 0, 0.00000000000000000000e+00) (0, 0, 0.00000000000000000000e+00) (0, 0, 0.00000000000000000000e+00) (0, 0, 0.00000000000000000000e+00) (0, 0, 0.00000000000000000000e+00) (0, 0, 0.00000000000000000000e+00) (0, 0, 0.00000000000000000000e+00) (0, 0, 0.00000000000000000000e+00) (0, 0, 0.00000000000000000000e+00) (0, 0, 0.00000000000000000000e+00) (0, 0, 0.00000000000000000000e+00) (0, 0, 0.00000000000000000000e+00) (0, 0, 0.00000000000000000000e+00) (0, 0, 0.00000000000000000000e+00) (0, 0, 0.00000000000000000000e+00) (0, 0, 0.00000000000000000000e+00) (0, 0, 0.00000000000000000000e+00) (0, 0, 0.00000000000000000000e+00) (0, 0, 0.00000000000000000000e+00) (0, 0, 0.00000000000000000000e+00) (0, 0, 0.00000000000000000000e+00) (0, 0, 0.00000000000000000000e+00) (0, 0, 0.00000000000000000000e+00) (53, 5, 5.00000000000000000000e-01) (53, 5, 5.00000000000000000000e-01) (53, 5, 5.00000000000000000000e-01) (53, 5, 5.00000000000000000000e-01) (53, 5, 5.00000000000000000000e-01) (53, 5, 5.00000000000000000000e-01) (53, 5, 5.00000000000000000000e-01) (53, 5, 5.00000000000000000000e-01) (53, 5, 5.00000000000000000000e-01) (53, 5, 5.00000000000000000000e-01) (53, 5, 5.00000000000000000000e-01) (53, 5, 5.00000000000000000000e-01) (53, 5, 5.00000000000000000000e-01) (53, 5, 5.00000000000000000000e-01) (53, 5, 5.00000000000000000000e-01) (53, 5, 5.00000000000000000000e-01) (53, 5, 5.00000000000000000000e-01) (53, 5, 5.00000000000000000000e-01) (53, 5, 5.00000000000000000000e-01) (53, 5, 5.00000000000000000000e-01) (53, 5, 5.00000000000000000000e-01) (53, 5, 5.00000000000000000000e-01) (53, 5, 5.00000000000000000000e-01) (53, 5, 5.00000000000000000000e-01) (53, 5, 5.00000000000000000000e-01) (53, 5, 5.00000000000000000000e-01) (53, 5, 5.00000000000000000000e-01) (53, 5, 5.00000000000000000000e-01) (53, 5, 5.00000000000000000000e-01) (53, 5, 5.00000000000000000000e-01) (53, 5, 5.00000000000000000000e-01) (53, 5, 5.00000000000000000000e-01) (53, 5, 5.00000000000000000000e-01) (53, 5, 5.00000000000000000000e-01) (53, 5, 5.00000000000000000000e-01) (53, 5, 5.00000000000000000000e-01) (53, 5, 5.00000000000000000000e-01) (53, 5, 5.00000000000000000000e-01) (53, 5, 5.00000000000000000000e-01) (53, 5, 5.00000000000000000000e-01) (53, 5, 5.00000000000000000000e-01) (53, 5, 5.00000000000000000000e-01) (53, 5, 5.00000000000000000000e-01) (53, 5, 5.00000000000000000000e-01) (0, 5, 0.00000000000000000000e+00) (45, 5, 5.00000000000000000000e-01) (0, 5, 0.00000000000000000000e+00) 
connections (connected_to_neuron, weight)=(0, 3.03018951416015625000e+00) (1, -4.22153472900390625000e+00) (2, -2.17278981208801269531e+00) (3, 5.78845977783203125000e-01) (4, 3.61899948120117187500e+00) (5, -7.59409308433532714844e-01) (6, 1.93274393677711486816e-01) (7, -9.38929748535156250000e+00) (8, -1.29585087299346923828e+00) (9, 1.04283027648925781250e+01) (10, -2.83324670791625976562e+00) (11, -1.72930831909179687500e+01) (12, 1.76249134540557861328e+00) (13, 1.29357945919036865234e+00) (14, 7.57435321807861328125e-01) (15, -4.15281534194946289062e+00) (16, -8.73046207427978515625e+00) (17, 4.43013811111450195312e+00) (18, 3.76593232154846191406e+00) (19, -1.08617153167724609375e+01) (20, -6.41821670532226562500e+00) (21, -4.45067167282104492188e+00) (22, -3.64093708992004394531e+00) (23, 1.63763179779052734375e+01) (24, 1.97292077541351318359e+00) (25, -2.83147501945495605469e+00) (26, -1.70297279357910156250e+01) (27, 3.30424356460571289062e+00) (28, 4.19626522064208984375e+00) (29, -1.86203880310058593750e+01) (30, 6.45191133022308349609e-01) (31, -1.58378839492797851562e+01) (32, -1.09537353515625000000e+01) (33, 1.01119804382324218750e+01) (34, -1.57429885864257812500e+00) (35, -6.41296672821044921875e+00) (36, -7.91120409965515136719e-01) (37, 1.30586366653442382812e+01) (38, -1.70110206604003906250e+01) (39, -1.23686790466308593750e+00) (40, -3.75168013572692871094e+00) (41, -2.25376396179199218750e+01) (42, -2.29575586318969726562e+00) (43, 1.13103227615356445312e+01) (44, 7.76536417007446289062e+00) (45, -2.12159194946289062500e+01) (46, -3.00125007629394531250e+01) (47, 2.96859645843505859375e+00) (48, 1.66882097721099853516e+00) (49, -1.24823510646820068359e+00) (50, -5.28801774978637695312e+00) (51, 1.74087810516357421875e+00) (52, 4.10191202163696289062e+00) (0, 8.53615283966064453125e+00) (1, -1.29413330554962158203e+00) (2, 2.33012557029724121094e+00) (3, 6.66242718696594238281e-01) (4, 1.13150081634521484375e+01) (5, -1.25941479206085205078e+00) (6, -1.37678515911102294922e+00) (7, 7.35079431533813476562e+00) (8, 1.68154168128967285156e+00) (9, 6.45454823970794677734e-01) (10, 2.75452804565429687500e+00) (11, 1.46174561977386474609e+00) (12, 2.00680017471313476562e+00) (13, -2.10243329405784606934e-01) (14, 6.83515071868896484375e-01) (15, 3.43667030334472656250e+00) (16, 9.79741454124450683594e-01) (17, -6.40167057514190673828e-01) (18, 2.34905314445495605469e+00) (19, -5.37752687931060791016e-01) (20, 5.11972093582153320312e+00) (21, 5.50152206420898437500e+00) (22, 9.07157301902770996094e-01) (23, -3.55730104446411132812e+00) (24, -3.05690217018127441406e+00) (25, -1.50963366031646728516e-01) (26, 2.79667186737060546875e+00) (27, 8.46294212341308593750e+00) (28, 3.66178417205810546875e+00) (29, 3.44590377807617187500e+00) (30, -2.16198706626892089844e+00) (31, 1.14353618621826171875e+01) (32, 1.45342311859130859375e+01) (33, -2.05964398384094238281e+00) (34, 1.84628331661224365234e+00) (35, 2.45081186294555664062e+00) (36, 5.10711765289306640625e+00) (37, 2.18734830617904663086e-01) (38, -1.06903254985809326172e+00) (39, 5.27004480361938476562e+00) (40, 4.69780158996582031250e+00) (41, -3.85444641113281250000e+00) (42, 5.53961420059204101562e+00) (43, -7.23601460456848144531e-01) (44, 7.77581930160522460938e+00) (45, -2.03821361064910888672e-01) (46, 4.30471563339233398438e+00) (47, -7.67432451248168945312e-01) (48, 3.85463166236877441406e+00) (49, 9.94162142276763916016e-01) (50, 7.43265724182128906250e+00) (51, -1.99157404899597167969e+00) (52, 2.61237072944641113281e+00) (0, 9.72329974174499511719e-01) (1, 1.58336043357849121094e+00) (2, 2.53946757316589355469e+00) (3, -2.11237096786499023438e+00) (4, 7.34325695037841796875e+00) (5, -2.45401501655578613281e+00) (6, 1.67739248275756835938e+00) (7, 7.77803242206573486328e-01) (8, 1.91787123680114746094e+00) (9, 2.40499377250671386719e-01) (10, 2.82660269737243652344e+00) (11, -8.54523703455924987793e-02) (12, 9.89373207092285156250e-01) (13, 2.59594893455505371094e+00) (14, -5.43009424209594726562e+00) (15, 3.04803967475891113281e+00) (16, 5.79484796524047851562e+00) (17, -1.83745086193084716797e+00) (18, -1.52811914682388305664e-01) (19, 1.55848777294158935547e+00) (20, -1.87522605061531066895e-01) (21, 5.41895437240600585938e+00) (22, 7.96050834655761718750e+00) (23, -1.98564493656158447266e+00) (24, -8.44413697719573974609e-01) (25, 2.42424225807189941406e+00) (26, 1.01560897827148437500e+01) (27, -1.68993878364562988281e+00) (28, -1.94538605213165283203e+00) (29, 2.06889305114746093750e+01) (30, 5.15144634246826171875e+00) (31, -1.63673329353332519531e+00) (32, 6.40757799148559570312e+00) (33, 5.06743383407592773438e+00) (34, 1.46394717693328857422e+00) (35, -4.70370960235595703125e+00) (36, 8.99777412414550781250e-02) (37, -9.79652643203735351562e-01) (38, 8.21691608428955078125e+00) (39, 5.77259242534637451172e-01) (40, 3.82617521286010742188e+00) (41, -1.50272071361541748047e+00) (42, 2.76089811325073242188e+00) (43, -1.01549625396728515625e+00) (44, 2.98549675941467285156e+00) (45, 9.41187739372253417969e-02) (46, 2.12873625755310058594e+00) (47, -7.60220408439636230469e-01) (48, 2.15516448020935058594e+00) (49, 7.00813055038452148438e-01) (50, 1.32142627239227294922e+00) (51, -9.62623357772827148438e-01) (52, 2.95861744880676269531e+00) (0, 5.01182174682617187500e+01) (1, 1.59156703948974609375e+01) (2, -2.86369201660156250000e+02) (3, 1.05382843017578125000e+01) (4, 7.48682558536529541016e-01) (5, 6.79236526489257812500e+01) (6, -9.35717163085937500000e+01) (7, 8.43280563354492187500e+01) (8, -1.02820510864257812500e+02) (9, -1.02248001098632812500e+00) (10, 5.02116432189941406250e+01) (11, 3.62503601074218750000e+02) (12, -3.26821851730346679688e+00) (13, 2.13936386108398437500e+02) (14, -1.14216667175292968750e+02) (15, 1.43222122192382812500e+02) (16, 8.07176208496093750000e+00) (17, -3.34469329833984375000e+02) (18, 9.89323196411132812500e+01) (19, 9.36547393798828125000e+01) (20, -1.83924697875976562500e+02) (21, 2.86414123535156250000e+02) (22, 3.93021202087402343750e+00) (23, 1.90867355346679687500e+02) (24, 1.04794441223144531250e+02) (25, -6.85659942626953125000e+01) (26, 2.98882476806640625000e+02) (27, 2.67678050994873046875e+01) (28, -1.80613899230957031250e+01) (29, -9.03142929077148437500e+01) (30, 1.72246093750000000000e+02) (31, 1.27246131896972656250e+02) (32, 6.35687637329101562500e+01) (33, 2.28240859985351562500e+02) (34, -1.39711700439453125000e+02) (35, 4.09624576568603515625e+00) (36, 2.14065284729003906250e+01) (37, 1.80851097106933593750e+01) (38, -1.83948028564453125000e+02) (39, 4.81056365966796875000e+02) (40, -1.87378433227539062500e+02) (41, 1.34538757324218750000e+02) (42, 1.00198097229003906250e+01) (43, 8.01420497894287109375e+00) (44, 9.43296661376953125000e+01) (45, 6.54340133666992187500e+01) (46, -2.53476364135742187500e+02) (47, 9.13250541687011718750e+00) (48, 4.59367418289184570312e+00) (49, 5.21974121093750000000e+02) (50, -1.22299560546875000000e+02) (51, 5.46620750427246093750e+01) (52, 9.06181871891021728516e-01) (0, 7.77544164657592773438e+00) (1, 8.03265476226806640625e+00) (2, -1.46301736831665039062e+01) (3, -7.36886825561523437500e+01) (4, 5.79692649841308593750e+00) (5, 5.28157997131347656250e+00) (6, -6.44203109741210937500e+01) (7, -2.94936733245849609375e+01) (8, 2.80654277801513671875e+01) (9, -6.06506271362304687500e+01) (10, 9.52762603759765625000e+00) (11, -2.32276325225830078125e+01) (12, -9.03678607940673828125e+00) (13, 7.57225952148437500000e+01) (14, -4.25065755844116210938e-01) (15, -5.41501808166503906250e+01) (16, -2.05473232269287109375e+00) (17, 1.29216361045837402344e+00) (18, 8.20650482177734375000e+00) (19, -5.50317497253417968750e+01) (20, -5.57321395874023437500e+01) (21, -7.70171051025390625000e+01) (22, -1.22472786903381347656e+00) (23, 1.06466827392578125000e+02) (24, -1.28310699462890625000e+02) (25, 9.90991897583007812500e+01) (26, -2.75612716674804687500e+01) (27, -1.02480575561523437500e+02) (28, 9.37136363983154296875e+00) (29, -3.61894714355468750000e+02) (30, -1.31515350341796875000e+02) (31, 1.53559026718139648438e+01) (32, 2.90623779296875000000e+01) (33, 7.28378829956054687500e+01) (34, -1.17983955383300781250e+02) (35, -9.68819808959960937500e+01) (36, 5.14943981170654296875e+00) (37, 1.97745056152343750000e+01) (38, -4.70682001113891601562e+00) (39, -1.27526092529296875000e+01) (40, -5.96369600296020507812e+00) (41, 5.81715011596679687500e+01) (42, -6.76467597484588623047e-01) (43, -5.91799850463867187500e+01) (44, -7.74557800292968750000e+01) (45, 5.93146133422851562500e+01) (46, -1.00909576416015625000e+02) (47, 5.86331033706665039062e+00) (48, -2.54281311035156250000e+02) (49, 6.27705688476562500000e+01) (50, -9.97203063964843750000e+01) (51, 5.31184291839599609375e+00) (52, 3.27216935157775878906e+00) (0, 7.41835546493530273438e+00) (1, 2.05065703392028808594e+00) (2, 3.34614229202270507812e+00) (3, -3.47519063949584960938e+00) (4, 8.92885971069335937500e+00) (5, 1.14758110046386718750e+01) (6, -9.57173705101013183594e-02) (7, -5.13890886306762695312e+00) (8, 1.22120018005371093750e+01) (9, 2.36972188949584960938e+00) (10, -3.16596603393554687500e+00) (11, 1.92309415340423583984e+00) (12, 5.30681419372558593750e+00) (13, -5.33030652999877929688e+00) (14, 2.62593460083007812500e+00) (15, 3.90236759185791015625e+00) (16, -3.14201498031616210938e+00) (17, 1.17081317901611328125e+01) (18, -6.43631517887115478516e-01) (19, 2.94219899177551269531e+00) (20, 1.88408643007278442383e-02) (21, -2.82896685600280761719e+00) (22, 2.30806875228881835938e+00) (23, 1.52291965484619140625e+00) (24, 8.84672451019287109375e+00) (25, -6.83423852920532226562e+00) (26, 4.26000404357910156250e+00) (27, 9.32310962677001953125e+00) (28, 2.29952163696289062500e+01) (29, -2.27095985412597656250e+00) (30, 3.45218729972839355469e+00) (31, -2.22676086425781250000e+00) (32, 6.02219963073730468750e+00) (33, -1.74898765981197357178e-02) (34, 3.44776725769042968750e+00) (35, -2.30092716217041015625e+00) (36, 9.58284950256347656250e+00) (37, -3.54462313652038574219e+00) (38, 3.45437622070312500000e+00) (39, -1.11082637310028076172e+00) (40, -3.62934160232543945312e+00) (41, 1.54383831024169921875e+01) (42, 7.16008901596069335938e+00) (43, -1.96398711204528808594e+00) (44, 1.24528074264526367188e+00) (45, 2.15518862009048461914e-01) (46, 4.59758758544921875000e+00) (47, -6.75015628337860107422e-01) (48, -8.08487951755523681641e-01) (49, 3.78045380115509033203e-01) (50, 1.39919161796569824219e+00) (51, 2.21659755706787109375e+00) (52, 2.78048348426818847656e+00) (0, -4.05845355987548828125e+00) (1, -7.73821411132812500000e+01) (2, 3.95309143066406250000e+01) (3, 7.78881835937500000000e+01) (4, 2.27509136199951171875e+01) (5, 8.56068992614746093750e+00) (6, 3.67937564849853515625e-01) (7, -1.13773880004882812500e+02) (8, 6.21126461029052734375e+00) (9, 9.34004135131835937500e+01) (10, 6.83090865612030029297e-01) (11, -2.97790431976318359375e+01) (12, 1.41989761352539062500e+02) (13, 3.95896148681640625000e+01) (14, -6.13514661788940429688e+00) (15, -7.35986175537109375000e+01) (16, 5.74105456471443176270e-02) (17, -6.94349670410156250000e+01) (18, 5.36472282409667968750e+01) (19, 2.01191101074218750000e+01) (20, 8.94773483276367187500e+01) (21, -5.02541923522949218750e+01) (22, -4.50587387084960937500e+01) (23, 1.23432464599609375000e+02) (24, -6.33876657485961914062e+00) (25, 8.57839813232421875000e+01) (26, -4.47063102722167968750e+01) (27, -6.76442205905914306641e-01) (28, 5.14081726074218750000e+02) (29, 1.86101562500000000000e+02) (30, -1.52693548202514648438e+01) (31, -1.29215288162231445312e+00) (32, -1.38408004760742187500e+02) (33, 4.81004104614257812500e+01) (34, 2.41121826171875000000e+01) (35, -5.13296661376953125000e+01) (36, 2.25809890747070312500e+02) (37, 2.89978504180908203125e+01) (38, -7.00661087036132812500e+01) (39, 1.33592724800109863281e+00) (40, -9.90285034179687500000e+01) (41, 1.81417602539062500000e+02) (42, -3.00252103805541992188e+00) (43, 5.94703979492187500000e+01) (44, 8.38671588897705078125e+00) (45, -2.11169158935546875000e+02) (46, -2.83008486032485961914e-01) (47, 3.38979568481445312500e+01) (48, -1.39622802734375000000e+02) (49, 2.56697392463684082031e+00) (50, 1.39346380233764648438e+01) (51, 9.52794361114501953125e+00) (52, 1.25062358379364013672e+00) (0, -8.73571395874023437500e-01) (1, -4.52968239784240722656e-01) (2, 2.05246195197105407715e-01) (3, -2.00091886520385742188e+00) (4, -7.64402198791503906250e+00) (5, 4.04066514968872070312e+00) (6, -4.79528236389160156250e+00) (7, 1.94464576244354248047e+00) (8, 1.02168903350830078125e+01) (9, 5.47410130500793457031e-01) (10, -9.37284946441650390625e+00) (11, -1.51444807052612304688e+01) (12, 6.97119235992431640625e+00) (13, 2.66740775108337402344e+00) (14, -6.39054250717163085938e+00) (15, -8.46592330932617187500e+00) (16, 1.82643210887908935547e+00) (17, 2.55645227432250976562e+00) (18, 2.04926639795303344727e-01) (19, -2.05404243469238281250e+01) (20, -2.72800624370574951172e-02) (21, -4.80688285827636718750e+00) (22, -5.94546508789062500000e+00) (23, 6.47218370437622070312e+00) (24, 3.17561697959899902344e+00) (25, 1.47252166271209716797e+00) (26, -1.13696737289428710938e+01) (27, -2.47477698326110839844e+00) (28, 9.36198806762695312500e+00) (29, -8.26115322113037109375e+00) (30, -4.29008674621582031250e+00) (31, -3.93000721931457519531e-01) (32, -9.58267974853515625000e+00) (33, 4.09134435653686523438e+00) (34, -5.07831954956054687500e+00) (35, 3.49080824851989746094e+00) (36, -2.17768001556396484375e+01) (37, -4.39804792404174804688e+00) (38, -2.71059900522232055664e-01) (39, 8.61515617370605468750e+00) (40, -5.99762821197509765625e+00) (41, 4.06587362289428710938e+00) (42, -2.61130619049072265625e+00) (43, 4.31675720214843750000e+00) (44, -3.01313934326171875000e+01) (45, 2.15251827239990234375e+00) (46, -1.94612395763397216797e+00) (47, 3.31994628906250000000e+00) (48, -2.32524871826171875000e+00) (49, 5.21249628067016601562e+00) (50, -6.35672140121459960938e+00) (51, 2.99011349678039550781e+00) (52, 3.98411154747009277344e+00) (0, -1.38109798431396484375e+01) (1, 2.32469444274902343750e+01) (2, 2.60288143157958984375e+00) (3, 7.91620178222656250000e+01) (4, 4.68216657638549804688e+00) (5, 2.37990093231201171875e+01) (6, 1.53260021209716796875e+01) (7, -1.52677116394042968750e+01) (8, -2.04364624023437500000e+01) (9, 1.37939891815185546875e+01) (10, 3.25521774291992187500e+01) (11, 7.12748765945434570312e+00) (12, -2.41557526588439941406e+00) (13, -1.11664495468139648438e+01) (14, 2.51900081634521484375e+01) (15, 2.52909698486328125000e+01) (16, 2.21936845779418945312e+00) (17, 2.58138366699218750000e+02) (18, -3.94722633361816406250e+01) (19, 1.74169830322265625000e+02) (20, 3.87833518981933593750e+01) (21, 4.56949539184570312500e+01) (22, -2.20331745147705078125e+01) (23, 3.45816636085510253906e+00) (24, -3.23597030639648437500e+01) (25, 4.61147880554199218750e+01) (26, 1.75713043212890625000e+02) (27, -1.17902886867523193359e+00) (28, -2.32403774261474609375e+01) (29, 1.81855148315429687500e+02) (30, 5.09553289413452148438e+00) (31, 3.50870704650878906250e+01) (32, 4.55610704421997070312e+00) (33, -6.63287887573242187500e+01) (34, 4.83535652160644531250e+01) (35, 1.96982746124267578125e+01) (36, 1.79651626586914062500e+02) (37, 1.32189140319824218750e+01) (38, -1.14920148849487304688e+01) (39, 9.62957191467285156250e+00) (40, 8.13725662231445312500e+01) (41, 9.88190889358520507812e-01) (42, 6.12834587097167968750e+01) (43, -3.38566856384277343750e+01) (44, 4.13266525268554687500e+01) (45, -1.66879737377166748047e+00) (46, 7.45518112182617187500e+01) (47, -1.85948810577392578125e+01) (48, 7.06992568969726562500e+01) (49, -1.18079376220703125000e+00) (50, 5.58977355957031250000e+01) (51, -1.63750019073486328125e+01) (52, -1.28093338012695312500e+00) (0, 2.74406743049621582031e+00) (1, 2.57990032434463500977e-01) (2, 7.61630892753601074219e-01) (3, 2.84868431091308593750e+00) (4, 1.02416872978210449219e+00) (5, 8.64342021942138671875e+00) (6, 2.29951953887939453125e+01) (7, -1.03581962585449218750e+01) (8, 2.33050251007080078125e+00) (9, -5.13383722305297851562e+00) (10, 1.07742691040039062500e+01) (11, 4.20957231521606445312e+00) (12, -1.24733524322509765625e+01) (13, 1.44196188449859619141e+00) (14, 7.68604564666748046875e+00) (15, 2.42242527008056640625e+01) (16, -3.05288940668106079102e-01) (17, 9.19776725769042968750e+00) (18, -6.29222393035888671875e+00) (19, 1.53981914520263671875e+01) (20, 1.64762783050537109375e+00) (21, 1.69657936096191406250e+01) (22, -1.81054723262786865234e+00) (23, -3.70245158672332763672e-01) (24, -1.13421211242675781250e+01) (25, 4.96304178237915039062e+00) (26, -3.26265168190002441406e+00) (27, 4.13882732391357421875e+00) (28, -1.31776809692382812500e-01) (29, 2.44309539794921875000e+01) (30, 2.05352163314819335938e+00) (31, -2.23705315589904785156e+00) (32, -1.58916965126991271973e-01) (33, -3.24137520790100097656e+00) (34, 9.58105087280273437500e+00) (35, 1.83875083923339843750e+00) (36, 8.27865123748779296875e+00) (37, -6.06495523452758789062e+00) (38, 7.68412351608276367188e+00) (39, -7.81609773635864257812e-01) (40, -9.40844249725341796875e+00) (41, 1.04496555328369140625e+01) (42, 1.66890454292297363281e+00) (43, 9.78742408752441406250e+00) (44, -7.01432514190673828125e+00) (45, 2.29977637529373168945e-01) (46, 6.81545209884643554688e+00) (47, 3.68123626708984375000e+00) (48, 1.15131320953369140625e+01) (49, -7.02731704711914062500e+00) (50, 1.19854688644409179688e+01) (51, -1.75467431545257568359e+00) (52, 1.59972417354583740234e+00) (0, 1.53657293319702148438e+00) (1, -5.64547240734100341797e-01) (2, 8.80305004119873046875e+00) (3, 1.72137951850891113281e+00) (4, 1.09576153755187988281e+00) (5, 3.30210256576538085938e+00) (6, 7.19667732715606689453e-01) (7, 4.32051229476928710938e+00) (8, 6.64815902709960937500e+00) (9, 8.19847583770751953125e-01) (10, 1.62254095077514648438e+00) (11, 7.71450519561767578125e-01) (12, 4.07619762420654296875e+00) (13, 2.16013097763061523438e+00) (14, -1.07784152030944824219e-01) (15, 1.38806784152984619141e+00) (16, -1.89509356021881103516e+00) (17, 6.37767410278320312500e+00) (18, 5.04928350448608398438e-01) (19, 1.43056559562683105469e+00) (20, -4.30339902639389038086e-01) (21, 7.18270587921142578125e+00) (22, -1.15760767459869384766e+00) (23, 3.22330355644226074219e+00) (24, -1.41884267330169677734e-01) (25, 2.10219097137451171875e+00) (26, 9.61617469787597656250e+00) (27, -9.47202146053314208984e-02) (28, 3.82278060913085937500e+00) (29, 5.03049850463867187500e+00) (30, -1.38246464729309082031e+00) (31, 1.93457269668579101562e+00) (32, 1.65816497802734375000e+01) (33, 6.52219057083129882812e+00) (34, -1.73328380584716796875e+01) (35, 1.34307422637939453125e+01) (36, 2.16807198524475097656e+00) (37, 1.45312726497650146484e+00) (38, 5.41709804534912109375e+00) (39, -1.43144714832305908203e+00) (40, 2.69815731048583984375e+00) (41, 1.39701330661773681641e+00) (42, 1.42846040725708007812e+01) (43, -4.67387247085571289062e+00) (44, 3.19384026527404785156e+00) (45, 1.02537059783935546875e+01) (46, 4.83407115936279296875e+00) (47, -2.80813622474670410156e+00) (48, 3.06359219551086425781e+00) (49, 2.10090255737304687500e+00) (50, 1.13797998428344726562e+01) (51, -3.29238510131835937500e+00) (52, 2.39585113525390625000e+00) (0, 6.87742853164672851562e+00) (1, -1.88913154602050781250e+01) (2, 3.37201356887817382812e+00) (3, 1.43479204177856445312e+01) (4, 8.86256122589111328125e+00) (5, -1.23725736141204833984e+00) (6, -8.38866043090820312500e+00) (7, 1.39955549240112304688e+01) (8, -6.76372826099395751953e-01) (9, 1.18787729740142822266e+00) (10, -1.85649657249450683594e+00) (11, 8.96757411956787109375e+00) (12, -5.38532972335815429688e-01) (13, -3.29533243179321289062e+00) (14, 2.04647159576416015625e+01) (15, 1.18612051010131835938e+00) (16, -1.01373758316040039062e+01) (17, 4.07225608825683593750e+00) (18, 1.03549022674560546875e+01) (19, -3.16218048334121704102e-01) (20, -1.69026775360107421875e+01) (21, 4.85758066177368164062e+00) (22, 2.52383003234863281250e+01) (23, 1.65871906280517578125e+00) (24, -7.06329011917114257812e+00) (25, 1.68518772125244140625e+01) (26, -2.98932886123657226562e+00) (27, -3.20831823348999023438e+00) (28, -6.65962815284729003906e-01) (29, -2.41852989196777343750e+01) (30, 1.44419050216674804688e+01) (31, -2.43466305732727050781e+00) (32, 2.54934692382812500000e+00) (33, -1.25562000274658203125e+01) (34, 2.09191322326660156250e+01) (35, -7.91341304779052734375e-01) (36, 2.71974124908447265625e+01) (37, 4.99163246154785156250e+00) (38, 3.19833564758300781250e+00) (39, -1.17489690780639648438e+01) (40, 1.48049058914184570312e+01) (41, -3.39619789123535156250e+01) (42, 8.36697196960449218750e+00) (43, -3.25389951467514038086e-01) (44, 1.02463140487670898438e+01) (45, -2.60534324645996093750e+01) (46, 3.92372369766235351562e+00) (47, 4.55466175079345703125e+00) (48, 2.55071983337402343750e+01) (49, -1.15363674163818359375e+01) (50, 9.96727848052978515625e+00) (51, -2.95903491973876953125e+00) (52, 8.13520252704620361328e-01) (0, 7.65875816345214843750e-01) (1, 2.58116054534912109375e+00) (2, 4.58959007263183593750e+00) (3, 2.13065981864929199219e+00) (4, 3.42966437339782714844e+00) (5, 5.79563665390014648438e+00) (6, 6.05326318740844726562e+00) (7, -4.90848875045776367188e+00) (8, 3.37902593612670898438e+00) (9, 5.38342654705047607422e-01) (10, -1.26535260677337646484e+00) (11, 7.41428041458129882812e+00) (12, -5.42888689041137695312e+00) (13, 6.83251762390136718750e+00) (14, 1.16384124755859375000e+01) (15, 8.21745991706848144531e-01) (16, 8.54380893707275390625e+00) (17, -2.43461551666259765625e+01) (18, 1.14679384231567382812e+01) (19, 7.57544517517089843750e+00) (20, 2.47347101569175720215e-01) (21, 3.30871963500976562500e+01) (22, 5.66023230552673339844e-01) (23, -2.65574544668197631836e-01) (24, -3.14600133895874023438e+00) (25, 4.12525415420532226562e+00) (26, -1.04803323745727539062e+01) (27, 2.69561023712158203125e+01) (28, 1.28374648094177246094e+00) (29, 2.92348289489746093750e+00) (30, 1.11817321777343750000e+01) (31, -6.59703016281127929688e+00) (32, 1.21028697490692138672e+00) (33, 1.66728763580322265625e+01) (34, -2.04050493240356445312e+00) (35, 6.57912397384643554688e+00) (36, 1.83001403808593750000e+01) (37, -8.72680664062500000000e+00) (38, 6.71213436126708984375e+00) (39, 5.60409784317016601562e+00) (40, 3.28830623626708984375e+00) (41, 1.04100131988525390625e+00) (42, 1.20243234634399414062e+01) (43, -2.64389967918395996094e+00) (44, 3.09025669097900390625e+00) (45, -8.90138721466064453125e+00) (46, 1.07313861846923828125e+01) (47, 1.26477801799774169922e+00) (48, 1.09151945114135742188e+01) (49, 3.23273801803588867188e+00) (50, 1.11690855026245117188e+01) (51, -6.81022882461547851562e+00) (52, 2.37956809997558593750e+00) (0, -3.33026528358459472656e+00) (1, 1.59499950408935546875e+01) (2, 2.85030937194824218750e+01) (3, -4.62189598083496093750e+01) (4, 5.82616376876831054688e+00) (5, 3.60885560512542724609e-01) (6, 2.00372867584228515625e+01) (7, -3.94290122985839843750e+01) (8, -1.46261620521545410156e+00) (9, 2.09198875427246093750e+01) (10, 1.00449008941650390625e+01) (11, -1.35732994079589843750e+01) (12, -1.59640038013458251953e+00) (13, 3.94738693237304687500e+01) (14, 8.26143932342529296875e+00) (15, -2.55150489807128906250e+01) (16, -9.97850656509399414062e-01) (17, -3.40297269821166992188e+00) (18, 7.18311691284179687500e+01) (19, -3.32990312576293945312e+00) (20, 1.35587219238281250000e+02) (21, -1.41566833496093750000e+02) (22, -1.22105944156646728516e+00) (23, 1.30374040603637695312e+01) (24, 1.07030456542968750000e+02) (25, -1.86468181610107421875e+01) (26, -6.24989748001098632812e+00) (27, 5.96550445556640625000e+01) (28, 6.37326431274414062500e+01) (29, 3.84214687347412109375e+00) (30, -2.14622631072998046875e+01) (31, 2.47667360305786132812e+00) (32, 4.60980272293090820312e+00) (33, 5.30481681823730468750e+01) (34, -2.48048114776611328125e+01) (35, 1.72033703327178955078e+00) (36, 7.17805175781250000000e+01) (37, -8.13263511657714843750e+00) (38, 1.16416950225830078125e+01) (39, -6.40523767471313476562e+00) (40, 2.04887080192565917969e+00) (41, 3.63566322326660156250e+01) (42, 1.46957635879516601562e+00) (43, -1.01289339065551757812e+01) (44, -1.72597618103027343750e+01) (45, -7.04238319396972656250e+00) (46, 1.32068967819213867188e+00) (47, 4.86756553649902343750e+01) (48, -1.62255268096923828125e+01) (49, -1.57265245914459228516e+00) (50, -1.48798978328704833984e+00) (51, 4.11198844909667968750e+01) (52, 3.98273611068725585938e+00) (0, -1.31105087280273437500e+02) (1, 1.61739303588867187500e+02) (2, -8.82495212554931640625e+00) (3, 8.04526748657226562500e+01) (4, -2.90793266296386718750e+01) (5, 3.90075866699218750000e+02) (6, -6.77501068115234375000e+01) (7, 3.54276771545410156250e+01) (8, -2.61787231445312500000e+02) (9, 1.06636734008789062500e+01) (10, 3.65314147949218750000e+02) (11, 4.97432250976562500000e+02) (12, -5.24935852050781250000e+02) (13, -2.75272369384765625000e+00) (14, 4.90905609130859375000e+02) (15, 1.21215576171875000000e+03) (16, -1.13580141067504882812e+01) (17, 5.21157897949218750000e+02) (18, 7.99921813964843750000e+02) (19, -1.26095985412597656250e+02) (20, 3.78282966613769531250e+01) (21, 7.45417175292968750000e+01) (22, -2.19866638183593750000e+02) (23, 2.29965710639953613281e+00) (24, -5.11184158325195312500e+01) (25, 1.25001330566406250000e+03) (26, 2.63566955566406250000e+02) (27, -3.35360534667968750000e+02) (28, 1.50000000000000000000e+03) (29, 2.40487457275390625000e+02) (30, -2.21612304687500000000e+02) (31, -8.24512390136718750000e+02) (32, 1.07965063476562500000e+03) (33, -3.84036010742187500000e+02) (34, 1.12181425094604492188e+01) (35, 1.42719697952270507812e+01) (36, 6.56426940917968750000e+02) (37, -2.47816101074218750000e+02) (38, 1.85054199218750000000e+02) (39, -2.16827545166015625000e+02) (40, 1.90265579223632812500e+02) (41, -5.42051452636718750000e+02) (42, 4.61040985107421875000e+02) (43, -8.89727478027343750000e+02) (44, 4.84040649414062500000e+02) (45, 1.08027286529541015625e+01) (46, 5.66939941406250000000e+02) (47, -3.33404205322265625000e+02) (48, 7.84881134033203125000e+01) (49, -2.47855957031250000000e+02) (50, 5.37642883300781250000e+02) (51, -1.50932006835937500000e+01) (52, 1.27132785320281982422e+00) (0, -2.66572046279907226562e+00) (1, 1.37986755371093750000e+01) (2, -3.01461100578308105469e+00) (3, 1.08154659271240234375e+01) (4, -6.73359632492065429688e+00) (5, 2.49867844581604003906e+00) (6, 2.92147946357727050781e+00) (7, 1.19208230972290039062e+01) (8, 8.20505023002624511719e-01) (9, -1.42881643772125244141e+00) (10, -3.93383294343948364258e-01) (11, 5.83962535858154296875e+00) (12, 1.15272521972656250000e+01) (13, -2.89930391311645507812e+00) (14, 1.21696224212646484375e+01) (15, -1.96009373664855957031e+00) (16, 2.49385595321655273438e+00) (17, 3.68976593017578125000e-01) (18, -4.97067356109619140625e+00) (19, 9.24397277832031250000e+00) (20, -3.80926942825317382812e+00) (21, 1.10119047164916992188e+01) (22, 1.85224330425262451172e+00) (23, -2.58058458566665649414e-02) (24, -1.54793274402618408203e+00) (25, 7.67327070236206054688e+00) (26, 1.28937733173370361328e+00) (27, -7.72846317291259765625e+00) (28, -9.24851512908935546875e+00) (29, 1.45813064575195312500e+01) (30, 2.43910169601440429688e+00) (31, 1.44929285049438476562e+01) (32, 1.80597507953643798828e+00) (33, -1.00536470413208007812e+01) (34, 7.16096162796020507812e+00) (35, 3.74619293212890625000e+00) (36, -4.99520808458328247070e-01) (37, -2.38362073898315429688e+00) (38, 1.14947509765625000000e+00) (39, 6.89923000335693359375e+00) (40, 1.00455493927001953125e+01) (41, 4.70433616638183593750e+00) (42, -6.16652607917785644531e-01) (43, -2.35467982292175292969e+00) (44, 5.35607051849365234375e+00) (45, -4.91953802108764648438e+00) (46, 1.13734827041625976562e+01) (47, -3.49570012092590332031e+00) (48, 5.08932065963745117188e+00) (49, 9.16152074933052062988e-02) (50, 4.92042589187622070312e+00) (51, -5.17885684967041015625e+00) (52, 2.12711739540100097656e+00) (0, 1.80357694625854492188e+00) (1, 1.31354568481445312500e+02) (2, 2.12179244995117187500e+02) (3, -5.18168029785156250000e+01) (4, 1.79481475830078125000e+02) (5, 1.42639884948730468750e+01) (6, -4.75772809982299804688e+00) (7, -5.79733180999755859375e+00) (8, 7.68793411254882812500e+01) (9, 1.52521717548370361328e+00) (10, 2.08748657226562500000e+02) (11, -2.38128280639648437500e+01) (12, 4.70085510253906250000e+02) (13, -1.17975311279296875000e+02) (14, 2.87707977294921875000e+02) (15, 9.49884891510009765625e+00) (16, 2.55619640350341796875e+01) (17, 1.76900272369384765625e+01) (18, -1.96200668334960937500e+02) (19, 1.12701660156250000000e+03) (20, 1.49503421783447265625e+01) (21, 3.96157653808593750000e+02) (22, -3.22807342529296875000e+02) (23, 3.31988861083984375000e+02) (24, 1.16778709411621093750e+02) (25, -7.58883972167968750000e+01) (26, 1.42138046264648437500e+02) (27, 4.57939636230468750000e+02) (28, 9.29943084716796875000e+01) (29, 1.07618377685546875000e+02) (30, -6.09025726318359375000e+01) (31, 2.98037700653076171875e+01) (32, 2.58030395507812500000e+02) (33, 8.98218765258789062500e+01) (34, 1.09400379657745361328e+00) (35, -1.14145412445068359375e+01) (36, 4.11837524414062500000e+02) (37, 3.09504974365234375000e+02) (38, -7.30223541259765625000e+01) (39, 2.51049308776855468750e+01) (40, 6.02933540344238281250e+01) (41, 1.33415908813476562500e+01) (42, 2.42802810668945312500e+02) (43, -8.02009811401367187500e+01) (44, -5.49988365173339843750e+01) (45, 4.33286972045898437500e+01) (46, 1.46747390747070312500e+02) (47, 6.01526641845703125000e+00) (48, 7.67143392562866210938e+00) (49, 2.44976364135742187500e+02) (50, 5.99810256958007812500e+01) (51, -1.50299253463745117188e+01) (52, -9.84925389289855957031e-01) (0, 2.03965950012207031250e+01) (1, -2.39296138286590576172e-01) (2, -1.71221523284912109375e+01) (3, 2.20887374877929687500e+01) (4, 1.21780920028686523438e+01) (5, -4.94249105453491210938e+00) (6, 1.13192090988159179688e+01) (7, 3.04008930921554565430e-01) (8, 1.96504282951354980469e+00) (9, 1.04492921829223632812e+01) (10, 5.74887371063232421875e+00) (11, -4.50496149063110351562e+00) (12, 6.10527515411376953125e+00) (13, 2.00105524063110351562e+00) (14, 1.18093490600585937500e+01) (15, -5.01365470886230468750e+00) (16, 1.22746539115905761719e+00) (17, 7.62313461303710937500e+00) (18, -5.09135341644287109375e+00) (19, 2.98689689636230468750e+01) (20, 1.55687764286994934082e-01) (21, 1.27632284164428710938e+01) (22, 4.34748077392578125000e+01) (23, -6.17337083816528320312e+00) (24, 2.24283523559570312500e+01) (25, -2.53905892372131347656e+00) (26, -1.19200592041015625000e+01) (27, 3.33804206848144531250e+01) (28, 4.82091760635375976562e+00) (29, 4.57929658889770507812e+00) (30, 6.15316629409790039062e+00) (31, -1.66630401611328125000e+01) (32, 1.45698242187500000000e+01) (33, -1.59488475322723388672e+00) (34, -2.75784039497375488281e+00) (35, 2.41563644409179687500e+01) (36, 2.00664005279541015625e+01) (37, -9.26618576049804687500e+00) (38, 1.71880054473876953125e+00) (39, 1.58049316406250000000e+01) (40, 1.17055149078369140625e+01) (41, -1.41058645248413085938e+01) (42, 1.34438629150390625000e+01) (43, 1.01951994001865386963e-01) (44, -2.96826133728027343750e+01) (45, 5.25209569931030273438e+00) (46, 1.22218542098999023438e+01) (47, 4.67478895187377929688e+00) (48, 5.22913169860839843750e+00) (49, -1.45613222122192382812e+01) (50, 2.41708965301513671875e+01) (51, -7.84550070762634277344e-01) (52, 2.27229237556457519531e+00) (0, -5.33081722259521484375e+00) (1, 2.75460553169250488281e+00) (2, -1.17305574417114257812e+01) (3, 1.45318543910980224609e+00) (4, 2.58063054084777832031e+00) (5, -3.71829509735107421875e+00) (6, 2.53629773855209350586e-01) (7, -8.89267253875732421875e+00) (8, -9.98648226261138916016e-01) (9, 1.95633602142333984375e+00) (10, -9.50241565704345703125e+00) (11, -5.67489564418792724609e-01) (12, -3.38811039924621582031e+00) (13, 3.16372442245483398438e+00) (14, -2.83075599670410156250e+01) (15, -8.62574219703674316406e-01) (16, 2.90657711029052734375e+00) (17, -6.76009988784790039062e+00) (18, -1.34809474945068359375e+01) (19, 2.52639222145080566406e+00) (20, 3.03234505653381347656e+00) (21, -1.65433251857757568359e+00) (22, 1.57341408729553222656e+00) (23, -5.51340055465698242188e+00) (24, -3.34580016136169433594e+00) (25, 7.23733723163604736328e-01) (26, -4.93979007005691528320e-01) (27, -2.04431152343750000000e+00) (28, 5.46081662178039550781e-01) (29, -3.42374920845031738281e+00) (30, -1.03948339819908142090e-01) (31, -1.81139316558837890625e+01) (32, -3.32841897010803222656e+00) (33, 2.68563175201416015625e+00) (34, -2.97853446006774902344e+00) (35, -1.47807407379150390625e+00) (36, -7.16543054580688476562e+00) (37, 8.73470664024353027344e-01) (38, -1.55946898460388183594e+00) (39, 8.26603055000305175781e-01) (40, -1.00074977874755859375e+01) (41, -4.09053742885589599609e-01) (42, -1.36771285533905029297e+00) (43, 2.49828886985778808594e+00) (44, -8.12239360809326171875e+00) (45, -1.84687185287475585938e+00) (46, -5.13781547546386718750e+00) (47, 4.61695003509521484375e+00) (48, -1.89695668220520019531e+00) (49, 1.03150854110717773438e+01) (50, -1.02774226665496826172e+00) (51, -5.51721191406250000000e+00) (52, 4.55228090286254882812e+00) (0, 2.56951928138732910156e+00) (1, -1.65053829550743103027e-01) (2, -1.80793857574462890625e+00) (3, 6.21390342712402343750e+00) (4, -2.39628243446350097656e+00) (5, 6.01516366004943847656e-01) (6, 9.32414531707763671875e+00) (7, 1.08362364768981933594e+00) (8, 2.93350100517272949219e-01) (9, 5.34466886520385742188e+00) (10, 1.00053048133850097656e+00) (11, 5.87675154209136962891e-01) (12, -2.59390264749526977539e-01) (13, 3.28441381454467773438e+00) (14, -8.02305316925048828125e+00) (15, 1.31332654953002929688e+01) (16, -4.14339780807495117188e+00) (17, 6.45525217056274414062e+00) (18, -2.59153556823730468750e+00) (19, 1.67887458801269531250e+01) (20, -1.50057482719421386719e+00) (21, 3.02540626525878906250e+01) (22, 8.80431270599365234375e+00) (23, -4.41287803649902343750e+00) (24, 1.63261718750000000000e+01) (25, 7.29682111740112304688e+00) (26, 3.21068000793457031250e+00) (27, -1.72803554534912109375e+01) (28, 9.83082771301269531250e+00) (29, -2.63475227355957031250e+00) (30, 2.25698184967041015625e+00) (31, -3.30112195014953613281e+00) (32, 1.29571228027343750000e+01) (33, -2.17948722839355468750e+00) (34, -5.85647702217102050781e-01) (35, 3.32032799720764160156e+00) (36, -6.43661880493164062500e+00) (37, 1.89628481864929199219e+00) (38, 1.90587863922119140625e+01) (39, -3.07686281204223632812e+00) (40, 2.56408810615539550781e+00) (41, -1.02446174621582031250e+01) (42, 6.19366884231567382812e+00) (43, 4.71998882293701171875e+00) (44, 1.23807263374328613281e+00) (45, -9.60450935363769531250e+00) (46, 8.14774894714355468750e+00) (47, 9.80267286300659179688e-01) (48, 5.76255798339843750000e-01) (49, -4.52207946777343750000e+00) (50, 3.58254504203796386719e+00) (51, 4.28272914886474609375e+00) (52, 1.50168251991271972656e+00) (0, 4.03876528143882751465e-02) (1, 5.55118894577026367188e+00) (2, -4.55269050598144531250e+00) (3, -3.07799279689788818359e-01) (4, -1.78658735752105712891e+00) (5, -1.96798694133758544922e+00) (6, 1.19488871097564697266e+00) (7, 1.78655648231506347656e+00) (8, 2.18245577812194824219e+00) (9, 4.46539545059204101562e+00) (10, -6.81523859500885009766e-01) (11, -6.65754985809326171875e+00) (12, -4.30000841617584228516e-01) (13, 2.04095363616943359375e+00) (14, 7.72287464141845703125e+00) (15, -2.19490718841552734375e+00) (16, 4.20057439804077148438e+00) (17, -8.53615760803222656250e+00) (18, 1.93355154991149902344e+00) (19, 1.12748336791992187500e+00) (20, -2.21278572082519531250e+00) (21, 1.11628007888793945312e+01) (22, 4.28322982788085937500e+00) (23, -3.26147288084030151367e-01) (24, 1.28205680847167968750e+01) (25, -4.50833702087402343750e+00) (26, 1.08988199234008789062e+01) (27, -1.77117609977722167969e+00) (28, 2.68369197845458984375e+01) (29, -2.18906664848327636719e+00) (30, -2.99582099914550781250e+00) (31, 1.08827333450317382812e+01) (32, 1.74766182899475097656e+00) (33, 6.33085608482360839844e-01) (34, -1.44971299171447753906e+00) (35, 1.14022445678710937500e+00) (36, -6.09600877761840820312e+00) (37, 9.75595188140869140625e+00) (38, -2.51239800453186035156e+00) (39, 4.47883892059326171875e+00) (40, -2.64166879653930664062e+00) (41, 8.56028079986572265625e+00) (42, -2.93956851959228515625e+00) (43, 5.20098495483398437500e+00) (44, -3.22909116744995117188e-01) (45, 2.45496821403503417969e+00) (46, 2.24684290587902069092e-02) (47, 4.56037491559982299805e-01) (48, 1.08308768272399902344e+00) (49, 9.43633973598480224609e-01) (50, -4.25647258758544921875e+00) (51, 2.52133870124816894531e+00) (52, 3.96616983413696289062e+00) (0, 6.06508827209472656250e+00) (1, 2.18171787261962890625e+00) (2, 1.65618076920509338379e-01) (3, -5.27584505081176757812e+00) (4, 4.62373971939086914062e+00) (5, 3.35915207862854003906e+00) (6, -3.18424177169799804688e+00) (7, -5.22151529788970947266e-01) (8, -2.39210915565490722656e+00) (9, 3.87550902366638183594e+00) (10, -2.82184672355651855469e+00) (11, 4.03836154937744140625e+00) (12, 3.22535490989685058594e+00) (13, 5.30949926376342773438e+00) (14, -4.75144910812377929688e+00) (15, 1.07607161998748779297e+00) (16, -4.57794129848480224609e-01) (17, 3.20897388458251953125e+00) (18, 2.31875681877136230469e+00) (19, -1.38805508613586425781e-01) (20, 3.50319337844848632812e+00) (21, -4.30164575576782226562e+00) (22, -1.88417583703994750977e-01) (23, 3.49453282356262207031e+00) (24, 1.29689826965332031250e+01) (25, -3.24131965637207031250e+00) (26, 1.99078865051269531250e+01) (27, -1.39726340770721435547e+00) (28, 1.61183242797851562500e+01) (29, -2.39075541496276855469e+00) (30, -2.01068186759948730469e+00) (31, 1.80752348899841308594e+00) (32, 1.39338004589080810547e+00) (33, 1.89428157806396484375e+01) (34, -7.73332715034484863281e-01) (35, -2.45171689987182617188e+00) (36, 2.19983935356140136719e+00) (37, -1.49171561002731323242e-01) (38, -3.30902290344238281250e+00) (39, 1.67816410064697265625e+01) (40, 3.10104513168334960938e+00) (41, -8.12274837493896484375e+00) (42, 1.04837503433227539062e+01) (43, 4.28791999816894531250e-01) (44, -2.10070157051086425781e+00) (45, 6.35634183883666992188e+00) (46, -6.77908360958099365234e-01) (47, 2.57098031044006347656e+00) (48, 3.16975593566894531250e+00) (49, -1.35910832881927490234e+00) (50, -5.01089572906494140625e+00) (51, 7.68571472167968750000e+00) (52, 3.78048682212829589844e+00) (0, 1.83761215209960937500e+01) (1, 1.09902305603027343750e+01) (2, -1.28717164993286132812e+01) (3, -1.97241365909576416016e+00) (4, 9.83463478088378906250e+00) (5, 6.99955368041992187500e+00) (6, -1.51337156295776367188e+01) (7, 1.96855294704437255859e+00) (8, 2.32077083587646484375e+01) (9, -1.21809549331665039062e+01) (10, -2.96663546562194824219e+00) (11, 3.78003463745117187500e+01) (12, -2.50661802291870117188e+00) (13, -2.75364756584167480469e+00) (14, -3.68332080543041229248e-02) (15, 2.57795085906982421875e+01) (16, -1.64114129543304443359e+00) (17, 2.10099182128906250000e+01) (18, -1.56361827850341796875e+01) (19, 1.09372205734252929688e+01) (20, -6.64747297763824462891e-01) (21, 5.84417495727539062500e+01) (22, -8.69319152832031250000e+00) (23, 5.45520734786987304688e+00) (24, -6.32735824584960937500e+00) (25, 1.67784404754638671875e+01) (26, 1.86720294952392578125e+01) (27, -2.40013008117675781250e+01) (28, -1.78783931732177734375e+01) (29, 1.40417757034301757812e+01) (30, 1.60760326385498046875e+01) (31, -4.80049276351928710938e+00) (32, 3.19358825683593750000e+00) (33, -8.55135154724121093750e+00) (34, 2.16800856590270996094e+00) (35, 8.69441509246826171875e+00) (36, 1.17572116851806640625e+00) (37, 2.19014568328857421875e+01) (38, -1.68262496590614318848e-01) (39, -2.03168535232543945312e+00) (40, 8.30591738224029541016e-01) (41, -9.67255949974060058594e-01) (42, -6.97232723236083984375e-01) (43, 5.64810705184936523438e+00) (44, 2.53701534271240234375e+01) (45, 1.42243409156799316406e+00) (46, 2.46181654930114746094e+00) (47, -9.36702442169189453125e+00) (48, 5.70141410827636718750e+00) (49, -5.93996286392211914062e-01) (50, -6.58703982830047607422e-01) (51, 7.13450908660888671875e-01) (52, 1.90472662448883056641e+00) (0, 5.54962682723999023438e+00) (1, -3.83230537176132202148e-01) (2, 2.95741295814514160156e+00) (3, 1.79138556122779846191e-01) (4, 1.03615264892578125000e+01) (5, -1.44225016236305236816e-01) (6, 4.96398782730102539062e+00) (7, -3.17865800857543945312e+00) (8, 3.85378146171569824219e+00) (9, 3.09979367256164550781e+00) (10, -1.21029958724975585938e+01) (11, 1.81362495422363281250e+01) (12, 3.60861849784851074219e+00) (13, -2.00575783848762512207e-01) (14, 3.75671958923339843750e+00) (15, -5.87011054158210754395e-02) (16, 3.51250082254409790039e-01) (17, 1.53727922439575195312e+01) (18, -7.06220626831054687500e+00) (19, 9.17006301879882812500e+00) (20, 2.02915534973144531250e+01) (21, 1.39666042327880859375e+01) (22, -1.09181034564971923828e+00) (23, -2.85262274742126464844e+00) (24, -8.08776664733886718750e+00) (25, 7.88617181777954101562e+00) (26, -9.18137803673744201660e-02) (27, 2.46990799903869628906e+00) (28, 1.38872480392456054688e+00) (29, -9.64559912681579589844e-01) (30, 2.81817269325256347656e+00) (31, 1.76889741420745849609e+00) (32, 3.09229698181152343750e+01) (33, -8.02901935577392578125e+00) (34, 8.09871673583984375000e+00) (35, 1.56600511074066162109e+00) (36, 1.73249161243438720703e+00) (37, -3.00645885467529296875e+01) (38, 1.84850807189941406250e+01) (39, 1.36705312728881835938e+01) (40, 7.08908748626708984375e+00) (41, 8.61114919185638427734e-01) (42, 1.38052816390991210938e+01) (43, -1.53116483688354492188e+01) (44, 8.58161449432373046875e+00) (45, -6.04017019271850585938e+00) (46, 1.02464482188224792480e-01) (47, 5.72927856445312500000e+00) (48, 1.22318458557128906250e+01) (49, -7.66662216186523437500e+00) (50, 8.32802677154541015625e+00) (51, -5.66329717636108398438e-01) (52, 1.79116523265838623047e+00) (0, 1.64292697906494140625e+01) (1, -6.21488034725189208984e-01) (2, 5.71802735328674316406e-01) (3, -6.89822530746459960938e+00) (4, 2.34117341041564941406e+00) (5, 1.96291887760162353516e+00) (6, 4.07988166809082031250e+00) (7, -3.88303041458129882812e+00) (8, 5.90758228302001953125e+00) (9, 7.66221666336059570312e+00) (10, -4.01169300079345703125e+00) (11, -3.93527507781982421875e+00) (12, -6.15202367305755615234e-01) (13, 1.04284763336181640625e+01) (14, 7.42413949966430664062e+00) (15, -8.83724594116210937500e+00) (16, 1.56321537494659423828e+00) (17, 1.02469730377197265625e+00) (18, 1.42084336280822753906e+00) (19, -1.35848796367645263672e+00) (20, -1.14629755020141601562e+01) (21, -3.81016761064529418945e-01) (22, 3.74907445907592773438e+00) (23, 1.05027952194213867188e+01) (24, 3.37472558021545410156e+00) (25, -8.89738559722900390625e-01) (26, 2.71822762489318847656e+00) (27, -1.50505959987640380859e+00) (28, 7.77638816833496093750e+00) (29, 3.48427915573120117188e+00) (30, -7.05640840530395507812e+00) (31, 7.99650812149047851562e+00) (32, 3.04641580581665039062e+00) (33, -4.30962383747100830078e-01) (34, 7.00158309936523437500e+00) (35, -4.79979610443115234375e+00) (36, 3.61154985427856445312e+00) (37, 9.07667350769042968750e+00) (38, 5.83557081222534179688e+00) (39, -2.26407184600830078125e+01) (40, -8.87223911285400390625e+00) (41, 2.50935478210449218750e+01) (42, 6.35350275039672851562e+00) (43, 1.58261671662330627441e-01) (44, -5.12378644943237304688e+00) (45, 3.75732445716857910156e+00) (46, 4.98183584213256835938e+00) (47, 1.44357550144195556641e+00) (48, 3.95898723602294921875e+00) (49, 5.46446895599365234375e+00) (50, -8.68362236022949218750e+00) (51, 5.33956146240234375000e+00) (52, 2.47601413726806640625e+00) (0, 5.57975769042968750000e-01) (1, -8.72779750823974609375e+00) (2, 8.62440204620361328125e+00) (3, -9.64121758937835693359e-01) (4, 4.77929413318634033203e-01) (5, -1.04265958070755004883e-01) (6, 1.61344385147094726562e+00) (7, -5.65715122222900390625e+00) (8, -1.86999511718750000000e+00) (9, 3.64543795585632324219e+00) (10, -2.50507283210754394531e+00) (11, -6.24414503574371337891e-01) (12, 9.39729309082031250000e+00) (13, 2.38361930847167968750e+00) (14, -2.33584632873535156250e+01) (15, -1.09626321792602539062e+01) (16, 1.01241755485534667969e+00) (17, -2.29417181015014648438e+00) (18, 7.48843193054199218750e+00) (19, -5.19301843643188476562e+00) (20, 1.83414280414581298828e+00) (21, -8.24512672424316406250e+00) (22, -1.23910856246948242188e+00) (23, 2.31760287284851074219e+00) (24, 1.43267679214477539062e+00) (25, 3.75292372703552246094e+00) (26, -7.36456584930419921875e+00) (27, -9.01717281341552734375e+00) (28, 5.65547084808349609375e+00) (29, 4.24599796533584594727e-01) (30, -1.72187995910644531250e+00) (31, -4.11899900436401367188e+00) (32, -2.26579818725585937500e+01) (33, 2.31293082237243652344e+00) (34, -2.48746752738952636719e+00) (35, 3.23531484603881835938e+00) (36, -2.09539966583251953125e+01) (37, 1.55445054173469543457e-01) (38, 1.45392522215843200684e-01) (39, 5.92408943176269531250e+00) (40, -6.96359014511108398438e+00) (41, 9.94801044464111328125e+00) (42, -1.63829362392425537109e+00) (43, 1.31950104236602783203e+00) (44, -1.02153253555297851562e+00) (45, 4.70365571975708007812e+00) (46, 9.20262217521667480469e-01) (47, -3.39668488502502441406e+00) (48, -5.25782489776611328125e+00) (49, -5.96013927459716796875e+00) (50, 5.20575463771820068359e-01) (51, 4.39456653594970703125e+00) (52, 4.21005439758300781250e+00) (0, 1.22640550136566162109e-01) (1, 5.95892763137817382812e+00) (2, -4.59814453125000000000e+00) (3, 8.56972026824951171875e+00) (4, 5.02982091903686523438e+00) (5, 4.86346292495727539062e+00) (6, -2.62963938713073730469e+00) (7, 1.43486535549163818359e+00) (8, -9.64918196201324462891e-01) (9, 6.60420513153076171875e+00) (10, -4.72572517395019531250e+00) (11, 8.27378559112548828125e+00) (12, -6.42834138870239257812e+00) (13, -4.96838659048080444336e-01) (14, 6.69739437103271484375e+00) (15, 1.90484848022460937500e+01) (16, 2.03272604942321777344e+00) (17, 3.62645187377929687500e+01) (18, -1.48025465011596679688e+00) (19, -2.73785638809204101562e+00) (20, 3.46330022811889648438e+00) (21, -5.26921749114990234375e+00) (22, -4.15761041641235351562e+00) (23, 2.32173004150390625000e+01) (24, 4.02956104278564453125e+00) (25, -1.18639385700225830078e+00) (26, 6.64457225799560546875e+00) (27, -2.33360290527343750000e-01) (28, 5.07047605514526367188e+00) (29, -8.50174725055694580078e-01) (30, 4.72170680761337280273e-01) (31, 3.37979173660278320312e+00) (32, 2.43284296989440917969e+00) (33, -5.72571158409118652344e-01) (34, 2.54490828514099121094e+00) (35, -7.51713216304779052734e-01) (36, 5.24697065353393554688e+00) (37, -1.12116813659667968750e+00) (38, 2.86140990257263183594e+00) (39, -3.45072627067565917969e-01) (40, 9.28062057495117187500e+00) (41, 2.01783776283264160156e+00) (42, -1.03498244285583496094e+00) (43, -2.06210398674011230469e+00) (44, 1.77927231788635253906e+00) (45, -4.37409925460815429688e+00) (46, 1.61750304698944091797e+00) (47, 4.88380908966064453125e+00) (48, 1.14754180908203125000e+01) (49, 5.05366468429565429688e+00) (50, -3.41789388656616210938e+00) (51, -5.76713979244232177734e-01) (52, 2.54734063148498535156e+00) (0, 2.21985683441162109375e+01) (1, 8.66917705535888671875e+00) (2, -2.57872829437255859375e+01) (3, 3.52181930541992187500e+01) (4, 1.65771350860595703125e+01) (5, 3.07270359992980957031e+00) (6, -5.82278871536254882812e+00) (7, 1.59816551208496093750e+01) (8, 8.35493469238281250000e+00) (9, -4.69057738780975341797e-01) (10, 1.66365470886230468750e+01) (11, 4.20952171087265014648e-01) (12, 2.64294266700744628906e+00) (13, 6.71949148178100585938e+00) (14, -1.04183733463287353516e+00) (15, 5.26882934570312500000e+00) (16, -1.26647472381591796875e+01) (17, 1.84666690826416015625e+01) (18, 4.03990602493286132812e+00) (19, 1.42792205810546875000e+01) (20, -1.04879856109619140625e+01) (21, 3.28487319946289062500e+01) (22, 2.80114483833312988281e+00) (23, 2.02988739013671875000e+01) (24, 1.03416185379028320312e+01) (25, 1.78254640102386474609e+00) (26, 2.38633203506469726562e+00) (27, 4.44852304458618164062e+00) (28, -1.57491569519042968750e+01) (29, 3.52135238647460937500e+01) (30, 1.35584831237792968750e+01) (31, 6.17698020935058593750e+01) (32, 2.44352370500564575195e-01) (33, -1.87176358699798583984e+00) (34, 6.45715332031250000000e+00) (35, 9.78776073455810546875e+00) (36, 4.45826644897460937500e+01) (37, 5.25598621368408203125e+00) (38, 8.48806571960449218750e+00) (39, -6.44095849990844726562e+00) (40, 2.35422706604003906250e+01) (41, -1.45455293655395507812e+01) (42, 1.21428480148315429688e+01) (43, 1.42533254623413085938e+00) (44, 8.45226478576660156250e+00) (45, -1.19657592773437500000e+01) (46, 2.98050861358642578125e+01) (47, 3.08782839775085449219e+00) (48, 4.82791996002197265625e+00) (49, 8.71125316619873046875e+00) (50, 1.44078006744384765625e+01) (51, -2.91781830787658691406e+00) (52, 5.35736262798309326172e-01) (0, 3.67930183410644531250e+01) (1, 7.96242618560791015625e+00) (2, 3.71438026428222656250e+00) (3, -1.02209243774414062500e+02) (4, -1.32629604339599609375e+01) (5, 7.72345123291015625000e+01) (6, -3.35220870971679687500e+01) (7, 1.47573242187500000000e+02) (8, -4.16474571228027343750e+01) (9, 1.16450004577636718750e+02) (10, 1.29896560668945312500e+02) (11, -6.64939212799072265625e+00) (12, -1.14363891601562500000e+02) (13, -1.32858073711395263672e+00) (14, 4.33264343261718750000e+02) (15, 2.18538799285888671875e+01) (16, -6.81115875244140625000e+01) (17, 1.12345863342285156250e+02) (18, 7.54582738876342773438e+00) (19, 6.06345713138580322266e-01) (20, -2.31272602081298828125e+01) (21, 2.47664062500000000000e+02) (22, 1.34743394851684570312e+01) (23, 4.28388535976409912109e-01) (24, -2.66293926239013671875e+01) (25, -3.59160447120666503906e+00) (26, 2.34580993652343750000e+02) (27, 1.77037475585937500000e+02) (28, -2.50704765319824218750e+01) (29, -4.46492309570312500000e+01) (30, 1.27305908203125000000e+02) (31, 4.59810150146484375000e+02) (32, 5.56505676269531250000e+02) (33, -7.28024387359619140625e+00) (34, 5.90779838562011718750e+01) (35, -2.86464824676513671875e+01) (36, 3.52819938659667968750e+01) (37, -1.00142974853515625000e+02) (38, 3.07678165435791015625e+01) (39, -7.82079279422760009766e-01) (40, -4.07977256774902343750e+01) (41, 4.59552230834960937500e+01) (42, 2.15795257568359375000e+02) (43, -8.74424457550048828125e+00) (44, 2.35739318847656250000e+02) (45, -5.68277215957641601562e+00) (46, 3.86099548339843750000e+02) (47, -1.75067581176757812500e+02) (48, 4.50384521484375000000e+01) (49, -3.16132044792175292969e+00) (50, 4.00337005615234375000e+02) (51, -9.54666442871093750000e+01) (52, 3.63183952867984771729e-03) (0, 7.57735633850097656250e+00) (1, 1.11318368911743164062e+01) (2, 2.50326290130615234375e+01) (3, -2.10530414581298828125e+01) (4, -7.50296020507812500000e+00) (5, 1.42011156082153320312e+01) (6, 4.63930130004882812500e+00) (7, 1.84804878234863281250e+01) (8, -1.83419823646545410156e-01) (9, 2.24338359832763671875e+01) (10, 1.19088277816772460938e+01) (11, -9.68580603599548339844e-01) (12, 1.36382970809936523438e+01) (13, 5.46883821487426757812e+00) (14, 9.52636337280273437500e+00) (15, -1.02347202301025390625e+01) (16, 2.31156482696533203125e+01) (17, 6.67580223083496093750e+00) (18, -1.22025489807128906250e+01) (19, 8.43726825714111328125e+00) (20, 2.21296081542968750000e+01) (21, 3.24459800720214843750e+01) (22, -2.97645587921142578125e+01) (23, 1.86980705261230468750e+01) (24, -3.59986114501953125000e+00) (25, 1.41850814819335937500e+01) (26, 5.73968124389648437500e+01) (27, -1.57681500911712646484e+00) (28, -7.14140295982360839844e-01) (29, 4.32218980789184570312e+00) (30, 1.16545200347900390625e+01) (31, 1.33348822593688964844e+00) (32, 3.74064564704895019531e+00) (33, 4.84888601303100585938e+00) (34, 1.46410760879516601562e+01) (35, -1.01276407241821289062e+01) (36, 5.99715948104858398438e+00) (37, 5.17279291152954101562e+00) (38, 3.20442657470703125000e+01) (39, -1.35092048645019531250e+01) (40, 8.44831466674804687500e+00) (41, 8.63639450073242187500e+00) (42, 3.80347824096679687500e+01) (43, -2.13689422607421875000e+01) (44, 4.30825424194335937500e+01) (45, 2.60721945762634277344e+00) (46, 6.88247203826904296875e+00) (47, -4.87708711624145507812e+00) (48, 2.47375535964965820312e+00) (49, -1.51835298538208007812e+01) (50, 1.50206985473632812500e+01) (51, 6.42249870300292968750e+00) (52, 1.32519459724426269531e+00) (0, -1.54799437522888183594e+00) (1, 2.39998817443847656250e+00) (2, 1.82578945159912109375e+00) (3, -8.60889136791229248047e-01) (4, 3.55386376380920410156e+00) (5, 1.03004306554794311523e-01) (6, -1.09331536293029785156e+00) (7, 1.18690693378448486328e+00) (8, -1.63277912139892578125e+00) (9, 5.80590724945068359375e+00) (10, 1.25110447406768798828e+00) (11, -1.43791735172271728516e+00) (12, -3.76039004325866699219e+00) (13, 1.22991418838500976562e+00) (14, 1.88706123828887939453e+00) (15, 2.88494682312011718750e+00) (16, -7.10852241516113281250e+00) (17, 3.29742169380187988281e+00) (18, 2.72352361679077148438e+00) (19, 8.80870723724365234375e+00) (20, -9.14371490478515625000e-01) (21, 8.34728336334228515625e+00) (22, -1.44943273067474365234e+00) (23, -1.66611838340759277344e+00) (24, -3.62734651565551757812e+00) (25, 6.54296970367431640625e+00) (26, -2.67679214477539062500e+00) (27, -4.14534568786621093750e+00) (28, -3.38457250595092773438e+00) (29, 1.31040060520172119141e+00) (30, 2.18388819694519042969e+00) (31, 1.49791145324707031250e+01) (32, -5.04763936996459960938e+00) (33, -7.50562906265258789062e-01) (34, 2.89814734458923339844e+00) (35, 7.38052272796630859375e+00) (36, 4.92642402648925781250e+00) (37, 1.27373731136322021484e+00) (38, 4.91014003753662109375e-01) (39, -2.36071610450744628906e+00) (40, 5.54525661468505859375e+00) (41, 4.99362409114837646484e-01) (42, 4.55087232589721679688e+00) (43, -5.05653619766235351562e+00) (44, 9.39838695526123046875e+00) (45, -2.01000571250915527344e+00) (46, 5.12966442108154296875e+00) (47, -3.82665777206420898438e+00) (48, 9.32756721973419189453e-01) (49, -2.96077752113342285156e+00) (50, 1.71854257583618164062e+00) (51, 2.14913058280944824219e+00) (52, 3.25972318649291992188e+00) (0, -1.21241331100463867188e+00) (1, 6.19106245040893554688e+00) (2, 2.25627303123474121094e+00) (3, -2.97115445137023925781e+00) (4, -1.37501895427703857422e+00) (5, 1.55495798587799072266e+00) (6, 6.95074617862701416016e-01) (7, -5.86403787136077880859e-01) (8, 2.95457243919372558594e+00) (9, -4.49202203750610351562e+00) (10, 2.94321328401565551758e-01) (11, 1.19984455108642578125e+01) (12, 1.44672378897666931152e-01) (13, 4.90248680114746093750e+00) (14, -1.98210406303405761719e+00) (15, 1.13652527332305908203e+00) (16, 3.63542294502258300781e+00) (17, -8.78832101821899414062e-01) (18, 2.39819955825805664062e+00) (19, -2.16570591926574707031e+00) (20, -2.82656455039978027344e+00) (21, 4.17504832148551940918e-02) (22, 2.37738585472106933594e+00) (23, 7.99193668365478515625e+00) (24, 5.48136472702026367188e+00) (25, -5.04942369461059570312e+00) (26, -1.09227752685546875000e+00) (27, 1.25210914611816406250e+01) (28, 1.18445930480957031250e+01) (29, -3.72204709053039550781e+00) (30, 5.59629344940185546875e+00) (31, -3.88768577575683593750e+00) (32, 4.79067802429199218750e+00) (33, 1.18280792236328125000e+01) (34, -3.20494866371154785156e+00) (35, -1.13600158691406250000e+00) (36, -7.64267385005950927734e-01) (37, 3.41848897933959960938e+00) (38, -2.14872741699218750000e+00) (39, 5.51049995422363281250e+00) (40, -1.77997902035713195801e-01) (41, 3.25198793411254882812e+00) (42, 2.96050810813903808594e+00) (43, -1.26323592662811279297e+00) (44, 6.18509650230407714844e-01) (45, 5.86223363876342773438e+00) (46, -1.57768917083740234375e+00) (47, 2.73268246650695800781e+00) (48, 1.36958241462707519531e+00) (49, 1.83899331092834472656e+00) (50, 1.40860009193420410156e+00) (51, -5.02090901136398315430e-02) (52, 3.80215477943420410156e+00) (0, 4.29825216531753540039e-01) (1, -2.55679368972778320312e+00) (2, 4.47173786163330078125e+00) (3, -3.01902222633361816406e+00) (4, -1.88302874565124511719e+00) (5, 6.02591609954833984375e+00) (6, 6.00738823413848876953e-01) (7, -6.60248517990112304688e+00) (8, 2.25903511047363281250e+01) (9, 1.43281966447830200195e-01) (10, -4.09982061386108398438e+00) (11, -3.15723943710327148438e+00) (12, 5.70320606231689453125e+00) (13, 1.63881111145019531250e+01) (14, -4.90991592407226562500e+00) (15, -6.87673807144165039062e+00) (16, -4.04338121414184570312e+00) (17, -1.41829609870910644531e+00) (18, 1.77566299438476562500e+01) (19, -3.56368875503540039062e+00) (20, -3.41902279853820800781e+00) (21, 3.81875276565551757812e+00) (22, 4.09702873229980468750e+01) (23, -2.92779040336608886719e+00) (24, 4.66755828857421875000e+01) (25, -5.14759635925292968750e+01) (26, -1.30950963497161865234e+00) (27, 3.67177124023437500000e+01) (28, 1.64889774322509765625e+01) (29, -1.04503173828125000000e+01) (30, -4.84405070543289184570e-01) (31, -5.40462636947631835938e+00) (32, -5.78420639038085937500e+00) (33, 2.51602783203125000000e+01) (34, -1.78148956298828125000e+01) (35, 4.95601511001586914062e+00) (36, -1.01701679229736328125e+01) (37, 2.46451263427734375000e+01) (38, -7.56438636779785156250e+00) (39, 5.37604713439941406250e+00) (40, -1.30605864524841308594e+00) (41, 7.34942960739135742188e+00) (42, -1.95299549102783203125e+01) (43, 8.36651229858398437500e+00) (44, 4.10464811325073242188e+00) (45, -1.09016447067260742188e+01) (46, -2.85540246963500976562e+00) (47, 6.85899114608764648438e+00) (48, -8.66280555725097656250e+00) (49, 2.15864524841308593750e+01) (50, -5.49571704864501953125e+00) (51, 1.60212440490722656250e+01) (52, 4.38154602050781250000e+00) (0, 2.30636191368103027344e+00) (1, -2.93303942680358886719e+00) (2, 8.64394187927246093750e+00) (3, -2.07918310165405273438e+00) (4, -5.62278079986572265625e+00) (5, 8.15519428253173828125e+00) (6, 9.83012294769287109375e+00) (7, -9.72562789916992187500e+00) (8, 2.13389587402343750000e+01) (9, 4.89725828170776367188e+00) (10, -4.88675928115844726562e+00) (11, -3.64288401603698730469e+00) (12, 1.27217423915863037109e+00) (13, 1.45375928878784179688e+01) (14, 6.08233404159545898438e+00) (15, -2.14351387023925781250e+01) (16, 6.82759857177734375000e+00) (17, 8.12180042266845703125e+00) (18, -1.16511144638061523438e+01) (19, 5.24025082588195800781e-01) (20, -4.79564040899276733398e-01) (21, 1.18502597808837890625e+01) (22, 7.03298044204711914062e+00) (23, -3.91595196723937988281e+00) (24, -9.05441951751708984375e+00) (25, 3.31642417907714843750e+01) (26, 7.26368331909179687500e+00) (27, -4.63254547119140625000e+00) (28, 1.44157657623291015625e+01) (29, -7.06466257572174072266e-01) (30, -8.04701223969459533691e-02) (31, -4.97701263427734375000e+00) (32, -6.09250402450561523438e+00) (33, 1.31015415191650390625e+01) (34, -1.34251852035522460938e+01) (35, 1.77952823638916015625e+01) (36, -7.81663656234741210938e+00) (37, 1.14039249420166015625e+01) (38, 4.43486928939819335938e+00) (39, -6.62447214126586914062e+00) (40, 8.09475994110107421875e+00) (41, 1.79808788299560546875e+01) (42, -6.15228176116943359375e+00) (43, 8.18628489971160888672e-01) (44, -6.79841804504394531250e+00) (45, 4.05996742248535156250e+01) (46, 7.02521920204162597656e-01) (47, 5.23615217208862304688e+00) (48, -8.80200195312500000000e+00) (49, 2.24288501739501953125e+01) (50, -4.59016609191894531250e+00) (51, 1.08298759460449218750e+01) (52, 1.89192926883697509766e+00) (0, -1.07996320724487304688e+00) (1, 1.26274454593658447266e+00) (2, -4.09833401441574096680e-01) (3, 5.00229406356811523438e+00) (4, -2.61255192756652832031e+00) (5, 5.99564373493194580078e-01) (6, 1.20608496665954589844e+00) (7, 2.54260033369064331055e-01) (8, -1.99487018585205078125e+00) (9, 4.49755966663360595703e-01) (10, 8.20004844665527343750e+00) (11, 2.26219248771667480469e+00) (12, 1.01614546775817871094e+00) (13, 2.71508121490478515625e+00) (14, 6.04781985282897949219e-01) (15, -2.40548872947692871094e+00) (16, -3.53966116905212402344e+00) (17, 2.96997606754302978516e-01) (18, 8.54782390594482421875e+00) (19, 2.61544060707092285156e+00) (20, -5.28921067714691162109e-01) (21, -1.25009882450103759766e+00) (22, 4.21119880676269531250e+00) (23, 6.16973042488098144531e-01) (24, -6.95820152759552001953e-01) (25, 1.09674358367919921875e+00) (26, 2.20419287681579589844e+00) (27, 1.47143709659576416016e+00) (28, 1.52610025405883789062e+01) (29, -1.35943877696990966797e+00) (30, -2.00938880443572998047e-01) (31, 1.14880275726318359375e+00) (32, -2.22137594223022460938e+00) (33, 5.14280319213867187500e+00) (34, 9.74279344081878662109e-01) (35, -4.86147105693817138672e-02) (36, -1.61651387810707092285e-01) (37, 4.15044450759887695312e+00) (38, -1.42411202192306518555e-01) (39, 8.92725467681884765625e-01) (40, 4.99557781219482421875e+00) (41, 2.47843146324157714844e+00) (42, 1.73517435789108276367e-01) (43, -6.48382604122161865234e-01) (44, 4.05913800001144409180e-01) (45, -1.40252614021301269531e+00) (46, 1.22772169113159179688e+00) (47, 1.20517051219940185547e+00) (48, -8.59713017940521240234e-01) (49, 6.64969968795776367188e+00) (50, -4.27042275667190551758e-01) (51, 1.68335962295532226562e+00) (52, 3.98725938796997070312e+00) (0, -8.77865505218505859375e+00) (1, -1.32070369720458984375e+01) (2, 8.52293014526367187500e+00) (3, -6.38398647308349609375e-01) (4, -4.06793975830078125000e+01) (5, -7.01657333374023437500e+01) (6, 8.15054550170898437500e+01) (7, -5.55700302124023437500e+00) (8, -2.06286869049072265625e+01) (9, 1.56095180511474609375e+01) (10, -4.72026939392089843750e+01) (11, -1.56346690654754638672e+00) (12, -1.66284503936767578125e+01) (13, -3.42734742164611816406e+00) (14, 2.49703521728515625000e+01) (15, -5.55533123016357421875e+00) (16, 2.55348472595214843750e+01) (17, -1.62183227539062500000e+01) (18, -5.51304054260253906250e+00) (19, -8.87121105194091796875e+00) (20, -2.18144912719726562500e+01) (21, 6.52169227600097656250e+00) (22, 6.49829149246215820312e+00) (23, -1.51337671279907226562e+01) (24, 2.25103735923767089844e+00) (25, -7.38647842407226562500e+01) (26, -7.94630661010742187500e+01) (27, 1.27624301910400390625e+01) (28, 3.87550506591796875000e+01) (29, -2.39655208587646484375e+01) (30, -4.83124589920043945312e+00) (31, -7.89877166748046875000e+01) (32, 3.56151795387268066406e+00) (33, 1.61442184448242187500e+01) (34, -3.42659301757812500000e+01) (35, -1.48627119064331054688e+01) (36, -2.81777324676513671875e+01) (37, -5.10909509658813476562e+00) (38, -8.55767154693603515625e+00) (39, 5.87300262451171875000e+01) (40, -3.10219264030456542969e+00) (41, -2.27759671211242675781e+00) (42, -6.30865907669067382812e+00) (43, 5.59590435028076171875e+00) (44, -1.16979537963867187500e+02) (45, -1.59657523036003112793e-01) (46, -7.75675277709960937500e+01) (47, 8.27854061126708984375e+00) (48, 1.96408331394195556641e+00) (49, 5.36996612548828125000e+01) (50, -7.31170425415039062500e+01) (51, -1.12026702880859375000e+02) (52, 4.37636041641235351562e+00) (0, 5.18513488769531250000e+00) (1, -1.70921087265014648438e+00) (2, -1.84367132186889648438e+00) (3, 1.09519028663635253906e+00) (4, 5.56776046752929687500e+00) (5, 1.73970394134521484375e+01) (6, -5.36513328552246093750e+00) (7, -3.55438113212585449219e+00) (8, 6.56809985637664794922e-01) (9, 5.09184532165527343750e+01) (10, -1.83023662567138671875e+01) (11, 2.20227169990539550781e+00) (12, -2.18372678756713867188e+00) (13, 1.01708946228027343750e+01) (14, 1.56488764286041259766e+00) (15, -3.30534505844116210938e+00) (16, 2.45146980285644531250e+01) (17, -1.93742644786834716797e+00) (18, 3.58125400543212890625e+00) (19, -1.39699707031250000000e+01) (20, -2.80496621131896972656e+00) (21, -3.76341247558593750000e+01) (22, 7.22754192352294921875e+00) (23, 1.93745098114013671875e+01) (24, 3.29912490844726562500e+01) (25, -4.15520553588867187500e+01) (26, 2.60987877845764160156e+00) (27, 1.43762941360473632812e+01) (28, 2.27996826171875000000e+01) (29, 7.17761397361755371094e-01) (30, -1.52871894836425781250e+00) (31, -1.27044849395751953125e+01) (32, 1.69058632850646972656e+00) (33, -8.52228641510009765625e+00) (34, 1.49181385040283203125e+01) (35, 6.89562439918518066406e-01) (36, 1.19608402252197265625e+01) (37, 9.48087406158447265625e+00) (38, -4.65619993209838867188e+00) (39, 1.47802755236625671387e-01) (40, -3.65461769104003906250e+01) (41, 1.41398572921752929688e+01) (42, -8.12056720256805419922e-01) (43, 4.57860832214355468750e+01) (44, -3.48056674003601074219e+00) (45, 3.12600097656250000000e+01) (46, -1.56273727416992187500e+01) (47, 3.42899169921875000000e+01) (48, -2.84373054504394531250e+01) (49, 1.57724142074584960938e+01) (50, -2.39098501205444335938e+00) (51, 1.84805126190185546875e+01) (52, 4.12428188323974609375e+00) (0, 1.49012923240661621094e+00) (1, 7.21030831336975097656e-02) (2, -1.25851714611053466797e+00) (3, 5.28325319290161132812e+00) (4, 3.67768955230712890625e+00) (5, -1.67363274097442626953e+00) (6, 9.36154365539550781250e-01) (7, 3.57576489448547363281e+00) (8, -2.18111824989318847656e+00) (9, 4.67119121551513671875e+00) (10, -7.86845207214355468750e-01) (11, 4.35131597518920898438e+00) (12, -1.58266317844390869141e+00) (13, -1.00913465023040771484e+00) (14, 1.78102278709411621094e+00) (15, 3.25190138816833496094e+00) (16, 4.22425061464309692383e-01) (17, -5.14674997329711914062e+00) (18, 2.02558636665344238281e+00) (19, 1.14968433380126953125e+01) (20, 9.76625740528106689453e-01) (21, 5.75019645690917968750e+00) (22, -4.38782811164855957031e-01) (23, -1.62426757812500000000e+00) (24, -4.65327548980712890625e+00) (25, 6.13345146179199218750e+00) (26, 5.60187578201293945312e+00) (27, -4.00002193450927734375e+00) (28, -6.57813930511474609375e+00) (29, 2.04549217224121093750e+01) (30, 4.65261983871459960938e+00) (31, 1.56542360782623291016e+00) (32, -2.33239793777465820312e+00) (33, -9.44007709622383117676e-02) (34, 2.67856454849243164062e+00) (35, 2.13363122940063476562e+00) (36, 9.11000633239746093750e+00) (37, -1.27936577796936035156e+00) (38, 2.42833256721496582031e-01) (39, -2.80705928802490234375e-01) (40, 3.68559455871582031250e+00) (41, -4.21505165100097656250e+00) (42, 2.38146352767944335938e+00) (43, -2.29410797357559204102e-01) (44, -9.18152213096618652344e-01) (45, -1.25551772117614746094e+00) (46, 4.44970273971557617188e+00) (47, -6.28477215766906738281e-01) (48, 1.10352439880371093750e+01) (49, -1.10146036148071289062e+01) (50, 2.50804829597473144531e+00) (51, 6.67068302631378173828e-01) (52, 2.88011598587036132812e+00) (0, 1.39820384979248046875e+01) (1, -3.87493789196014404297e-01) (2, -3.30911750793457031250e+01) (3, -1.12083377838134765625e+01) (4, -3.20980215072631835938e+00) (5, -1.89803802967071533203e+00) (6, -1.02617845535278320312e+01) (7, 1.25118322372436523438e+01) (8, -2.90808010101318359375e+00) (9, -1.64792499542236328125e+01) (10, 3.84410667419433593750e+01) (11, -6.57116127014160156250e+00) (12, -2.11432723999023437500e+01) (13, 1.27218036651611328125e+01) (14, -6.14754486083984375000e+00) (15, -1.07265174388885498047e+00) (16, 1.36547815799713134766e+00) (17, -4.42144889831542968750e+01) (18, 1.41514863967895507812e+01) (19, -6.13894958496093750000e+01) (20, -2.43512878417968750000e+01) (21, -2.21003508567810058594e+00) (22, 2.34378457069396972656e+00) (23, 2.28011441230773925781e+00) (24, 3.99635314941406250000e+01) (25, -2.07699527740478515625e+01) (26, 1.45091867446899414062e+01) (27, -2.81964378356933593750e+01) (28, 1.17531805038452148438e+01) (29, -1.53652834892272949219e+00) (30, -6.23226022720336914062e+00) (31, -9.72791748046875000000e+01) (32, -4.69761695861816406250e+01) (33, 9.76301002502441406250e+00) (34, -1.63843746185302734375e+01) (35, 1.61342310905456542969e+00) (36, -6.57779617309570312500e+01) (37, 1.84445991516113281250e+01) (38, -9.22479057312011718750e+00) (39, -5.17939865589141845703e-01) (40, -4.15800428390502929688e+00) (41, 1.18475542068481445312e+01) (42, -5.61354339122772216797e-01) (43, -6.20554399490356445312e+00) (44, 4.67897462844848632812e+00) (45, 4.88584671020507812500e+01) (46, -1.37364120483398437500e+01) (47, -2.76625289916992187500e+01) (48, -4.76748886108398437500e+01) (49, 1.34826278686523437500e+00) (50, -2.05884494781494140625e+01) (51, 8.75257873535156250000e+00) (52, 4.45604801177978515625e+00) (0, 4.50654089450836181641e-01) (1, -4.23481559753417968750e+00) (2, 3.12397122383117675781e+00) (3, 5.14583683013916015625e+00) (4, 2.99525570869445800781e+00) (5, 1.26685166358947753906e+00) (6, -1.02064096927642822266e+00) (7, -1.63541257381439208984e+00) (8, -9.27963316440582275391e-01) (9, 1.59890067577362060547e+00) (10, 1.56486201286315917969e+00) (11, -1.31666040420532226562e+00) (12, -3.79596762359142303467e-02) (13, 3.70502352714538574219e-01) (14, 2.82468080520629882812e+00) (15, 2.93976736068725585938e+00) (16, 7.81733465194702148438e+00) (17, 1.39894247055053710938e+00) (18, 2.84377408027648925781e+00) (19, -7.27368116378784179688e+00) (20, 6.71248054504394531250e+00) (21, -1.14049112796783447266e+00) (22, -7.67388820648193359375e-01) (23, 4.46275663375854492188e+00) (24, 9.60158050060272216797e-01) (25, -3.74238657951354980469e+00) (26, 4.44001734256744384766e-01) (27, 4.08161258697509765625e+00) (28, 1.67355232238769531250e+01) (29, -2.03281760215759277344e+00) (30, -6.09830379486083984375e-01) (31, 3.52453207969665527344e+00) (32, 1.47715592384338378906e+00) (33, 5.93684148788452148438e+00) (34, -4.30662584304809570312e+00) (35, 2.72566699981689453125e+00) (36, -3.92714068293571472168e-02) (37, 9.97641742229461669922e-01) (38, 2.24957251548767089844e+00) (39, 5.57126641273498535156e-01) (40, 1.74649941921234130859e+00) (41, 7.16922760009765625000e-01) (42, -5.54028272628784179688e-01) (43, 3.71897244453430175781e+00) (44, 1.54350650310516357422e+00) (45, -2.59825229644775390625e+00) (46, 1.20493762195110321045e-01) (47, 3.53204584121704101562e+00) (48, -4.11741703748703002930e-01) (49, 9.94759500026702880859e-01) (50, 8.38975334167480468750e+00) (51, 2.80336052179336547852e-01) (52, 3.47234106063842773438e+00) (0, 5.39223670959472656250e+00) (1, -5.28742790222167968750e+00) (2, 1.21774226427078247070e-01) (3, 1.33244485855102539062e+01) (4, -4.43767271935939788818e-02) (5, 1.01052355766296386719e+00) (6, -4.22312021255493164062e-01) (7, 3.94580096006393432617e-01) (8, 8.80650424957275390625e+00) (9, -5.34822750091552734375e+00) (10, -9.65874552726745605469e-01) (11, 8.24781703948974609375e+00) (12, 9.49795341491699218750e+00) (13, 2.93988919258117675781e+00) (14, 7.72663474082946777344e-01) (15, -2.90749454498291015625e+00) (16, 8.03300380706787109375e+00) (17, -1.29235613346099853516e+00) (18, 3.90869903564453125000e+00) (19, -2.91211199760437011719e+00) (20, 1.05668663978576660156e+00) (21, -7.07200467586517333984e-01) (22, 8.60117435455322265625e+00) (23, -2.02538752555847167969e+00) (24, 1.10761556625366210938e+01) (25, -6.85750722885131835938e+00) (26, 1.19008684158325195312e+01) (27, 3.60348606109619140625e+00) (28, 3.05850178003311157227e-01) (29, 5.30229091644287109375e+00) (30, -2.79597491025924682617e-01) (31, 5.46667337417602539062e-01) (32, -3.60204577445983886719e+00) (33, 4.46328926086425781250e+00) (34, -1.71988582611083984375e+00) (35, 2.16382622718811035156e+00) (36, 1.43297231197357177734e+00) (37, 4.68496417999267578125e+00) (38, -3.80921816825866699219e+00) (39, 3.22348737716674804688e+00) (40, 7.18200147151947021484e-01) (41, 2.49035811424255371094e+00) (42, -1.10388040542602539062e+00) (43, 9.03609752655029296875e-01) (44, -1.09649670124053955078e+00) (45, 5.95980548858642578125e+00) (46, -9.39519166946411132812e-01) (47, 1.26032364368438720703e+00) (48, 8.72967362403869628906e-01) (49, 1.66465778350830078125e+01) (50, -1.57124829292297363281e+00) (51, 6.54844939708709716797e-01) (52, 3.99283862113952636719e+00) (0, 5.60397386550903320312e-01) (1, -1.22453343868255615234e+00) (2, 3.66424751281738281250e+00) (3, 9.14595663547515869141e-01) (4, 3.42043614387512207031e+00) (5, 7.09550619125366210938e+00) (6, -5.35620748996734619141e-01) (7, -4.25027704238891601562e+00) (8, 1.15346155166625976562e+01) (9, -1.23864698410034179688e+00) (10, -5.45279407501220703125e+00) (11, 4.39397478103637695312e+00) (12, -2.86989879608154296875e+00) (13, -2.19215512275695800781e+00) (14, 5.98201572895050048828e-01) (15, 1.33557491302490234375e+01) (16, 5.85371065139770507812e+00) (17, 2.15491557121276855469e+00) (18, -1.00792160034179687500e+01) (19, 1.06619958877563476562e+01) (20, 3.21202588081359863281e+00) (21, 1.47841140627861022949e-01) (22, -3.86044788360595703125e+00) (23, 1.90479159355163574219e+00) (24, -5.85763263702392578125e+00) (25, 6.19786357879638671875e+00) (26, -6.64060544967651367188e+00) (27, 5.27377939224243164062e+00) (28, -3.25197696685791015625e+00) (29, -4.13421773910522460938e+00) (30, 1.12752466201782226562e+01) (31, 1.38227787017822265625e+01) (32, 5.71939086914062500000e+00) (33, -4.52986001968383789062e+00) (34, 1.48013114929199218750e+00) (35, 8.28693199157714843750e+00) (36, 2.00812072753906250000e+01) (37, -2.07143902778625488281e-01) (38, 5.41827678680419921875e+00) (39, -5.82394886016845703125e+00) (40, 2.87267255783081054688e+00) (41, -3.78199887275695800781e+00) (42, -2.01074391603469848633e-01) (43, 1.38470447063446044922e+00) (44, 9.02450084686279296875e+00) (45, -7.23065328598022460938e+00) (46, 5.11527109146118164062e+00) (47, -1.44108927249908447266e+00) (48, 6.10441207885742187500e+00) (49, -1.38724565505981445312e+00) (50, 4.83834314346313476562e+00) (51, -4.55128002166748046875e+00) (52, 2.68070816993713378906e+00) (0, 2.45046472549438476562e+00) (1, 2.86813759803771972656e+00) (2, -4.12254762649536132812e+00) (3, 3.75771343708038330078e-01) (4, 1.26692131161689758301e-01) (5, -4.08226823806762695312e+00) (6, 6.68315589427947998047e-01) (7, 9.93268966674804687500e+00) (8, -2.45313024520874023438e+00) (9, 1.73654067516326904297e+00) (10, 2.83769331872463226318e-02) (11, 2.14476346969604492188e+00) (12, -4.67468708753585815430e-01) (13, -3.22805356979370117188e+00) (14, 3.24522113800048828125e+00) (15, 3.27287602424621582031e+00) (16, 9.04915428161621093750e+00) (17, -3.33081483840942382812e-01) (18, 1.92862915992736816406e+00) (19, -7.37080478668212890625e+00) (20, 3.27278876304626464844e+00) (21, -8.06317615509033203125e+00) (22, 4.95679426193237304688e+00) (23, 1.27156603336334228516e+00) (24, 2.00542831420898437500e+01) (25, -5.64020776748657226562e+00) (26, 2.95259523391723632812e+00) (27, 3.24422693252563476562e+00) (28, 1.27565250396728515625e+01) (29, -1.73906860351562500000e+01) (30, 1.19917087554931640625e+01) (31, -4.31650018692016601562e+00) (32, -5.47270059585571289062e-01) (33, -3.41114139556884765625e+00) (34, 7.67854404449462890625e+00) (35, 3.02650403976440429688e+00) (36, -1.08248758316040039062e+00) (37, 8.84276580810546875000e+00) (38, 2.75543522834777832031e+00) (39, -5.34254121780395507812e+00) (40, 1.54041519165039062500e+01) (41, 2.26905403137207031250e+01) (42, 8.41195583343505859375e-01) (43, -7.04685640335083007812e+00) (44, 1.78293704986572265625e+01) (45, 7.01653051376342773438e+00) (46, -2.45807218551635742188e+00) (47, -2.09972023963928222656e+00) (48, 4.74374675750732421875e+00) (49, 1.74910533428192138672e+00) (50, -4.36086511611938476562e+00) (51, 2.77461123466491699219e+00) (52, 3.75147700309753417969e+00) (0, 4.82002305984497070312e+00) (1, 4.45084667205810546875e+00) (2, -4.00505542755126953125e+00) (3, 3.35387277603149414062e+00) (4, -3.61415833234786987305e-01) (5, 8.99176537990570068359e-01) (6, 2.80898541212081909180e-01) (7, 8.25870227813720703125e+00) (8, -4.15252304077148437500e+00) (9, 3.70979166030883789062e+00) (10, 3.55496597290039062500e+00) (11, 6.37972021102905273438e+00) (12, 3.28953695297241210938e+00) (13, -2.22143173217773437500e+00) (14, -1.86891281604766845703e+00) (15, 3.32259631156921386719e+00) (16, 2.90682482719421386719e+00) (17, -7.18740761280059814453e-01) (18, 6.84870386123657226562e+00) (19, -3.53527188301086425781e+00) (20, 4.25012016296386718750e+00) (21, 1.04495728015899658203e+00) (22, -4.71344709396362304688e+00) (23, 4.90730094909667968750e+00) (24, 7.74773788452148437500e+00) (25, -1.60007977485656738281e+00) (26, -1.91854536533355712891e+00) (27, 1.64448952674865722656e+00) (28, 1.64633715152740478516e+00) (29, -6.28789043426513671875e+00) (30, 4.09708261489868164062e+00) (31, 4.73439073562622070312e+00) (32, 1.22393321990966796875e+01) (33, -2.08345031738281250000e+00) (34, 6.42906999588012695312e+00) (35, 2.67882585525512695312e-01) (36, 5.66141128540039062500e+00) (37, -6.08624267578125000000e+00) (38, 4.97377455234527587891e-01) (39, 1.15303726196289062500e+01) (40, 2.40162158012390136719e+00) (41, 4.45662355422973632812e+00) (42, 7.86866044998168945312e+00) (43, -3.25857925415039062500e+00) (44, 7.23954057693481445312e+00) (45, -7.13002443313598632812e+00) (46, 5.11585474014282226562e+00) (47, 5.28209018707275390625e+00) (48, 3.34212279319763183594e+00) (49, 2.41388082504272460938e+00) (50, 2.08824205398559570312e+00) (51, -1.53432130813598632812e+00) (52, 2.84658479690551757812e+00) (53, 1.22527813911437988281e+00) (54, -1.64854431152343750000e+00) (55, 1.31206858158111572266e+00) (56, 1.06992506980895996094e+00) (57, 1.48712551593780517578e+00) (58, -1.48465931415557861328e+00) (59, 1.14276206493377685547e+00) (60, 1.04566550254821777344e+00) (61, 1.89843082427978515625e+00) (62, 1.49438476562500000000e+00) (63, -1.72588384151458740234e+00) (64, 1.10143017768859863281e+00) (65, -1.15625965595245361328e+00) (66, -1.06820225715637207031e+00) (67, 1.26727831363677978516e+00) (68, 1.41201817989349365234e+00) (69, 1.43369328975677490234e+00) (70, -1.02419495582580566406e+00) (71, 1.32362926006317138672e+00) (72, 1.20753657817840576172e+00) (73, -9.00275886058807373047e-01) (74, -1.09350657463073730469e+00) (75, 1.18145751953125000000e+00) (76, 1.45451331138610839844e+00) (77, 8.61810147762298583984e-01) (78, 8.11691224575042724609e-01) (79, -1.18993246555328369141e+00) (80, -1.35161113739013671875e+00) (81, 1.56648278236389160156e+00) (82, 1.64530050754547119141e+00) (83, 1.33010900020599365234e+00) (84, -1.15575337409973144531e+00) (85, -9.00028645992279052734e-01) (86, 1.18571650981903076172e+00) (87, -1.10676348209381103516e+00) (88, 1.22509014606475830078e+00) (89, -9.47738885879516601562e-01) (90, 1.36375939846038818359e+00) (91, 1.28183519840240478516e+00) (92, -1.15383684635162353516e+00) (93, -1.23072350025177001953e+00) (94, 1.46325850486755371094e+00) (95, -1.00737762451171875000e+00) (96, -1.51564013957977294922e+00) (97, -5.05016517639160156250e+00) 
