FANN_FLO_2.1
num_layers=3
learning_rate=0.700000
connection_rate=1.000000
network_type=0
learning_momentum=0.000000
training_algorithm=2
train_error_function=1
train_stop_function=0
cascade_output_change_fraction=0.010000
quickprop_decay=-0.000100
quickprop_mu=1.750000
rprop_increase_factor=1.200000
rprop_decrease_factor=0.500000
rprop_delta_min=0.000000
rprop_delta_max=50.000000
rprop_delta_zero=0.100000
cascade_output_stagnation_epochs=12
cascade_candidate_change_fraction=0.010000
cascade_candidate_stagnation_epochs=12
cascade_max_out_epochs=150
cascade_min_out_epochs=50
cascade_max_cand_epochs=150
cascade_min_cand_epochs=50
cascade_num_candidate_groups=2
bit_fail_limit=3.49999994039535522461e-01
cascade_candidate_limit=1.00000000000000000000e+03
cascade_weight_multiplier=4.00000005960464477539e-01
cascade_activation_functions_count=10
cascade_activation_functions=3 5 7 8 10 11 14 15 16 17 
cascade_activation_steepnesses_count=4
cascade_activation_steepnesses=2.50000000000000000000e-01 5.00000000000000000000e-01 7.50000000000000000000e-01 1.00000000000000000000e+00 
layer_sizes=53 23 2 
scale_included=0
neurons (num_inputs, activation_function, activation_steepness)=(0, 0, 0.00000000000000000000e+00) (0, 0, 0.00000000000000000000e+00) (0, 0, 0.00000000000000000000e+00) (0, 0, 0.00000000000000000000e+00) (0, 0, 0.00000000000000000000e+00) (0, 0, 0.00000000000000000000e+00) (0, 0, 0.00000000000000000000e+00) (0, 0, 0.00000000000000000000e+00) (0, 0, 0.00000000000000000000e+00) (0, 0, 0.00000000000000000000e+00) (0, 0, 0.00000000000000000000e+00) (0, 0, 0.00000000000000000000e+00) (0, 0, 0.00000000000000000000e+00) (0, 0, 0.00000000000000000000e+00) (0, 0, 0.00000000000000000000e+00) (0, 0, 0.00000000000000000000e+00) (0, 0, 0.00000000000000000000e+00) (0, 0, 0.00000000000000000000e+00) (0, 0, 0.00000000000000000000e+00) (0, 0, 0.00000000000000000000e+00) (0, 0, 0.00000000000000000000e+00) (0, 0, 0.00000000000000000000e+00) (0, 0, 0.00000000000000000000e+00) (0, 0, 0.00000000000000000000e+00) (0, 0, 0.00000000000000000000e+00) (0, 0, 0.00000000000000000000e+00) (0, 0, 0.00000000000000000000e+00) (0, 0, 0.00000000000000000000e+00) (0, 0, 0.00000000000000000000e+00) (0, 0, 0.00000000000000000000e+00) (0, 0, 0.00000000000000000000e+00) (0, 0, 0.00000000000000000000e+00) (0, 0, 0.00000000000000000000e+00) (0, 0, 0.00000000000000000000e+00) (0, 0, 0.00000000000000000000e+00) (0, 0, 0.00000000000000000000e+00) (0, 0, 0.00000000000000000000e+00) (0, 0, 0.00000000000000000000e+00) (0, 0, 0.00000000000000000000e+00) (0, 0, 0.00000000000000000000e+00) (0, 0, 0.00000000000000000000e+00) (0, 0, 0.00000000000000000000e+00) (0, 0, 0.00000000000000000000e+00) (0, 0, 0.00000000000000000000e+00) (0, 0, 0.00000000000000000000e+00) (0, 0, 0.00000000000000000000e+00) (0, 0, 0.00000000000000000000e+00) (0, 0, 0.00000000000000000000e+00) (0, 0, 0.00000000000000000000e+00) (0, 0, 0.00000000000000000000e+00) (0, 0, 0.00000000000000000000e+00) (0, 0, 0.00000000000000000000e+00) (0, 0, 0.00000000000000000000e+00) (53, 5, 5.00000000000000000000e-01) (53, 5, 5.00000000000000000000e-01) (53, 5, 5.00000000000000000000e-01) (53, 5, 5.00000000000000000000e-01) (53, 5, 5.00000000000000000000e-01) (53, 5, 5.00000000000000000000e-01) (53, 5, 5.00000000000000000000e-01) (53, 5, 5.00000000000000000000e-01) (53, 5, 5.00000000000000000000e-01) (53, 5, 5.00000000000000000000e-01) (53, 5, 5.00000000000000000000e-01) (53, 5, 5.00000000000000000000e-01) (53, 5, 5.00000000000000000000e-01) (53, 5, 5.00000000000000000000e-01) (53, 5, 5.00000000000000000000e-01) (53, 5, 5.00000000000000000000e-01) (53, 5, 5.00000000000000000000e-01) (53, 5, 5.00000000000000000000e-01) (53, 5, 5.00000000000000000000e-01) (53, 5, 5.00000000000000000000e-01) (53, 5, 5.00000000000000000000e-01) (53, 5, 5.00000000000000000000e-01) (0, 5, 0.00000000000000000000e+00) (23, 5, 5.00000000000000000000e-01) (0, 5, 0.00000000000000000000e+00) 
connections (connected_to_neuron, weight)=(0, 2.04305291175842285156e-01) (1, 1.68037354946136474609e-01) (2, 2.83352971076965332031e-01) (3, 2.70503818988800048828e-01) (4, 1.32573559880256652832e-01) (5, 9.61604118347167968750e-02) (6, 4.82433587312698364258e-02) (7, 2.74857014417648315430e-01) (8, 9.76576656103134155273e-02) (9, 6.92252535372972488403e-04) (10, 1.08732208609580993652e-02) (11, 1.02443635463714599609e-01) (12, 1.78596600890159606934e-01) (13, 2.32876613736152648926e-01) (14, 5.63898943364620208740e-02) (15, 3.12309890985488891602e-01) (16, 2.28742673993110656738e-01) (17, 3.85987550020217895508e-01) (18, 4.02643114328384399414e-01) (19, 5.37509620189666748047e-01) (20, 2.80607610940933227539e-01) (21, 9.55694794654846191406e-01) (22, 5.83785653114318847656e-01) (23, 7.46138989925384521484e-01) (24, 3.95717233419418334961e-01) (25, 1.29056429862976074219e+00) (26, 5.72597801685333251953e-01) (27, -1.02051496505737304688e+00) (28, 3.12609642744064331055e-01) (29, 1.20296239852905273438e+00) (30, 9.08722698688507080078e-01) (31, -9.15803611278533935547e-01) (32, 5.17431423068046569824e-02) (33, 7.92388617992401123047e-01) (34, -4.33043576776981353760e-02) (35, 4.85669046640396118164e-01) (36, 4.03982132673263549805e-01) (37, 9.05544161796569824219e-01) (38, 6.58616065979003906250e-01) (39, 7.81806945800781250000e-01) (40, -8.46235901117324829102e-02) (41, 1.68719455599784851074e-01) (42, 2.06213459372520446777e-01) (43, 3.17551754415035247803e-02) (44, -2.54987388849258422852e-01) (45, -3.87862622737884521484e-01) (46, -9.77023616433143615723e-02) (47, -3.47796708345413208008e-01) (48, 1.48556798696517944336e-01) (49, 4.02120053768157958984e-01) (50, 2.01691433787345886230e-01) (51, 1.43414303660392761230e-01) (52, 4.67320203781127929688e+00) (0, 2.52345943450927734375e+00) (1, 1.72770631313323974609e+00) (2, 3.69375920295715332031e+00) (3, -1.82938098907470703125e+00) (4, -9.47383522987365722656e-01) (5, 6.03249073028564453125e+00) (6, -2.04025673866271972656e+00) (7, 4.23530817031860351562e+00) (8, 3.80719614028930664062e+00) (9, 3.02645421028137207031e+00) (10, 8.40729653835296630859e-01) (11, -3.42228829860687255859e-01) (12, 4.91747140884399414062e+00) (13, 4.82216215133666992188e+00) (14, -2.99187541007995605469e+00) (15, 2.99172568321228027344e+00) (16, 7.95945644378662109375e+00) (17, 5.91529417037963867188e+00) (18, -9.79615390300750732422e-01) (19, -1.03618168830871582031e+00) (20, 5.63930654525756835938e+00) (21, -9.79015111923217773438e-01) (22, 9.21870899200439453125e+00) (23, -2.22029161453247070312e+00) (24, -5.91553497314453125000e+00) (25, 6.30438089370727539062e+00) (26, 6.30239069461822509766e-01) (27, 6.71525478363037109375e+00) (28, -7.09099102020263671875e+00) (29, -8.17437767982482910156e-01) (30, 1.30977783203125000000e+01) (31, 2.14988689422607421875e+01) (32, 3.24602103233337402344e+00) (33, -1.99090778827667236328e+00) (34, 6.14118909835815429688e+00) (35, 1.62891948223114013672e+00) (36, -1.59659433364868164062e+00) (37, 6.05169534683227539062e+00) (38, 6.75248479843139648438e+00) (39, -4.51804113388061523438e+00) (40, 1.09910905361175537109e+00) (41, 2.13591003417968750000e+00) (42, 7.76072084903717041016e-01) (43, 1.20201933383941650391e+00) (44, 1.40082716941833496094e-01) (45, 8.39287376403808593750e+00) (46, 2.93204450607299804688e+00) (47, -2.64546418190002441406e+00) (48, 8.60055828094482421875e+00) (49, 1.45614061355590820312e+01) (50, -2.58379864692687988281e+00) (51, -7.75092840194702148438e-01) (52, 4.36096954345703125000e+00) (0, 2.63767272233963012695e-01) (1, 3.44209223985671997070e-01) (2, 3.60716283321380615234e-01) (3, 2.91006445884704589844e-01) (4, 3.10279458761215209961e-01) (5, 3.33483457565307617188e-01) (6, 1.98392271995544433594e-01) (7, 2.62548089027404785156e-01) (8, 2.48437351547181606293e-03) (9, 4.08598147332668304443e-02) (10, -7.14852511882781982422e-02) (11, 7.03672021627426147461e-02) (12, 4.43533807992935180664e-01) (13, 4.09691303968429565430e-01) (14, 4.50823575258255004883e-01) (15, 6.47324025630950927734e-01) (16, 4.61826920509338378906e-01) (17, 7.05172002315521240234e-01) (18, 5.70732533931732177734e-01) (19, 6.18847012519836425781e-01) (20, 2.22233250737190246582e-01) (21, 6.82427406311035156250e-01) (22, 3.21241229772567749023e-01) (23, 8.24647963047027587891e-01) (24, -8.62389981746673583984e-01) (25, -7.52303719520568847656e-01) (26, -6.35599374771118164062e-01) (27, 6.18244457244873046875e+00) (28, -5.69791257381439208984e-01) (29, 2.66719281673431396484e-01) (30, -3.73969286680221557617e-01) (31, 7.15955686569213867188e+00) (32, -3.53075228631496429443e-02) (33, 5.25492668151855468750e-01) (34, -1.46564960479736328125e-01) (35, 5.05541205406188964844e-01) (36, -1.43621461465954780579e-02) (37, -8.19828268140554428101e-03) (38, 1.10161975026130676270e-01) (39, 4.30800795555114746094e-01) (40, 8.29334333539009094238e-02) (41, 2.66911000013351440430e-01) (42, 2.88153529167175292969e-01) (43, -2.99932304769754409790e-02) (44, -2.71648224443197250366e-02) (45, -7.61418193578720092773e-02) (46, 9.17714461684226989746e-02) (47, -5.68845048546791076660e-02) (48, 4.52310472726821899414e-01) (49, 6.34450972080230712891e-01) (50, 4.92549419403076171875e-01) (51, 3.25808882713317871094e-01) (52, 4.62152242660522460938e+00) (0, 5.49493432044982910156e-01) (1, -7.01494887471199035645e-02) (2, 8.34478616714477539062e-01) (3, 3.11306428909301757812e+00) (4, -1.37180984020233154297e-01) (5, 4.29889488220214843750e+00) (6, -4.19733762741088867188e+00) (7, 2.83629536628723144531e+00) (8, -5.10789632797241210938e-01) (9, -1.85556486248970031738e-01) (10, 3.01585507392883300781e+00) (11, 1.08936572074890136719e+00) (12, 2.45913267135620117188e+00) (13, -6.11386835575103759766e-01) (14, 3.01764917373657226562e+00) (15, -2.36167478561401367188e+00) (16, 4.54887819290161132812e+00) (17, -1.46748411655426025391e+00) (18, 1.14713978767395019531e+00) (19, -4.59207653999328613281e-01) (20, -2.38833928108215332031e+00) (21, -1.55798816680908203125e+00) (22, 3.77602529525756835938e+00) (23, 5.58374834060668945312e+00) (24, 1.79692947864532470703e+00) (25, -4.43384319543838500977e-01) (26, 1.46601939201354980469e+00) (27, -9.52033624053001403809e-02) (28, 5.15967702865600585938e+00) (29, -2.21494913101196289062e+00) (30, -1.94124901294708251953e+00) (31, 5.02162837982177734375e+00) (32, -3.42755317687988281250e+00) (33, 7.36799621582031250000e+00) (34, -1.76629137992858886719e+00) (35, -1.20803022384643554688e+00) (36, -1.24787311553955078125e+01) (37, 5.07962894439697265625e+00) (38, 1.26691627502441406250e+00) (39, 3.93882918357849121094e+00) (40, -3.91316986083984375000e+00) (41, 1.21258020401000976562e+00) (42, 1.50382633209228515625e+01) (43, 2.81088137626647949219e+00) (44, 4.50676250457763671875e+00) (45, -9.97380554676055908203e-01) (46, 1.86564521789550781250e+01) (47, -2.03809070587158203125e+00) (48, 1.53952670097351074219e+00) (49, 9.66953992843627929688e-01) (50, 1.03343701362609863281e+00) (51, -5.55430114269256591797e-01) (52, 2.01469302177429199219e+00) (0, -3.59872281551361083984e-01) (1, -1.38829916715621948242e-01) (2, -2.90153145790100097656e-01) (3, -3.83214950561523437500e-01) (4, -1.39478549361228942871e-01) (5, 2.24612671881914138794e-02) (6, -3.86765688657760620117e-01) (7, -2.13071674108505249023e-01) (8, -4.27760809659957885742e-01) (9, -4.93228912353515625000e-01) (10, -2.52351105213165283203e-01) (11, -4.36030924320220947266e-01) (12, -3.01400393247604370117e-01) (13, -1.26124992966651916504e-01) (14, -3.63483756780624389648e-01) (15, -3.92217010259628295898e-01) (16, -1.23135142028331756592e-01) (17, -2.92907118797302246094e-01) (18, -3.27936895191669464111e-02) (19, -5.66598713397979736328e-01) (20, 4.89462703466415405273e-01) (21, -5.87188303470611572266e-01) (22, 2.45524257421493530273e-01) (23, 3.26324641704559326172e-01) (24, 1.56718230247497558594e+00) (25, 2.83249795436859130859e-01) (26, 1.22771120071411132812e+00) (27, -1.41242527961730957031e+00) (28, 1.09604108333587646484e+00) (29, 9.24424350261688232422e-01) (30, 1.08099400997161865234e+00) (31, 8.83617579936981201172e-01) (32, 4.49354410171508789062e+00) (33, -1.90769398212432861328e+00) (34, 5.00112009048461914062e+00) (35, 2.87236285209655761719e+00) (36, 1.20296871662139892578e+00) (37, 1.80747604370117187500e+00) (38, 2.30289793014526367188e+00) (39, -1.09497225284576416016e+00) (40, 1.13733664155006408691e-01) (41, 4.15702104568481445312e-01) (42, -3.53392004966735839844e-01) (43, 5.05256235599517822266e-01) (44, -7.56988152861595153809e-02) (45, -9.23274084925651550293e-02) (46, 1.47052153944969177246e-01) (47, 1.73077061772346496582e-01) (48, 1.06009252369403839111e-01) (49, 3.17733325064182281494e-02) (50, 1.81305781006813049316e-01) (51, 3.10065090656280517578e-01) (52, 2.30605244636535644531e+00) (0, -1.48197692871093750000e+03) (1, 1.50000000000000000000e+03) (2, -1.03317919921875000000e+03) (3, 1.16021105957031250000e+03) (4, -1.49912927246093750000e+03) (5, 1.49999987792968750000e+03) (6, 1.50000000000000000000e+03) (7, 1.26110424804687500000e+03) (8, -1.49296679687500000000e+03) (9, 2.45736598968505859375e+01) (10, 1.50000000000000000000e+03) (11, 2.12978042602539062500e+02) (12, -1.44482006835937500000e+03) (13, 1.49999487304687500000e+03) (14, 1.50000000000000000000e+03) (15, 1.68757839202880859375e+01) (16, 1.49803234863281250000e+03) (17, -1.10684777832031250000e+03) (18, 1.37697912597656250000e+03) (19, 1.50000000000000000000e+03) (20, 1.50000000000000000000e+03) (21, -1.50000000000000000000e+03) (22, 9.53571701049804687500e+01) (23, 1.50000000000000000000e+03) (24, -4.39022674560546875000e+02) (25, -8.85574245452880859375e+00) (26, -1.29776318359375000000e+03) (27, 1.50000000000000000000e+03) (28, 1.50000000000000000000e+03) (29, 9.25184707641601562500e+01) (30, 1.49999926757812500000e+03) (31, -1.80045471191406250000e+02) (32, 1.50000000000000000000e+03) (33, 3.48204040527343750000e+02) (34, -1.48819396972656250000e+03) (35, 4.15814025878906250000e+02) (36, -3.46724548339843750000e+02) (37, 1.02056207275390625000e+03) (38, 1.47053381347656250000e+03) (39, 1.27284135818481445312e+01) (40, -2.27862609863281250000e+02) (41, -8.13308029174804687500e+01) (42, 1.50000000000000000000e+03) (43, 2.46201507568359375000e+02) (44, 8.02005386352539062500e+00) (45, 1.50000000000000000000e+03) (46, 1.50000000000000000000e+03) (47, -1.03359497070312500000e+03) (48, -1.49999487304687500000e+03) (49, 1.50000000000000000000e+03) (50, -1.26975646972656250000e+03) (51, 1.70873092651367187500e+02) (52, -2.39297628402709960938e-01) (0, -4.56257849931716918945e-01) (1, -3.99281919002532958984e-01) (2, -4.71094310283660888672e-01) (3, -4.16020482778549194336e-01) (4, -9.00072082877159118652e-02) (5, -9.27881225943565368652e-02) (6, -5.68600594997406005859e-02) (7, -5.33957928419113159180e-02) (8, -1.65279477834701538086e-01) (9, -9.95715707540512084961e-02) (10, -1.54781386256217956543e-01) (11, -1.76745742559432983398e-01) (12, -4.93030607700347900391e-01) (13, -4.45759147405624389648e-01) (14, -4.61474329233169555664e-01) (15, -3.99731546640396118164e-01) (16, 2.13730767369270324707e-01) (17, 1.08229383826255798340e-01) (18, 1.90307244658470153809e-01) (19, 2.15235009789466857910e-01) (20, 4.98966336250305175781e-01) (21, 4.23431336879730224609e-01) (22, 4.57853645086288452148e-01) (23, 4.13180530071258544922e-01) (24, 3.52976441383361816406e-01) (25, 3.55502486228942871094e-01) (26, 1.64831385016441345215e-01) (27, 2.46088489890098571777e-01) (28, -3.55981051921844482422e-01) (29, 1.15771484375000000000e+00) (30, -4.01807934045791625977e-01) (31, -5.66866636276245117188e-01) (32, -5.11648237705230712891e-01) (33, -3.47398445010185241699e-02) (34, -1.27447426319122314453e+00) (35, 1.10387183725833892822e-01) (36, 8.16148400306701660156e-01) (37, 1.11535644531250000000e+00) (38, 1.13934695720672607422e+00) (39, 1.42492794990539550781e+00) (40, 3.14751595258712768555e-01) (41, 2.40031346678733825684e-01) (42, 4.83843088150024414062e-01) (43, 3.93253505229949951172e-01) (44, 4.08995002508163452148e-01) (45, 5.00298440456390380859e-01) (46, 4.33638662099838256836e-01) (47, 2.59786069393157958984e-01) (48, -4.49557065963745117188e-01) (49, -2.76419579982757568359e-01) (50, -3.83737236261367797852e-01) (51, -1.88235491514205932617e-01) (52, 4.87356185913085937500e+00) (0, -2.44908764958381652832e-01) (1, 4.16649073362350463867e-01) (2, 2.03198656439781188965e-01) (3, 3.86247128248214721680e-01) (4, -1.79382771253585815430e-01) (5, -5.75440488755702972412e-02) (6, -4.05190214514732360840e-02) (7, 5.88635981082916259766e-01) (8, 8.52048099040985107422e-01) (9, 1.31089198589324951172e+00) (10, -1.28444480895996093750e+00) (11, 1.39494466781616210938e+00) (12, 6.66383385658264160156e-01) (13, 6.76670372486114501953e-01) (14, -1.30573308467864990234e+00) (15, 1.23942542076110839844e+00) (16, 2.55471646785736083984e-01) (17, 1.35628235340118408203e+00) (18, 7.36156165599822998047e-01) (19, 1.16486203670501708984e+00) (20, -1.01926140487194061279e-02) (21, 1.50288641452789306641e+00) (22, -1.85593351721763610840e-01) (23, 1.53548717498779296875e+00) (24, 1.16118034347891807556e-02) (25, 3.48731756210327148438e-01) (26, -1.87380477786064147949e-01) (27, 4.72034037113189697266e-01) (28, -4.10187214612960815430e-01) (29, 1.33423197269439697266e+00) (30, 1.15422344207763671875e+00) (31, 1.74380886554718017578e+00) (32, 1.93086385726928710938e+00) (33, -1.18975925445556640625e+00) (34, 2.29035258293151855469e+00) (35, 1.65462028980255126953e+00) (36, 5.22425711154937744141e-01) (37, 3.87818664312362670898e-01) (38, 3.05620551109313964844e-01) (39, 6.81643486022949218750e-02) (40, 8.12507688999176025391e-01) (41, 7.54299581050872802734e-01) (42, 6.55823767185211181641e-01) (43, 9.94480490684509277344e-01) (44, 2.40908682346343994141e-01) (45, 5.67992627620697021484e-01) (46, 5.55303752422332763672e-01) (47, 8.99883091449737548828e-01) (48, 1.08696231618523597717e-02) (49, 5.47584831714630126953e-01) (50, 6.02984130382537841797e-01) (51, 4.03973728418350219727e-01) (52, 2.45383572578430175781e+00) (0, 2.28297686576843261719e+00) (1, 4.84088569879531860352e-01) (2, 3.45976948738098144531e+00) (3, 3.20141941308975219727e-01) (4, 3.48812508583068847656e+00) (5, 2.18179017305374145508e-01) (6, 3.59891176223754882812e+00) (7, -8.38475525379180908203e-02) (8, 4.32860136032104492188e+00) (9, 3.55506801605224609375e+00) (10, -2.77945190668106079102e-01) (11, -1.92493319511413574219e-01) (12, 3.72207164764404296875e-01) (13, 3.35008692741394042969e+00) (14, 8.53454589843750000000e-01) (15, 1.04759192466735839844e+00) (16, 3.96864438056945800781e+00) (17, 3.87646108865737915039e-01) (18, 5.23659372329711914062e+00) (19, -1.26886770129203796387e-01) (20, 1.60605633258819580078e+00) (21, 5.60131978988647460938e+00) (22, 3.62624263763427734375e+00) (23, -1.93897175788879394531e+00) (24, 5.39628446102142333984e-01) (25, 3.48571825027465820312e+00) (26, 9.80621099472045898438e-01) (27, 3.52505183219909667969e+00) (28, -1.42322316765785217285e-01) (29, 5.55057811737060546875e+00) (30, -6.02038443088531494141e-01) (31, 4.50309371948242187500e+00) (32, 1.58431415557861328125e+01) (33, -5.33966207504272460938e+00) (34, -4.64454501867294311523e-01) (35, 2.00654716491699218750e+01) (36, -4.23760890960693359375e+00) (37, 2.97535330057144165039e-01) (38, 1.57293500900268554688e+01) (39, -4.38503593206405639648e-01) (40, -1.49698340892791748047e+00) (41, 1.57867980003356933594e+00) (42, 1.80582427978515625000e+01) (43, 1.40933525562286376953e+00) (44, -1.83079223632812500000e+01) (45, 7.34104442596435546875e+00) (46, 6.43164634704589843750e+00) (47, 8.38914775848388671875e+00) (48, 3.21761941909790039062e+00) (49, 1.89782929420471191406e+00) (50, 4.79706645011901855469e-01) (51, 8.38704407215118408203e-01) (52, 1.95805716514587402344e+00) (0, 1.49817846679687500000e+03) (1, -1.49994055175781250000e+03) (2, 1.02915441894531250000e+03) (3, 1.46425122070312500000e+03) (4, 1.50000000000000000000e+03) (5, -1.47612280273437500000e+03) (6, -1.50000000000000000000e+03) (7, -1.43511303710937500000e+03) (8, 1.50000000000000000000e+03) (9, 2.50876808166503906250e+01) (10, -1.50000000000000000000e+03) (11, 2.29438873291015625000e+02) (12, 1.49837365722656250000e+03) (13, -1.49204455566406250000e+03) (14, -1.46792980957031250000e+03) (15, 9.56146606445312500000e+02) (16, -2.59408508300781250000e+02) (17, 1.49367797851562500000e+03) (18, 1.48415197753906250000e+03) (19, -1.39993261718750000000e+03) (20, -1.48299096679687500000e+03) (21, 1.50000000000000000000e+03) (22, -3.99896179199218750000e+02) (23, 1.49516320800781250000e+03) (24, 1.45898718261718750000e+03) (25, 1.95307540893554687500e+01) (26, 1.46184265136718750000e+03) (27, -1.44960717773437500000e+03) (28, -1.50000000000000000000e+03) (29, -1.50000000000000000000e+03) (30, -1.50000000000000000000e+03) (31, 1.50000000000000000000e+03) (32, -1.50000000000000000000e+03) (33, -1.49897033691406250000e+03) (34, 1.10466687011718750000e+03) (35, 1.49997424316406250000e+03) (36, 1.48303564453125000000e+03) (37, 1.46315856933593750000e+03) (38, -9.93071838378906250000e+02) (39, 1.32300920486450195312e+01) (40, 1.49995922851562500000e+03) (41, 1.13814013671875000000e+03) (42, -1.47299951171875000000e+03) (43, -1.49543933105468750000e+03) (44, 1.49972180175781250000e+03) (45, 1.46482580566406250000e+03) (46, -1.45164331054687500000e+03) (47, 1.49994274902343750000e+03) (48, 1.50000000000000000000e+03) (49, -1.50000000000000000000e+03) (50, 1.48805017089843750000e+03) (51, 1.48570886230468750000e+03) (52, -4.06104177236557006836e-01) (0, -1.23503398895263671875e+00) (1, -7.15541183948516845703e-01) (2, 2.16940860748291015625e+01) (3, 5.88343763351440429688e+00) (4, 5.68858444690704345703e-01) (5, 2.40102744102478027344e+00) (6, 7.25943279266357421875e+00) (7, 3.08090031147003173828e-01) (8, 3.73734855651855468750e+00) (9, -3.10621976852416992188e+00) (10, 2.60175633430480957031e+00) (11, 5.22962284088134765625e+00) (12, 1.32815999984741210938e+01) (13, 2.09824752807617187500e+00) (14, 8.63067626953125000000e+00) (15, -7.46384286880493164062e+00) (16, 2.46469449996948242188e+00) (17, 6.43231916427612304688e+00) (18, 1.71974601745605468750e+01) (19, -7.71095466613769531250e+00) (20, 7.95113682746887207031e-01) (21, -1.66999363899230957031e+00) (22, 2.16833457946777343750e+01) (23, 1.43167293071746826172e+00) (24, -3.60583281517028808594e+00) (25, 2.70272016525268554688e+00) (26, 1.75296516418457031250e+01) (27, 3.46138525009155273438e+00) (28, -2.35910201072692871094e+00) (29, 1.74641147255897521973e-01) (30, 1.19112920761108398438e+01) (31, 5.40493917465209960938e+00) (32, 8.78107357025146484375e+00) (33, 8.40921592712402343750e+00) (34, -2.65144395828247070312e+00) (35, -1.38189062476158142090e-01) (36, -4.42905998229980468750e+00) (37, 3.12049937248229980469e+00) (38, 1.30395851135253906250e+01) (39, -1.75901317596435546875e+00) (40, 3.09242534637451171875e+00) (41, 2.73792600631713867188e+00) (42, 6.17810916900634765625e+00) (43, 6.07361674308776855469e-01) (44, 5.74921321868896484375e+00) (45, 9.22484636306762695312e-01) (46, 6.29419040679931640625e+00) (47, 1.13972999155521392822e-01) (48, 8.72123050689697265625e+00) (49, -5.19840300083160400391e-01) (50, 2.70994663238525390625e-01) (51, 2.35096311569213867188e+00) (52, 2.00480699539184570312e+00) (0, 8.32065403461456298828e-01) (1, 1.50000000000000000000e+03) (2, 4.73334729671478271484e-01) (3, 2.11710147857666015625e+01) (4, -1.49913208007812500000e+03) (5, 1.50000000000000000000e+03) (6, 1.50000000000000000000e+03) (7, 1.50000000000000000000e+03) (8, -1.50000000000000000000e+03) (9, 1.07539682388305664062e+01) (10, 1.50000000000000000000e+03) (11, 1.36095324707031250000e+03) (12, 6.77630841732025146484e-01) (13, 5.24655008316040039062e+00) (14, 1.50000000000000000000e+03) (15, 8.68259549140930175781e-01) (16, 1.30959533691406250000e+03) (17, -6.72664117813110351562e+00) (18, 1.50000000000000000000e+03) (19, 3.46187103271484375000e+02) (20, 1.50000000000000000000e+03) (21, -1.50000000000000000000e+03) (22, 1.50000000000000000000e+03) (23, 1.50000000000000000000e+03) (24, 1.50000000000000000000e+03) (25, 2.73520135879516601562e+00) (26, 1.09114685058593750000e+03) (27, 8.35994148254394531250e+00) (28, 1.50000000000000000000e+03) (29, 5.32890558242797851562e+00) (30, 4.51840240478515625000e+02) (31, 3.00583410263061523438e+00) (32, 1.50000000000000000000e+03) (33, 1.70999755859375000000e+01) (34, 1.50000000000000000000e+03) (35, -9.46570873260498046875e-01) (36, 1.50000000000000000000e+03) (37, 1.50000000000000000000e+03) (38, 7.35940647125244140625e+00) (39, 7.80706405639648437500e+00) (40, -5.21086486816406250000e+02) (41, 3.52748799324035644531e+00) (42, 1.50000000000000000000e+03) (43, 1.50000000000000000000e+03) (44, 6.75336217880249023438e+00) (45, 4.35237976074218750000e+02) (46, 1.50000000000000000000e+03) (47, -2.39349365234375000000e+02) (48, 1.65188586711883544922e+00) (49, 1.50000000000000000000e+03) (50, -2.80722975730895996094e+00) (51, 1.50000000000000000000e+03) (52, 4.15929365158081054688e+00) (0, 4.05321478843688964844e-01) (1, 4.35443758964538574219e-01) (2, 4.09725427627563476562e-01) (3, 4.10070836544036865234e-01) (4, 6.76463693380355834961e-02) (5, 7.38830044865608215332e-02) (6, 7.28500038385391235352e-02) (7, 1.14165328443050384521e-01) (8, 3.43368321657180786133e-01) (9, 3.54930907487869262695e-01) (10, 3.33793073892593383789e-01) (11, 4.19878900051116943359e-01) (12, 6.42571523785591125488e-02) (13, 8.26280191540718078613e-02) (14, 3.61904762685298919678e-02) (15, 1.55011117458343505859e-01) (16, 8.42455089092254638672e-01) (17, 6.38250172138214111328e-01) (18, 7.21163570880889892578e-01) (19, 7.10034966468811035156e-01) (20, 1.56864717602729797363e-01) (21, 8.47882125526666641235e-03) (22, 1.51777952909469604492e-01) (23, -4.16587404906749725342e-02) (24, 4.64084029197692871094e-01) (25, 5.61825335025787353516e-01) (26, 5.26332557201385498047e-01) (27, 5.95453679561614990234e-01) (28, 3.99431556463241577148e-01) (29, -1.74023818969726562500e+00) (30, 3.83377462625503540039e-01) (31, 4.62175190448760986328e-01) (32, 2.01103878021240234375e+00) (33, -3.79230380058288574219e-01) (34, 1.86520373821258544922e+00) (35, -1.10247933864593505859e+00) (36, 5.05404531955718994141e-01) (37, 1.05717825889587402344e+00) (38, 7.48578488826751708984e-01) (39, -2.28300228714942932129e-01) (40, 4.67147827148437500000e-01) (41, 3.08559358119964599609e-01) (42, 5.03130555152893066406e-01) (43, 6.11665725708007812500e-01) (44, 3.10524571686983108521e-02) (45, 1.64329707622528076172e-01) (46, 1.30906790494918823242e-01) (47, -2.57897228002548217773e-01) (48, 2.74722099304199218750e-01) (49, 4.96393769979476928711e-01) (50, 3.49105894565582275391e-01) (51, 5.47100603580474853516e-01) (52, 2.50949597358703613281e+00) (0, -1.33066772460937500000e+03) (1, 1.50000000000000000000e+03) (2, 3.03388252258300781250e+01) (3, 3.98116058349609375000e+02) (4, -1.50000000000000000000e+03) (5, 1.49486010742187500000e+03) (6, 1.50000000000000000000e+03) (7, 1.33826995849609375000e+02) (8, -1.50000000000000000000e+03) (9, 2.30027770996093750000e+01) (10, 8.39706176757812500000e+02) (11, 1.17301010131835937500e+02) (12, -1.47860876464843750000e+03) (13, 6.74454711914062500000e+02) (14, -1.26753918457031250000e+03) (15, 7.30720663070678710938e+00) (16, -1.48122729492187500000e+03) (17, 1.32348376464843750000e+03) (18, 5.03839355468750000000e+02) (19, -7.62573913574218750000e+02) (20, 1.41140478515625000000e+03) (21, -1.50000000000000000000e+03) (22, 1.91183815002441406250e+01) (23, 7.45643798828125000000e+02) (24, -1.36892175292968750000e+03) (25, 2.34566998481750488281e+00) (26, 1.47592370605468750000e+03) (27, -1.48250488281250000000e+03) (28, 1.50000000000000000000e+03) (29, 3.35484147071838378906e+00) (30, 1.49932763671875000000e+03) (31, -3.05340003967285156250e+01) (32, 1.50000000000000000000e+03) (33, 1.01904404163360595703e+00) (34, 1.03596960449218750000e+03) (35, -3.16902332305908203125e+01) (36, 1.48846972656250000000e+03) (37, 1.50000000000000000000e+03) (38, -7.12628112792968750000e+02) (39, 1.01478319168090820312e+01) (40, -1.40842211914062500000e+03) (41, 2.90091918945312500000e+02) (42, 1.50000000000000000000e+03) (43, 1.26731237792968750000e+03) (44, 1.05434997558593750000e+02) (45, 1.50000000000000000000e+03) (46, 1.50000000000000000000e+03) (47, -1.37140307617187500000e+03) (48, -1.15765454101562500000e+03) (49, 1.50000000000000000000e+03) (50, -2.26535339355468750000e+01) (51, 1.50000000000000000000e+03) (52, 1.14462816715240478516e+00) (0, 1.27660602331161499023e-01) (1, 9.77529138326644897461e-02) (2, 1.16933852434158325195e-01) (3, 7.56273716688156127930e-02) (4, -1.21937487274408340454e-02) (5, 4.30068336427211761475e-02) (6, 3.71551848948001861572e-02) (7, -9.43170394748449325562e-03) (8, -1.26501679420471191406e-01) (9, -2.24889144301414489746e-01) (10, -7.99306035041809082031e-02) (11, -6.59867897629737854004e-02) (12, 2.44049996137619018555e-01) (13, 1.51097074151039123535e-01) (14, 1.36690184473991394043e-01) (15, 1.10880352556705474854e-01) (16, 4.67335969209671020508e-01) (17, 5.35563468933105468750e-01) (18, 4.69427466392517089844e-01) (19, 4.66797500848770141602e-01) (20, 1.05287039279937744141e+00) (21, 1.08379900455474853516e+00) (22, 1.06890165805816650391e+00) (23, 1.12382948398590087891e+00) (24, 1.53524115681648254395e-01) (25, -1.71716127078980207443e-03) (26, 2.30310291051864624023e-01) (27, 1.56701266765594482422e-01) (28, 3.42998802661895751953e-01) (29, -5.56866466999053955078e-01) (30, 5.60041785240173339844e-01) (31, 2.83050924539566040039e-01) (32, 1.38526201248168945312e+00) (33, -6.12873136997222900391e-01) (34, 1.01190435886383056641e+00) (35, -3.20038795471191406250e-01) (36, 6.65912985801696777344e-01) (37, 1.18137133121490478516e+00) (38, 1.13967680931091308594e+00) (39, 2.11260706186294555664e-01) (40, 3.71943354606628417969e-01) (41, 4.20737802982330322266e-01) (42, 2.92707949876785278320e-01) (43, 3.18574905395507812500e-01) (44, -3.70844334363937377930e-01) (45, -4.89528834819793701172e-01) (46, -3.92448723316192626953e-01) (47, -4.62863326072692871094e-01) (48, 4.98571336269378662109e-01) (49, 3.96380931138992309570e-01) (50, 4.76519316434860229492e-01) (51, 3.07552695274353027344e-01) (52, 4.80475091934204101562e+00) (0, -2.89018958806991577148e-01) (1, 1.97149872779846191406e-01) (2, 4.34271469712257385254e-02) (3, -4.70533594489097595215e-02) (4, -7.34868943691253662109e-01) (5, -2.12577462196350097656e-01) (6, -1.14617757499217987061e-01) (7, 6.37080311775207519531e-01) (8, 4.51448112726211547852e-02) (9, -2.37792491912841796875e-01) (10, 8.45410048961639404297e-01) (11, -1.43905252218246459961e-01) (12, -1.03288516402244567871e-01) (13, 7.93878197669982910156e-01) (14, -8.57132136821746826172e-01) (15, 8.20449218153953552246e-02) (16, -7.32571661472320556641e-01) (17, 1.98083892464637756348e-01) (18, -1.18832081556320190430e-01) (19, -1.18281738832592964172e-02) (20, 8.18078637123107910156e-01) (21, 1.94741308689117431641e-01) (22, -6.48688495159149169922e-01) (23, -1.00215446949005126953e+00) (24, 3.00911188125610351562e+00) (25, -2.01605272293090820312e+00) (26, 1.79837793111801147461e-01) (27, -5.07074594497680664062e-01) (28, -1.07901358604431152344e+00) (29, -2.10600543022155761719e+00) (30, 7.97343015670776367188e+00) (31, -8.72895240783691406250e-01) (32, 1.71276206970214843750e+01) (33, -2.06598252058029174805e-01) (34, 4.80399560928344726562e+00) (35, -1.32688033580780029297e+00) (36, 9.89455819129943847656e-01) (37, -5.90658843517303466797e-01) (38, -2.02034950256347656250e+00) (39, 5.37807941436767578125e-01) (40, 1.02987205982208251953e+00) (41, 2.72113740444183349609e-01) (42, -1.80232316255569458008e-01) (43, -2.21710637211799621582e-01) (44, 8.69724988937377929688e-01) (45, -3.35183024406433105469e-01) (46, -2.01940417289733886719e-01) (47, -9.05753374099731445312e-01) (48, -3.05409550666809082031e-01) (49, 8.08326303958892822266e-01) (50, 6.46374106407165527344e-01) (51, -3.96933168172836303711e-01) (52, -3.32328349351882934570e-01) (0, 4.41658449172973632812e+00) (1, 2.05371952056884765625e+00) (2, 5.40082645416259765625e+00) (3, -3.69455814361572265625e+00) (4, 1.89129054546356201172e+00) (5, 4.26490336656570434570e-01) (6, 1.03943376541137695312e+01) (7, 1.06301760673522949219e+00) (8, 4.58118295669555664062e+00) (9, 9.05138432979583740234e-01) (10, 2.30592513084411621094e+00) (11, -9.37180995941162109375e-01) (12, 7.60537719726562500000e+00) (13, 5.43035149574279785156e-01) (14, 2.30852484703063964844e+00) (15, -3.26578545570373535156e+00) (16, 5.83851671218872070312e+00) (17, 1.90007865428924560547e+00) (18, 6.03051233291625976562e+00) (19, -4.66937017440795898438e+00) (20, 1.91165030002593994141e+00) (21, 1.62146949768066406250e+00) (22, 8.25395488739013671875e+00) (23, -2.56719875335693359375e+00) (24, 7.28882265090942382812e+00) (25, 1.00642538070678710938e+00) (26, -1.96376156806945800781e+00) (27, 1.22393393516540527344e+00) (28, 8.47708606719970703125e+00) (29, -8.14887905120849609375e+00) (30, 8.36898422241210937500e+00) (31, 2.62537074089050292969e+00) (32, 2.18200645446777343750e+01) (33, 1.34532260894775390625e+00) (34, 1.84018268585205078125e+01) (35, -3.82216310501098632812e+00) (36, -5.98677730560302734375e+00) (37, 1.26130218505859375000e+01) (38, 1.99739627838134765625e+01) (39, -5.05211257934570312500e+00) (40, 1.44000473022460937500e+01) (41, -1.83074438571929931641e+00) (42, -1.16125977039337158203e+00) (43, 3.39188456535339355469e+00) (44, 8.73687076568603515625e+00) (45, 1.27688884735107421875e+00) (46, -8.25038433074951171875e+00) (47, 5.06647443771362304688e+00) (48, 1.24144620895385742188e+01) (49, -1.53952229022979736328e+00) (50, 3.78499579429626464844e+00) (51, -5.96013784408569335938e-01) (52, 1.97983980178833007812e+00) (0, 3.95206189155578613281e+00) (1, -1.80492436885833740234e+00) (2, 3.59071731567382812500e+00) (3, 2.91149568557739257812e+00) (4, 4.34997349977493286133e-01) (5, 1.22171533107757568359e+00) (6, 9.10993218421936035156e-01) (7, 3.78807115554809570312e+00) (8, 8.72477054595947265625e+00) (9, -2.68341541290283203125e+00) (10, 5.87379634380340576172e-01) (11, 2.56835246086120605469e+00) (12, 3.14717268943786621094e+00) (13, -2.57495903968811035156e+00) (14, 1.44939136505126953125e+00) (15, 4.09690761566162109375e+00) (16, 2.74243950843811035156e+00) (17, -1.00812029838562011719e+00) (18, -1.49874997138977050781e+00) (19, 6.32544469833374023438e+00) (20, 1.67433249950408935547e+00) (21, -1.22959959506988525391e+00) (22, 2.20212626457214355469e+00) (23, 1.20316314697265625000e+00) (24, 8.45225393772125244141e-01) (25, -1.09943163394927978516e+00) (26, 3.99052286148071289062e+00) (27, 9.51065838336944580078e-01) (28, 4.28960286080837249756e-02) (29, -2.12295174598693847656e+00) (30, 8.69837951660156250000e+00) (31, 1.67746412754058837891e+00) (32, 1.00384626388549804688e+01) (33, -2.19197297096252441406e+00) (34, -1.64052534103393554688e+00) (35, 6.75077199935913085938e+00) (36, -1.16134634017944335938e+01) (37, 7.22987985610961914062e+00) (38, 1.01261482238769531250e+01) (39, 7.41646662354469299316e-02) (40, -1.60099947452545166016e+00) (41, 9.34048748016357421875e+00) (42, 1.03452978134155273438e+01) (43, -2.27418708801269531250e+00) (44, 7.50691127777099609375e+00) (45, 3.21379923820495605469e+00) (46, 2.67706394195556640625e+00) (47, -3.23256206512451171875e+00) (48, 2.10952743887901306152e-01) (49, 4.01777696609497070312e+00) (50, 6.97645711898803710938e+00) (51, -2.83542871475219726562e+00) (52, 2.02091240882873535156e+00) (0, 4.61100302636623382568e-02) (1, 6.12113513052463531494e-02) (2, -5.05267269909381866455e-02) (3, 2.79043633490800857544e-02) (4, -3.62553030252456665039e-01) (5, -1.99777290225028991699e-01) (6, -2.74676799774169921875e-01) (7, -2.51065224409103393555e-01) (8, -1.72404684126377105713e-02) (9, -2.51886453479528427124e-02) (10, 4.95286881923675537109e-02) (11, 5.75099885463714599609e-02) (12, -1.29518583416938781738e-01) (13, -1.69622004032135009766e-01) (14, -1.79453283548355102539e-01) (15, -2.34735161066055297852e-01) (16, 8.03124606609344482422e-01) (17, 9.23238098621368408203e-01) (18, 8.26938211917877197266e-01) (19, 8.20314049720764160156e-01) (20, 3.25683385133743286133e-01) (21, 3.26656132936477661133e-01) (22, 3.06258857250213623047e-01) (23, 3.23233097791671752930e-01) (24, 1.30419218540191650391e+00) (25, 1.03085076808929443359e+00) (26, 1.23885393142700195312e+00) (27, 1.12405550479888916016e+00) (28, 1.35911476612091064453e+00) (29, -8.19446519017219543457e-02) (30, 1.64162564277648925781e+00) (31, 1.41311705112457275391e+00) (32, 2.42179059982299804688e+00) (33, 2.66149431467056274414e-01) (34, 7.51143693923950195312e-01) (35, -1.32911896705627441406e+00) (36, 7.45226263999938964844e-01) (37, -2.92466551065444946289e-01) (38, 1.73552072048187255859e+00) (39, 4.25654202699661254883e-01) (40, 4.64993029832839965820e-01) (41, 6.09078466892242431641e-01) (42, 3.50535362958908081055e-01) (43, 5.70242166519165039062e-01) (44, -1.67419806122779846191e-01) (45, -1.20158679783344268799e-01) (46, -1.93992808461189270020e-01) (47, 2.15062182396650314331e-02) (48, 4.60903376340866088867e-01) (49, 3.48249465227127075195e-01) (50, 3.95687848329544067383e-01) (51, 3.69087785482406616211e-01) (52, 4.67966651916503906250e+00) (0, -6.59105405211448669434e-02) (1, -2.14407090097665786743e-02) (2, -6.84692785143852233887e-02) (3, -1.43675291910767555237e-02) (4, 1.28724768757820129395e-01) (5, 2.16482460498809814453e-01) (6, 1.67465075850486755371e-01) (7, 1.95248663425445556641e-01) (8, 1.21131911873817443848e-01) (9, 1.34471997618675231934e-01) (10, 1.96869507431983947754e-01) (11, 2.15226143598556518555e-01) (12, -5.93826249241828918457e-02) (13, -5.37064038217067718506e-02) (14, -7.08445012569427490234e-02) (15, -7.79900178313255310059e-02) (16, 2.92044401168823242188e-01) (17, 3.51489096879959106445e-01) (18, 2.84434437751770019531e-01) (19, 3.36900830268859863281e-01) (20, 6.73753201961517333984e-01) (21, 7.10921466350555419922e-01) (22, 7.10882961750030517578e-01) (23, 6.41961336135864257812e-01) (24, 6.80683970451354980469e-01) (25, 4.89580899477005004883e-01) (26, 7.22642004489898681641e-01) (27, 7.12613165378570556641e-01) (28, 9.76516723632812500000e-01) (29, 1.95363506674766540527e-01) (30, 9.87958908081054687500e-01) (31, 5.98732650279998779297e-01) (32, 1.64651584625244140625e+00) (33, -1.78321637213230133057e-02) (34, 1.04162395000457763672e+00) (35, 2.43792295455932617188e-01) (36, 1.08613395690917968750e+00) (37, 6.36176538467407226562e+00) (38, -3.08718204498291015625e-01) (39, -7.38928690552711486816e-02) (40, 7.02275872230529785156e-01) (41, 4.45411950349807739258e-01) (42, 3.10155689716339111328e-01) (43, 8.50252270698547363281e-01) (44, 5.36495983600616455078e-01) (45, 5.02159535884857177734e-01) (46, 5.29417157173156738281e-01) (47, 6.63241207599639892578e-01) (48, 3.39280396699905395508e-01) (49, 3.78623336553573608398e-01) (50, 3.42446714639663696289e-01) (51, 3.45241367816925048828e-01) (52, 2.48675179481506347656e+00) (0, -1.95515230298042297363e-01) (1, -3.87647142633795738220e-03) (2, -3.06299775838851928711e-01) (3, -1.47510841488838195801e-01) (4, -4.94959294795989990234e-01) (5, -2.17829152941703796387e-01) (6, -5.32114923000335693359e-01) (7, -5.81362068653106689453e-01) (8, -5.16800224781036376953e-01) (9, -1.72996893525123596191e-01) (10, -3.99863868951797485352e-01) (11, -1.10940493643283843994e-01) (12, 1.37847866863012313843e-02) (13, -2.96828504651784896851e-02) (14, -2.57107228040695190430e-01) (15, 1.77520945668220520020e-01) (16, 2.25786697119474411011e-02) (17, 3.31035435199737548828e-01) (18, -1.40079915523529052734e-01) (19, 3.03554743528366088867e-01) (20, -1.63601040840148925781e-01) (21, -3.41687351465225219727e-01) (22, 1.61213800311088562012e-01) (23, -2.95697242021560668945e-01) (24, -3.31353753805160522461e-01) (25, -3.40799748897552490234e-01) (26, -4.60793614387512207031e-01) (27, 1.19905255734920501709e-01) (28, 3.33705163002014160156e+00) (29, -2.99858570098876953125e+00) (30, 3.78990626335144042969e+00) (31, 3.64568948745727539062e+00) (32, 1.03257761001586914062e+01) (33, -3.00975704193115234375e+00) (34, 2.57344174385070800781e+00) (35, 2.71691274642944335938e+00) (36, 1.99456989765167236328e+00) (37, -5.94555377960205078125e-01) (38, 6.01984214782714843750e+00) (39, -1.89699172973632812500e+00) (40, 2.25325655937194824219e+00) (41, -8.46550762653350830078e-02) (42, 1.14196911454200744629e-01) (43, -2.19291687011718750000e-01) (44, 1.49657034873962402344e+00) (45, -1.18390190601348876953e+00) (46, -3.12889128923416137695e-01) (47, -1.62309706211090087891e-01) (48, -6.08990788459777832031e-02) (49, -8.63051533699035644531e-01) (50, -4.02709573507308959961e-01) (51, -8.85955542325973510742e-02) (52, 2.43102025985717773438e+00) (0, -5.12122102081775665283e-02) (1, 5.36845922470092773438e-02) (2, -8.19892957806587219238e-02) (3, -1.54579980298876762390e-02) (4, 4.68679927289485931396e-02) (5, 7.87574648857116699219e-02) (6, 3.06911710649728775024e-02) (7, 1.42680006101727485657e-02) (8, -1.21286297217011451721e-02) (9, 9.79992598295211791992e-02) (10, -2.20679603517055511475e-02) (11, 6.38553779572248458862e-03) (12, -1.28714740276336669922e-01) (13, -1.01112365722656250000e-01) (14, -1.26327425241470336914e-01) (15, -1.38966009020805358887e-01) (16, 4.44511771202087402344e-02) (17, 8.26034694910049438477e-02) (18, 8.16642213612794876099e-03) (19, 4.90590371191501617432e-02) (20, 4.28359210491180419922e-01) (21, 6.99601292610168457031e-01) (22, 4.67883855104446411133e-01) (23, 2.56160497665405273438e-01) (24, -4.89603839814662933350e-02) (25, -1.51934474706649780273e-01) (26, 1.25107288360595703125e-01) (27, 4.83321100473403930664e-01) (28, 6.99555039405822753906e-01) (29, 3.34509938955307006836e-01) (30, 4.32405948638916015625e-01) (31, -1.51392281055450439453e+00) (32, 2.88166356086730957031e+00) (33, -1.46343851089477539062e+00) (34, 2.80976986885070800781e+00) (35, 2.26944375038146972656e+00) (36, 9.49953615665435791016e-01) (37, 5.93453705310821533203e-01) (38, 1.24912643432617187500e+00) (39, 3.72202205471694469452e-03) (40, 8.94509017467498779297e-01) (41, 7.96066582202911376953e-01) (42, 7.36238241195678710938e-01) (43, 8.52876305580139160156e-01) (44, 3.48414957523345947266e-01) (45, 3.44314694404602050781e-01) (46, 3.91361802816390991211e-01) (47, 5.41461050510406494141e-01) (48, 2.35879033803939819336e-01) (49, 1.73771217465400695801e-01) (50, 2.83182382583618164062e-01) (51, 2.77443408966064453125e-01) (52, 2.60278391838073730469e+00) (53, 2.35433071851730346680e-01) (54, 1.11377909779548645020e-01) (55, 2.18522846698760986328e-01) (56, -5.45837469398975372314e-02) (57, -1.77954450249671936035e-01) (58, 1.57154072076082229614e-02) (59, 8.95575821399688720703e-01) (60, -8.55761647224426269531e-01) (61, -1.06965906918048858643e-01) (62, -1.05456393212080001831e-02) (63, -8.53815376758575439453e-02) (64, 2.90332698822021484375e+00) (65, -8.93442392349243164062e-01) (66, 2.92170071043074131012e-03) (67, 9.67951059341430664062e-01) (68, -1.11465074121952056885e-01) (69, -1.07055254280567169189e-01) (70, -8.99823382496833801270e-02) (71, -8.96368622779846191406e-01) (72, -1.08032500743865966797e+00) (73, -1.26640424132347106934e-01) (74, -8.02427470684051513672e-01) (75, -1.49760925769805908203e+00) 
