FANN_FLO_2.1
num_layers=3
learning_rate=0.700000
connection_rate=1.000000
network_type=0
learning_momentum=0.000000
training_algorithm=2
train_error_function=1
train_stop_function=0
cascade_output_change_fraction=0.010000
quickprop_decay=-0.000100
quickprop_mu=1.750000
rprop_increase_factor=1.200000
rprop_decrease_factor=0.500000
rprop_delta_min=0.000000
rprop_delta_max=50.000000
rprop_delta_zero=0.100000
cascade_output_stagnation_epochs=12
cascade_candidate_change_fraction=0.010000
cascade_candidate_stagnation_epochs=12
cascade_max_out_epochs=150
cascade_min_out_epochs=50
cascade_max_cand_epochs=150
cascade_min_cand_epochs=50
cascade_num_candidate_groups=2
bit_fail_limit=3.49999994039535522461e-01
cascade_candidate_limit=1.00000000000000000000e+03
cascade_weight_multiplier=4.00000005960464477539e-01
cascade_activation_functions_count=10
cascade_activation_functions=3 5 7 8 10 11 14 15 16 17 
cascade_activation_steepnesses_count=4
cascade_activation_steepnesses=2.50000000000000000000e-01 5.00000000000000000000e-01 7.50000000000000000000e-01 1.00000000000000000000e+00 
layer_sizes=53 23 2 
scale_included=0
neurons (num_inputs, activation_function, activation_steepness)=(0, 0, 0.00000000000000000000e+00) (0, 0, 0.00000000000000000000e+00) (0, 0, 0.00000000000000000000e+00) (0, 0, 0.00000000000000000000e+00) (0, 0, 0.00000000000000000000e+00) (0, 0, 0.00000000000000000000e+00) (0, 0, 0.00000000000000000000e+00) (0, 0, 0.00000000000000000000e+00) (0, 0, 0.00000000000000000000e+00) (0, 0, 0.00000000000000000000e+00) (0, 0, 0.00000000000000000000e+00) (0, 0, 0.00000000000000000000e+00) (0, 0, 0.00000000000000000000e+00) (0, 0, 0.00000000000000000000e+00) (0, 0, 0.00000000000000000000e+00) (0, 0, 0.00000000000000000000e+00) (0, 0, 0.00000000000000000000e+00) (0, 0, 0.00000000000000000000e+00) (0, 0, 0.00000000000000000000e+00) (0, 0, 0.00000000000000000000e+00) (0, 0, 0.00000000000000000000e+00) (0, 0, 0.00000000000000000000e+00) (0, 0, 0.00000000000000000000e+00) (0, 0, 0.00000000000000000000e+00) (0, 0, 0.00000000000000000000e+00) (0, 0, 0.00000000000000000000e+00) (0, 0, 0.00000000000000000000e+00) (0, 0, 0.00000000000000000000e+00) (0, 0, 0.00000000000000000000e+00) (0, 0, 0.00000000000000000000e+00) (0, 0, 0.00000000000000000000e+00) (0, 0, 0.00000000000000000000e+00) (0, 0, 0.00000000000000000000e+00) (0, 0, 0.00000000000000000000e+00) (0, 0, 0.00000000000000000000e+00) (0, 0, 0.00000000000000000000e+00) (0, 0, 0.00000000000000000000e+00) (0, 0, 0.00000000000000000000e+00) (0, 0, 0.00000000000000000000e+00) (0, 0, 0.00000000000000000000e+00) (0, 0, 0.00000000000000000000e+00) (0, 0, 0.00000000000000000000e+00) (0, 0, 0.00000000000000000000e+00) (0, 0, 0.00000000000000000000e+00) (0, 0, 0.00000000000000000000e+00) (0, 0, 0.00000000000000000000e+00) (0, 0, 0.00000000000000000000e+00) (0, 0, 0.00000000000000000000e+00) (0, 0, 0.00000000000000000000e+00) (0, 0, 0.00000000000000000000e+00) (0, 0, 0.00000000000000000000e+00) (0, 0, 0.00000000000000000000e+00) (0, 0, 0.00000000000000000000e+00) (53, 5, 5.00000000000000000000e-01) (53, 5, 5.00000000000000000000e-01) (53, 5, 5.00000000000000000000e-01) (53, 5, 5.00000000000000000000e-01) (53, 5, 5.00000000000000000000e-01) (53, 5, 5.00000000000000000000e-01) (53, 5, 5.00000000000000000000e-01) (53, 5, 5.00000000000000000000e-01) (53, 5, 5.00000000000000000000e-01) (53, 5, 5.00000000000000000000e-01) (53, 5, 5.00000000000000000000e-01) (53, 5, 5.00000000000000000000e-01) (53, 5, 5.00000000000000000000e-01) (53, 5, 5.00000000000000000000e-01) (53, 5, 5.00000000000000000000e-01) (53, 5, 5.00000000000000000000e-01) (53, 5, 5.00000000000000000000e-01) (53, 5, 5.00000000000000000000e-01) (53, 5, 5.00000000000000000000e-01) (53, 5, 5.00000000000000000000e-01) (53, 5, 5.00000000000000000000e-01) (53, 5, 5.00000000000000000000e-01) (0, 5, 0.00000000000000000000e+00) (23, 5, 5.00000000000000000000e-01) (0, 5, 0.00000000000000000000e+00) 
connections (connected_to_neuron, weight)=(0, 9.74055671691894531250e+00) (1, 2.12572006225585937500e+02) (2, -2.33201095581054687500e+02) (3, 2.82492858886718750000e+02) (4, 4.83295291662216186523e-01) (5, -2.25025138854980468750e+01) (6, 3.05082366943359375000e+02) (7, 2.69464843750000000000e+02) (8, -7.75007476806640625000e+01) (9, 7.03608798980712890625e+00) (10, 2.68221160888671875000e+02) (11, 4.55121345520019531250e+01) (12, 3.23579681396484375000e+02) (13, -6.98086318969726562500e+01) (14, 4.90007638931274414062e+00) (15, 1.80174957275390625000e+02) (16, 2.08418334960937500000e+02) (17, 1.70643768310546875000e+01) (18, 1.01435279846191406250e+02) (19, -4.18172393798828125000e+02) (20, 1.33829910278320312500e+02) (21, -5.28960075378417968750e+01) (22, 2.05029029846191406250e+01) (23, 1.45204381942749023438e+01) (24, -4.78303649902343750000e+02) (25, 9.61040344238281250000e+02) (26, -6.59725875854492187500e+01) (27, 1.50000000000000000000e+03) (28, -1.08783032226562500000e+03) (29, 3.60526397705078125000e+02) (30, 6.58336334228515625000e+01) (31, 9.85896972656250000000e+02) (32, 4.14747406005859375000e+02) (33, -2.18144210815429687500e+02) (34, 1.26149078369140625000e+02) (35, 2.24865798950195312500e+01) (36, -1.87939575195312500000e+02) (37, 1.50000000000000000000e+03) (38, -1.64734909057617187500e+02) (39, 2.74311656951904296875e+01) (40, 3.68421325683593750000e+02) (41, -1.49620239257812500000e+02) (42, 1.34444293975830078125e+01) (43, 5.23028869628906250000e+02) (44, 3.39130279541015625000e+02) (45, 4.94741592407226562500e+01) (46, 6.71188020706176757812e+00) (47, -1.38950225830078125000e+02) (48, -5.32792854309082031250e+01) (49, 2.59862762451171875000e+02) (50, 1.03147659301757812500e+01) (51, 6.59547958374023437500e+01) (52, -3.12216448783874511719e+00) (0, -2.79490321874618530273e-01) (1, 3.77764739990234375000e+01) (2, -1.90330753326416015625e+01) (3, -6.00157117843627929688e+00) (4, 7.24455881118774414062e+00) (5, 2.89120554924011230469e+00) (6, -5.10067749023437500000e+00) (7, -2.57952995300292968750e+01) (8, 2.47324848175048828125e+00) (9, 3.20764231681823730469e+00) (10, -2.80330638885498046875e+01) (11, 1.32241096496582031250e+01) (12, -2.17130517959594726562e+00) (13, -3.77708005905151367188e+00) (14, -2.06415963172912597656e+00) (15, 3.04025211334228515625e+01) (16, -3.97067141532897949219e+00) (17, 1.15559539794921875000e+01) (18, -3.25274133682250976562e+00) (19, 4.58258485794067382812e+00) (20, 4.16732330322265625000e+01) (21, -1.61784915924072265625e+01) (22, -6.99307918548583984375e-01) (23, -8.17161083221435546875e+00) (24, 8.52522790431976318359e-01) (25, -4.46568870544433593750e+00) (26, 1.13084325790405273438e+01) (27, -6.14653854370117187500e+01) (28, 1.56403579711914062500e+01) (29, -1.57111701965332031250e+01) (30, -4.63841342926025390625e+00) (31, 5.91371917724609375000e+00) (32, 3.10437369346618652344e+00) (33, 5.72028875350952148438e+00) (34, -3.96648979187011718750e+01) (35, 4.01872920989990234375e+00) (36, -4.01267204284667968750e+01) (37, -1.66723060607910156250e+00) (38, 4.33205146789550781250e+01) (39, -1.35995759963989257812e+01) (40, 1.02716894149780273438e+01) (41, -9.52677631378173828125e+00) (42, -1.49600753784179687500e+01) (43, 9.56869411468505859375e+00) (44, -6.93196258544921875000e+01) (45, 8.52830028533935546875e+00) (46, -2.91274356842041015625e+00) (47, 1.78686180114746093750e+01) (48, -1.63301830291748046875e+01) (49, 1.28049926757812500000e+01) (50, 1.90650856494903564453e+00) (51, -9.41236877441406250000e+00) (52, 3.41982507705688476562e+00) (0, -8.00400924682617187500e+00) (1, 3.60158872604370117188e+00) (2, -3.47427427768707275391e-01) (3, 3.75974035263061523438e+00) (4, 2.47912669181823730469e+00) (5, -3.53794860839843750000e+00) (6, 1.75811469554901123047e+00) (7, -2.40314126014709472656e+00) (8, 2.89106202125549316406e+00) (9, 4.49516505002975463867e-01) (10, -3.64838719367980957031e+00) (11, 4.71872472763061523438e+00) (12, -1.09861814975738525391e+00) (13, -4.13584661483764648438e+00) (14, 4.67445820569992065430e-01) (15, 1.42387609481811523438e+01) (16, 2.85470414161682128906e+00) (17, -9.74395942687988281250e+00) (18, 1.57852232456207275391e+00) (19, 7.87492394447326660156e-01) (20, -4.13000822067260742188e+00) (21, 6.48608684539794921875e+00) (22, -2.56696999073028564453e-01) (23, 2.67390084266662597656e+00) (24, 6.25432920455932617188e+00) (25, -2.27828769683837890625e+01) (26, -1.41273081302642822266e-01) (27, 5.09412574768066406250e+00) (28, 5.37388849258422851562e+00) (29, -3.32290440797805786133e-01) (30, -5.18184483051300048828e-01) (31, -1.58431470394134521484e+00) (32, -3.99049210548400878906e+00) (33, 4.69679713249206542969e-01) (34, 5.07663440704345703125e+00) (35, -2.69279122352600097656e+00) (36, -6.70702981948852539062e+00) (37, 8.14126110076904296875e+00) (38, 1.68981254100799560547e+00) (39, -9.65981674194335937500e+00) (40, -7.35488891601562500000e+00) (41, 5.33438730239868164062e+00) (42, 2.76835322380065917969e+00) (43, -1.74047527313232421875e+01) (44, -3.39618945121765136719e+00) (45, 1.23679513931274414062e+01) (46, -1.08782644271850585938e+01) (47, 1.43622579574584960938e+01) (48, -2.31075668334960937500e+01) (49, 4.54898548126220703125e+00) (50, 3.86048483848571777344e+00) (51, -5.25274753570556640625e+00) (52, 3.80535006523132324219e+00) (0, -2.15869369506835937500e+02) (1, -2.69720482826232910156e+00) (2, 6.51501541137695312500e+01) (3, 1.10175895690917968750e+02) (4, -7.64206619262695312500e+01) (5, 3.98029632568359375000e+02) (6, 4.48390846252441406250e+01) (7, -9.50626907348632812500e+01) (8, 9.67733154296875000000e+02) (9, -3.40581390380859375000e+02) (10, 2.69217872619628906250e+01) (11, -5.57754421234130859375e+00) (12, 5.08010101318359375000e+02) (13, -9.41228637695312500000e+01) (14, 1.57626678466796875000e+02) (15, -2.11082321166992187500e+02) (16, -2.14447479248046875000e+01) (17, 3.12461090087890625000e+02) (18, -3.57910614013671875000e+01) (19, 1.61542465209960937500e+02) (20, -3.05010192871093750000e+02) (21, 8.72213668823242187500e+01) (22, 4.83653640747070312500e+01) (23, -3.11240744590759277344e+00) (24, -1.12186744689941406250e+02) (25, 1.93023132324218750000e+02) (26, 1.16361289978027343750e+02) (27, -2.49451766967773437500e+02) (28, -2.27387557983398437500e+02) (29, -9.82002792358398437500e+01) (30, 3.74880523681640625000e+02) (31, 5.17196533203125000000e+02) (32, -1.91084762573242187500e+02) (33, 2.57083557128906250000e+02) (34, 5.60637695312500000000e+02) (35, -3.44459457397460937500e+01) (36, 1.77637832641601562500e+02) (37, -6.16272705078125000000e+02) (38, 1.17877937316894531250e+02) (39, -4.04870071411132812500e+01) (40, 5.04631622314453125000e+02) (41, -9.18766880035400390625e+00) (42, -1.41621276855468750000e+02) (43, 5.42085693359375000000e+02) (44, 3.96490447998046875000e+02) (45, -5.72643615722656250000e+02) (46, 3.52823448181152343750e+01) (47, -9.26513061523437500000e+01) (48, -9.39886093139648437500e+00) (49, -5.25980072021484375000e+01) (50, 2.82748809814453125000e+02) (51, 2.00479553222656250000e+02) (52, 1.73849403858184814453e+00) (0, 2.53012512207031250000e+02) (1, 8.91466999053955078125e+00) (2, -5.92216796875000000000e+01) (3, -2.33571273803710937500e+02) (4, -9.91053085327148437500e+01) (5, 2.37807373046875000000e+02) (6, -1.20867099761962890625e+01) (7, 2.29416290283203125000e+02) (8, -2.63331573486328125000e+02) (9, 5.63786172866821289062e+00) (10, 2.09195312500000000000e+02) (11, -1.58277542114257812500e+02) (12, 1.14653224945068359375e+01) (13, 2.77934997558593750000e+02) (14, -4.30650596618652343750e+01) (15, -3.21537994384765625000e+02) (16, 4.11111793518066406250e+01) (17, 4.22467376708984375000e+02) (18, -1.89162368774414062500e+01) (19, -2.75776123046875000000e+02) (20, -9.50427703857421875000e+01) (21, 7.87957946777343750000e+02) (22, -3.14543975830078125000e+02) (23, 8.13425903320312500000e+02) (24, -8.55978012084960937500e+01) (25, 5.75675048828125000000e+02) (26, -1.70929126739501953125e+01) (27, 3.52264007568359375000e+02) (28, -9.67234115600585937500e+01) (29, 2.03131122589111328125e+01) (30, -6.37371482849121093750e+01) (31, 3.17618927001953125000e+02) (32, -4.74485321044921875000e+01) (33, 4.00554107666015625000e+02) (34, 3.33561935424804687500e+01) (35, -3.13247741699218750000e+02) (36, 1.47487350463867187500e+02) (37, -9.22679519653320312500e+01) (38, -5.16068983078002929688e+00) (39, 1.16314254760742187500e+02) (40, -3.63836669921875000000e+01) (41, -1.08490417480468750000e+02) (42, 1.67804946899414062500e+02) (43, 3.79188575744628906250e+01) (44, -2.80160486698150634766e-01) (45, -2.91072784423828125000e+02) (46, 2.37893692016601562500e+02) (47, -2.13543176651000976562e+00) (48, 6.06992759704589843750e+01) (49, -1.00440511703491210938e+01) (50, -1.32153656005859375000e+02) (51, 4.89727096557617187500e+01) (52, 2.55780315399169921875e+00) (0, 2.60967445373535156250e+00) (1, 1.93005836009979248047e+00) (2, -5.68837833404541015625e+00) (3, 5.49733781814575195312e+00) (4, 5.65082502365112304688e+00) (5, 2.40051250457763671875e+01) (6, -4.29779243469238281250e+00) (7, 1.59458732604980468750e+00) (8, -3.96095037460327148438e-01) (9, 3.61377549171447753906e+00) (10, 2.61668777465820312500e+00) (11, -1.85719227790832519531e+00) (12, -1.10164237022399902344e+00) (13, 7.79928541183471679688e+00) (14, 5.92469692230224609375e+00) (15, -1.13193190097808837891e+00) (16, 8.60610103607177734375e+00) (17, 3.22005897760391235352e-01) (18, 7.73779392242431640625e+00) (19, -6.96404314041137695312e+00) (20, 6.89724683761596679688e+00) (21, 5.05471944808959960938e+00) (22, -3.28321993350982666016e-01) (23, -6.21499824523925781250e+00) (24, 1.59451618194580078125e+01) (25, -1.89252901077270507812e+00) (26, -9.05951023101806640625e-01) (27, 5.64801692962646484375e+00) (28, 6.03780078887939453125e+00) (29, -5.19387125968933105469e-01) (30, 8.86162042617797851562e-01) (31, 1.63242864608764648438e+00) (32, 3.36467552185058593750e+00) (33, -2.21479201316833496094e+00) (34, 1.83783340454101562500e+00) (35, 2.05508060455322265625e+01) (36, -2.15953397750854492188e+00) (37, 8.11334550380706787109e-01) (38, 5.17002534866333007812e+00) (39, 1.60155029296875000000e+01) (40, 5.96828997135162353516e-01) (41, -1.72242879867553710938e-01) (42, 6.28711986541748046875e+00) (43, 2.11822390556335449219e+00) (44, 1.80661356449127197266e+00) (45, -4.24936914443969726562e+00) (46, 8.37238216400146484375e+00) (47, 4.50512933731079101562e+00) (48, 2.15791082382202148438e+00) (49, 4.49242687225341796875e+00) (50, -2.81029009819030761719e+00) (51, 4.47625827789306640625e+00) (52, 2.90591478347778320312e+00) (0, 6.89320385456085205078e-01) (1, -1.52719065546989440918e-01) (2, 3.41827213764190673828e-01) (3, -1.25016555190086364746e-01) (4, 6.48679137229919433594e-01) (5, -2.54151344299316406250e-01) (6, 3.57562184333801269531e-01) (7, -2.33420103788375854492e-01) (8, -4.45488542318344116211e-01) (9, -1.01290643215179443359e+00) (10, 1.34084212779998779297e+00) (11, -3.46080772578716278076e-02) (12, 2.76457637548446655273e-01) (13, 3.85924398899078369141e-01) (14, -5.72885870933532714844e-02) (15, -1.94817647337913513184e-01) (16, -6.89738020300865173340e-02) (17, -5.67643702030181884766e-01) (18, 5.18130004405975341797e-01) (19, -6.73161864280700683594e-01) (20, 5.23107528686523437500e-01) (21, -6.64259642362594604492e-02) (22, 6.22787028551101684570e-02) (23, -4.13869082927703857422e-01) (24, -5.38306593894958496094e-01) (25, 8.67647469043731689453e-01) (26, 8.00208449363708496094e-01) (27, 8.65604043006896972656e-01) (28, 1.34158417582511901855e-01) (29, 4.37483221292495727539e-01) (30, 8.30171033740043640137e-02) (31, 6.93655073642730712891e-01) (32, -4.29105222225189208984e-01) (33, 7.30922877788543701172e-01) (34, 3.41698020696640014648e-01) (35, 1.09996271133422851562e+00) (36, 5.35051405429840087891e-01) (37, -5.24342954158782958984e-01) (38, 7.79448598623275756836e-02) (39, 1.37816190719604492188e+00) (40, 3.84916603565216064453e-01) (41, -4.42323787137866020203e-03) (42, 5.48486351966857910156e-01) (43, -2.84218549728393554688e-01) (44, 7.94570565223693847656e-01) (45, -1.57917179167270660400e-02) (46, 1.80473312735557556152e-01) (47, 5.80701768398284912109e-01) (48, 3.38260591030120849609e-01) (49, 8.32348838448524475098e-02) (50, -2.91344642639160156250e-01) (51, 6.32959306240081787109e-01) (52, 3.72247552871704101562e+00) (0, -2.13752484321594238281e+00) (1, 1.53893518447875976562e+00) (2, 1.04137766361236572266e+00) (3, -2.16157984733581542969e+00) (4, -1.14413726329803466797e+00) (5, 1.04155802726745605469e+00) (6, -3.39382600784301757812e+00) (7, 3.49776244163513183594e+00) (8, -1.55944042205810546875e+01) (9, 3.48843932151794433594e+00) (10, 1.53839838504791259766e+00) (11, -1.16865420341491699219e+00) (12, -7.58645009994506835938e+00) (13, -4.14452701807022094727e-01) (14, 1.35212039947509765625e+00) (15, 2.20913290977478027344e+00) (16, -3.04197955131530761719e+00) (17, -1.60715222358703613281e+00) (18, 9.67566072940826416016e-01) (19, 4.68521213531494140625e+00) (20, 2.14383983612060546875e+00) (21, -7.31532871723175048828e-01) (22, 1.81804269552230834961e-01) (23, -2.10498428344726562500e+00) (24, 2.71518826484680175781e+00) (25, -6.90799617767333984375e+00) (26, -5.58858096599578857422e-01) (27, 2.59651994705200195312e+00) (28, 9.23625278472900390625e+00) (29, -2.24648296833038330078e-01) (30, -5.86076593399047851562e+00) (31, -2.47104644775390625000e+01) (32, 1.09955215454101562500e+01) (33, -6.70796537399291992188e+00) (34, -5.25144767761230468750e+00) (35, 2.29890608787536621094e+00) (36, -9.96805846691131591797e-01) (37, -7.35481882095336914062e+00) (38, 7.13275790214538574219e-01) (39, 3.07392787933349609375e+00) (40, 7.95147061347961425781e-01) (41, 3.78098535537719726562e+00) (42, -3.25473904609680175781e+00) (43, -2.11852741241455078125e+00) (44, -7.89157724380493164062e+00) (45, 3.71600174903869628906e+00) (46, -7.60583996772766113281e-01) (47, 4.07835841178894042969e-01) (48, -4.28872376680374145508e-01) (49, 9.48941326141357421875e+00) (50, -3.26825594902038574219e+00) (51, -5.01079368591308593750e+00) (52, 3.92273855209350585938e+00) (0, -7.50574946403503417969e-01) (1, 2.43187618255615234375e+00) (2, 1.09561800956726074219e+00) (3, -3.35899162292480468750e+00) (4, 2.25948548316955566406e+00) (5, 1.80994784832000732422e+00) (6, 9.53570008277893066406e-02) (7, -2.87117266654968261719e+00) (8, -3.20002913475036621094e+00) (9, 1.71999049186706542969e+00) (10, 4.06298923492431640625e+00) (11, -4.87195587158203125000e+00) (12, -3.64837789535522460938e+00) (13, 2.00109645724296569824e-01) (14, 6.57467317581176757812e+00) (15, -3.03807759284973144531e+00) (16, 6.28651475906372070312e+00) (17, -7.12892723083496093750e+00) (18, 2.55885362625122070312e+00) (19, -1.84297513961791992188e+00) (20, 2.03507595062255859375e+01) (21, -3.20339965820312500000e+00) (22, 1.25470819473266601562e+01) (23, -6.85223865509033203125e+00) (24, 8.86496067047119140625e+00) (25, -1.00266723632812500000e+01) (26, 2.72822532653808593750e+01) (27, -3.60333114862442016602e-01) (28, 6.42672014236450195312e+00) (29, -3.28871989250183105469e+00) (30, 1.22005929946899414062e+01) (31, -8.44172382354736328125e+00) (32, 1.01416969299316406250e+01) (33, -5.27316427230834960938e+00) (34, 5.50947487354278564453e-01) (35, 1.54222333431243896484e+00) (36, 3.23117637634277343750e+00) (37, -3.54643821716308593750e-01) (38, -2.26063466072082519531e+00) (39, 6.23008298873901367188e+00) (40, 2.83671593666076660156e+00) (41, 7.73585605621337890625e+00) (42, -5.99883747100830078125e+00) (43, 8.17967534065246582031e-01) (44, -7.97388672828674316406e-01) (45, 1.04153537750244140625e+01) (46, -7.21035361289978027344e-01) (47, -1.01554286479949951172e+00) (48, -1.73105653375387191772e-02) (49, -3.43286347389221191406e+00) (50, 6.53321409225463867188e+00) (51, -1.78244256973266601562e+00) (52, 3.81801843643188476562e+00) (0, 1.11025856018066406250e+02) (1, 6.49343032836914062500e+01) (2, 1.60841903686523437500e+02) (3, -5.30134277343750000000e+02) (4, -2.33067207336425781250e+01) (5, -1.11248331069946289062e+01) (6, 4.72097564697265625000e+02) (7, 3.62059295654296875000e+02) (8, -6.55510864257812500000e+01) (9, -4.76124534606933593750e+01) (10, 7.00268981933593750000e+02) (11, 5.25929260253906250000e+01) (12, 9.18858764648437500000e+02) (13, -1.03272338867187500000e+03) (14, 6.12695251464843750000e+02) (15, -8.33978116512298583984e-01) (16, -1.73368408203125000000e+02) (17, 5.67158447265625000000e+02) (18, 1.72110137939453125000e+01) (19, 8.80382507324218750000e+02) (20, -2.29662170410156250000e+02) (21, 1.11321350097656250000e+03) (22, 2.27859359741210937500e+02) (23, -3.58268165588378906250e+00) (24, 6.10797485351562500000e+02) (25, 1.50000000000000000000e+03) (26, -1.26607818603515625000e+02) (27, -1.38802563476562500000e+03) (28, -8.18251464843750000000e+02) (29, 4.73593170166015625000e+02) (30, 2.44761459350585937500e+02) (31, 1.90931644439697265625e+01) (32, 8.70913696289062500000e+02) (33, -6.96340026855468750000e+02) (34, 3.71631660461425781250e+01) (35, 4.21587705612182617188e+00) (36, -1.23551017761230468750e+02) (37, 6.91811767578125000000e+02) (38, 1.23250595092773437500e+02) (39, -3.56435546875000000000e+01) (40, -1.33905151367187500000e+02) (41, 2.07565736770629882812e+00) (42, 5.83860595703125000000e+02) (43, 1.43160083007812500000e+03) (44, 1.50000000000000000000e+03) (45, -7.13175476074218750000e+02) (46, -3.97975502014160156250e+01) (47, 1.35276904296875000000e+03) (48, 1.07921838378906250000e+03) (49, -3.74136993408203125000e+02) (50, 3.91619232177734375000e+02) (51, 2.00088844299316406250e+01) (52, 2.09477216005325317383e-01) (0, -5.37718725204467773438e+00) (1, 2.94735646247863769531e+00) (2, 6.45291626453399658203e-01) (3, -7.98225688934326171875e+00) (4, 1.59112381935119628906e+00) (5, -7.09262895584106445312e+00) (6, -1.24891474843025207520e-02) (7, 2.11092877388000488281e+00) (8, -5.87791395187377929688e+00) (9, 2.37416172027587890625e+00) (10, -2.81873965263366699219e+00) (11, 3.90435242652893066406e+00) (12, -6.22972917556762695312e+00) (13, 2.35831212997436523438e+00) (14, 1.81431323289871215820e-03) (15, 3.86050164699554443359e-01) (16, -7.91251897811889648438e-01) (17, -7.00848531723022460938e+00) (18, 5.11069059371948242188e+00) (19, -1.80945241451263427734e+00) (20, 6.30993080139160156250e+00) (21, -1.01388063430786132812e+01) (22, 3.58710378408432006836e-01) (23, -1.44268674850463867188e+01) (24, -2.52126884460449218750e+00) (25, 4.02954387664794921875e+00) (26, -4.97516965866088867188e+00) (27, 1.60427045822143554688e+00) (28, -2.37771362066268920898e-01) (29, 1.96891939640045166016e+00) (30, -8.55024528503417968750e+00) (31, 1.70050728321075439453e+00) (32, -8.28439056873321533203e-01) (33, -6.07651233673095703125e+00) (34, -3.95849525928497314453e-01) (35, 9.34789276123046875000e+00) (36, -4.92631793022155761719e-01) (37, 5.02099037170410156250e-01) (38, -2.16116666793823242188e-01) (39, -1.34000527858734130859e+00) (40, -4.41744995117187500000e+00) (41, 5.31255865097045898438e+00) (42, 6.21340811252593994141e-01) (43, -2.31150937080383300781e+00) (44, -2.58449339866638183594e+00) (45, 1.45119829177856445312e+01) (46, -1.07467679977416992188e+01) (47, -4.16064453125000000000e+00) (48, 3.93509149551391601562e+00) (49, 1.63432586193084716797e+00) (50, -7.23966646194458007812e+00) (51, -5.26524543762207031250e+00) (52, 4.27793693542480468750e+00) (0, -7.28496789932250976562e+00) (1, 1.21576271057128906250e+01) (2, -3.53860449790954589844e+00) (3, 1.88860070705413818359e+00) (4, -2.14882683753967285156e+00) (5, 1.33573350906372070312e+01) (6, -4.62348908185958862305e-01) (7, -1.36402111053466796875e+01) (8, -9.53932571411132812500e+00) (9, 1.14468040466308593750e+01) (10, 2.55016183853149414062e+00) (11, -1.58224134445190429688e+01) (12, 1.96745079010725021362e-02) (13, 4.17125654220581054688e+00) (14, -3.10766768455505371094e+00) (15, -7.49833643436431884766e-01) (16, -1.50663833618164062500e+01) (17, 1.95125210285186767578e+00) (18, 3.19021654129028320312e+00) (19, 2.50881886482238769531e+00) (20, -3.11666107177734375000e+00) (21, -8.30620574951171875000e+00) (22, 4.16812782287597656250e+01) (23, -7.47723484039306640625e+00) (24, -1.12324085235595703125e+01) (25, -1.50385169982910156250e+01) (26, 2.98675079345703125000e+01) (27, 5.15095281600952148438e+00) (28, 1.19383039474487304688e+01) (29, -1.13673257827758789062e+01) (30, 2.84089541435241699219e+00) (31, -3.72450256347656250000e+00) (32, 1.30849180221557617188e+01) (33, 5.46439266204833984375e+00) (34, -2.29843692779541015625e+01) (35, -1.53007256984710693359e+00) (36, -7.15703153610229492188e+00) (37, 6.31903505325317382812e+00) (38, -2.84250664710998535156e+00) (39, 1.39974460601806640625e+01) (40, -8.97557139396667480469e-01) (41, 1.12021284103393554688e+01) (42, -9.66539955139160156250e+00) (43, 1.69163084030151367188e+00) (44, -1.16957736015319824219e+00) (45, 3.06866550445556640625e+01) (46, -1.13772840499877929688e+01) (47, 4.79533767700195312500e+00) (48, -2.33927574157714843750e+01) (49, 2.17228584289550781250e+01) (50, 8.20956900715827941895e-02) (51, 4.26611095666885375977e-01) (52, 4.02241468429565429688e+00) (0, -6.39989746093750000000e+02) (1, 1.50000000000000000000e+03) (2, -8.90920486450195312500e+01) (3, 5.01264839172363281250e+01) (4, 5.15243530273437500000e+02) (5, 6.27340576171875000000e+02) (6, -4.75171508789062500000e+02) (7, -1.15415551757812500000e+03) (8, 3.78816299438476562500e+01) (9, -7.14509033203125000000e+02) (10, 2.79191406250000000000e+02) (11, -9.47686218261718750000e+02) (12, 2.60047882080078125000e+02) (13, 1.73697937011718750000e+02) (14, -5.70335655212402343750e+01) (15, -2.59896240234375000000e+02) (16, -3.20182342529296875000e+02) (17, -1.07006347656250000000e+03) (18, 5.13652770996093750000e+02) (19, 1.50000000000000000000e+03) (20, -4.10887725830078125000e+02) (21, 3.31586380004882812500e+01) (22, 2.75363220214843750000e+02) (23, -7.71636734008789062500e+01) (24, -1.35400732421875000000e+03) (25, -1.15062622070312500000e+03) (26, 4.86326416015625000000e+02) (27, 9.36523559570312500000e+02) (28, 1.04884384155273437500e+02) (29, -2.22277694702148437500e+02) (30, 2.49268463134765625000e+02) (31, -2.62578674316406250000e+02) (32, -9.49144531250000000000e+02) (33, -4.63925231933593750000e+02) (34, 1.39374804687500000000e+03) (35, 7.96536621093750000000e+02) (36, -1.68179641723632812500e+02) (37, 2.76917449951171875000e+02) (38, -1.17545616149902343750e+02) (39, 9.07972717285156250000e+01) (40, 1.03406506347656250000e+03) (41, 1.15555238723754882812e+00) (42, -6.35238769531250000000e+02) (43, 8.00335464477539062500e+01) (44, -3.59122894287109375000e+02) (45, 4.21821624755859375000e+02) (46, 1.08944433593750000000e+03) (47, -2.21408203125000000000e+02) (48, -3.74026679992675781250e+01) (49, 7.53064651489257812500e+01) (50, 4.70492057800292968750e+01) (51, -1.15940124511718750000e+03) (52, 1.73049545288085937500e+00) (0, 7.59016656875610351562e+00) (1, 1.79677944183349609375e+01) (2, -4.60267126560211181641e-01) (3, -6.97485494613647460938e+00) (4, 1.34458551406860351562e+01) (5, 1.57550106048583984375e+01) (6, -1.22700901031494140625e+01) (7, 1.35476016998291015625e+00) (8, 1.57985010147094726562e+01) (9, -2.95820021629333496094e+00) (10, -1.84991550445556640625e+00) (11, 1.79736862182617187500e+01) (12, 1.33722572326660156250e+01) (13, 1.20987434387207031250e+01) (14, -8.97481918334960937500e-01) (15, -1.52634038925170898438e+01) (16, 7.24208116531372070312e+00) (17, 8.35747623443603515625e+00) (18, -1.93450336456298828125e+01) (19, 1.65433959960937500000e+01) (20, -3.42826890945434570312e+00) (21, -4.85723686218261718750e+00) (22, 1.79011402130126953125e+01) (23, 1.63548316955566406250e+01) (24, 1.17444629669189453125e+01) (25, 2.10746264457702636719e+00) (26, -1.01726417541503906250e+01) (27, 4.42567138671875000000e+01) (28, -1.31027231216430664062e+01) (29, 3.11726868152618408203e-01) (30, 1.35957393646240234375e+01) (31, 4.07489662170410156250e+01) (32, -1.53935477137565612793e-01) (33, 1.78322257995605468750e+01) (34, -6.60882711410522460938e+00) (35, 2.31977634429931640625e+01) (36, 1.54202537536621093750e+01) (37, -9.72435176372528076172e-01) (38, 7.61310625076293945312e+00) (39, -7.44803428649902343750e+00) (40, 6.37761545181274414062e+00) (41, -3.11437726020812988281e+00) (42, 2.09940891265869140625e+01) (43, -6.36660575866699218750e+00) (44, 1.96923744678497314453e+00) (45, -9.70625209808349609375e+00) (46, 9.38610649108886718750e+00) (47, 9.06033325195312500000e+00) (48, 2.60736775398254394531e+00) (49, 1.70766651630401611328e+00) (50, 5.49589872360229492188e+00) (51, -2.78796911239624023438e+00) (52, 9.25298869609832763672e-01) (0, -6.69066572189331054688e+00) (1, 1.73288249969482421875e+01) (2, -4.38613653182983398438e+00) (3, 4.19849243164062500000e+01) (4, -1.08516921997070312500e+01) (5, 1.85970954895019531250e+01) (6, -3.14628124237060546875e+00) (7, 2.84293460845947265625e+01) (8, 3.73229575157165527344e+00) (9, 3.65139465332031250000e+01) (10, -2.16032428741455078125e+01) (11, 3.53645348548889160156e+00) (12, 1.72282142639160156250e+01) (13, -4.35216236114501953125e+00) (14, -3.87571573257446289062e+00) (15, 6.73831129074096679688e+00) (16, 2.01213693618774414062e+00) (17, -2.03378906250000000000e+01) (18, 1.47954969406127929688e+01) (19, -3.58764266967773437500e+00) (20, 3.99356460571289062500e+00) (21, -7.36680936813354492188e+00) (22, 1.65184116363525390625e+01) (23, -1.21616754531860351562e+01) (24, 1.79224109649658203125e+01) (25, -1.15995464324951171875e+01) (26, 2.46133842468261718750e+01) (27, -1.44001665115356445312e+01) (28, 1.94523811340332031250e+01) (29, 9.38229942321777343750e+00) (30, -4.59568977355957031250e+00) (31, -1.82481956481933593750e+01) (32, -6.48023724555969238281e-01) (33, 2.61770668029785156250e+01) (34, -1.03699035644531250000e+01) (35, 9.25978565216064453125e+00) (36, -1.02033967971801757812e+01) (37, 5.99214601516723632812e+00) (38, -1.25619947910308837891e+00) (39, 1.58688583374023437500e+01) (40, 6.05467033386230468750e+00) (41, 4.11924570798873901367e-01) (42, -2.03560304641723632812e+00) (43, -5.65476369857788085938e+00) (44, -1.20298347473144531250e+01) (45, 2.49446296691894531250e+00) (46, 3.46999092102050781250e+01) (47, -8.80105686187744140625e+00) (48, 3.44880127906799316406e+00) (49, 1.81344242095947265625e+01) (50, -2.25090312957763671875e+00) (51, -1.50122394561767578125e+01) (52, 3.73234510421752929688e+00) (0, -2.20799541473388671875e+00) (1, 4.59241926670074462891e-01) (2, 5.72107028961181640625e+00) (3, 2.69228935241699218750e+00) (4, -3.02091407775878906250e+00) (5, 1.24994716644287109375e+01) (6, 1.37989282608032226562e+01) (7, -3.56740260124206542969e+00) (8, 2.87954807281494140625e+00) (9, -1.25637352466583251953e+00) (10, 7.60671496391296386719e-01) (11, 5.24079227447509765625e+00) (12, -1.61686468124389648438e+00) (13, 9.74878501892089843750e+00) (14, 8.19134616851806640625e+00) (15, -3.51473569869995117188e+00) (16, 5.77949285507202148438e+00) (17, 1.91260516643524169922e+00) (18, 1.88920247554779052734e+00) (19, -4.45256710052490234375e+00) (20, -1.10368967056274414062e+00) (21, 3.09494256973266601562e+00) (22, 3.42966771125793457031e+00) (23, -6.22816514968872070312e+00) (24, 5.01102304458618164062e+00) (25, 1.07673275470733642578e+00) (26, 1.32852876186370849609e+00) (27, -3.54601621627807617188e+00) (28, 7.13276481628417968750e+00) (29, 3.75416308641433715820e-01) (30, -4.21886253356933593750e+00) (31, 2.70006637573242187500e+01) (32, -8.13092768192291259766e-01) (33, 1.24232025146484375000e+01) (34, 3.29012960195541381836e-01) (35, 5.36827683448791503906e-01) (36, 5.49867439270019531250e+00) (37, -1.04205970764160156250e+01) (38, 5.12856006622314453125e+00) (39, 2.00685095787048339844e+00) (40, 6.82111787796020507812e+00) (41, -9.50536966323852539062e-01) (42, 1.13613617420196533203e+00) (43, 2.38966155052185058594e+00) (44, 5.28620767593383789062e+00) (45, 2.10136485099792480469e+00) (46, -1.67586624622344970703e+00) (47, 2.38456472754478454590e-01) (48, 3.23570561408996582031e+00) (49, -5.37144660949707031250e+00) (50, 8.27749156951904296875e+00) (51, 1.10269539058208465576e-01) (52, 2.30473113059997558594e+00) (0, 1.69187200069427490234e+00) (1, -8.00565183162689208984e-01) (2, -7.93266344070434570312e+00) (3, 1.70748786926269531250e+01) (4, -9.89719867706298828125e+00) (5, -1.07867193222045898438e+00) (6, 4.08280134201049804688e+00) (7, 6.78497314453125000000e+00) (8, 9.14824008941650390625e+00) (9, 2.25898418426513671875e+01) (10, -2.56382179260253906250e+01) (11, -2.70233869552612304688e+00) (12, -2.48060393333435058594e+00) (13, -9.24309253692626953125e+00) (14, 1.15400819778442382812e+01) (15, 6.21417462825775146484e-01) (16, 4.25950384140014648438e+00) (17, -1.72793066501617431641e+00) (18, -2.07926630973815917969e+00) (19, 3.39329290390014648438e+00) (20, 1.49072170257568359375e+00) (21, 1.04951009750366210938e+01) (22, -3.75066614151000976562e+00) (23, -4.08301782608032226562e+00) (24, 4.64797592163085937500e+00) (25, -4.85084839165210723877e-02) (26, 1.02919411659240722656e+00) (27, -6.24257135391235351562e+00) (28, 2.68111014366149902344e+00) (29, 3.67818737030029296875e+00) (30, 8.83189260959625244141e-01) (31, -1.08793821334838867188e+01) (32, 1.17428359985351562500e+01) (33, 3.26270675659179687500e+00) (34, -1.72148342132568359375e+01) (35, 5.77333986759185791016e-01) (36, 2.17432212829589843750e+00) (37, 6.93426084518432617188e+00) (38, -2.27518343925476074219e+00) (39, -2.76262331008911132812e+00) (40, -7.58097839355468750000e+00) (41, 1.73888397216796875000e+01) (42, -1.98579871654510498047e+00) (43, 2.21386384963989257812e+00) (44, -2.66728401184082031250e+00) (45, 6.02080726623535156250e+00) (46, 1.53502118587493896484e+00) (47, -1.15020065307617187500e+01) (48, 1.83464050292968750000e+00) (49, -1.81939512491226196289e-01) (50, 3.90231721103191375732e-02) (51, -1.46978986263275146484e+00) (52, 3.60974717140197753906e+00) (0, 2.50254333019256591797e-01) (1, 4.85218276977539062500e+01) (2, -1.62395000457763671875e+01) (3, -2.37645778656005859375e+01) (4, 1.59116754531860351562e+01) (5, -2.79008941650390625000e+01) (6, -5.77713346481323242188e+00) (7, 8.13970661163330078125e+00) (8, 1.53504495620727539062e+01) (9, -1.49863834381103515625e+01) (10, -9.42142772674560546875e+00) (11, 2.25030403137207031250e+01) (12, 1.32561957836151123047e+00) (13, -3.12649512290954589844e+00) (14, -1.30790414810180664062e+01) (15, 3.16028022766113281250e+01) (16, -2.90970497131347656250e+01) (17, 2.39557456970214843750e+00) (18, 1.23959093093872070312e+01) (19, -2.13584289550781250000e+01) (20, 3.74501190185546875000e+01) (21, -9.97639274597167968750e+00) (22, -3.60291633605957031250e+01) (23, 9.01032066345214843750e+00) (24, 1.74940547943115234375e+01) (25, -7.77601718902587890625e+00) (26, -1.91332511901855468750e+01) (27, 8.63940715789794921875e+00) (28, 4.60017433166503906250e+01) (29, -1.58227682113647460938e+01) (30, -6.09174728393554687500e+00) (31, 7.28879868984222412109e-01) (32, 3.01708354949951171875e+01) (33, 1.40721595287322998047e+00) (34, -6.62968397140502929688e+00) (35, -2.54436473846435546875e+01) (36, -8.03555965423583984375e+00) (37, 2.34493103027343750000e+01) (38, -1.50192034244537353516e+00) (39, -1.76030540466308593750e+01) (40, -3.19538612365722656250e+01) (41, 1.30621814727783203125e+00) (42, 1.31542930603027343750e+01) (43, -1.47397642135620117188e+01) (44, -2.47423095703125000000e+01) (45, 4.56352186203002929688e+00) (46, -4.97725582122802734375e+00) (47, 7.51376190185546875000e+01) (48, -5.89952373504638671875e+00) (49, 3.18460063934326171875e+01) (50, -1.17813324928283691406e+00) (51, -2.83445796966552734375e+01) (52, 4.55496549606323242188e+00) (0, -1.28293170928955078125e+01) (1, -6.00747776031494140625e+00) (2, 4.50383138656616210938e+00) (3, 3.06361560821533203125e+01) (4, -1.53697323799133300781e+00) (5, 1.79707217216491699219e+00) (6, -2.49157118797302246094e+00) (7, 8.69254493713378906250e+00) (8, 3.17521452903747558594e+00) (9, 1.55741043090820312500e+01) (10, -2.97348618507385253906e+00) (11, -1.00792436599731445312e+01) (12, 1.95617687702178955078e+00) (13, -1.12774267196655273438e+01) (14, 4.21832025051116943359e-01) (15, 6.72079658508300781250e+00) (16, 9.92680931091308593750e+00) (17, -1.96040248870849609375e+00) (18, -1.08704233169555664062e+00) (19, 2.84692078828811645508e-01) (20, 4.47132158279418945312e+00) (21, -3.29275970458984375000e+01) (22, 1.18537111282348632812e+01) (23, -2.61435909271240234375e+01) (24, 2.66815924644470214844e+00) (25, -1.28732967376708984375e+01) (26, 7.89833784103393554688e+00) (27, -1.71866524219512939453e+00) (28, 3.83396840095520019531e+00) (29, -4.76536703109741210938e+00) (30, 3.07803726196289062500e+00) (31, -6.77890777587890625000e+00) (32, 3.11157512664794921875e+00) (33, 1.21384410858154296875e+01) (34, -1.95602190494537353516e+00) (35, -2.25451850891113281250e+01) (36, -3.74366253614425659180e-01) (37, 8.83754348754882812500e+00) (38, -2.55668330192565917969e+00) (39, -2.24094510078430175781e+00) (40, 4.27409744262695312500e+00) (41, -2.95375967025756835938e+00) (42, 1.16841995716094970703e+00) (43, -5.55261373519897460938e+00) (44, -2.47904229164123535156e+00) (45, 5.46009242534637451172e-01) (46, 1.80763101577758789062e+00) (47, 1.96764194965362548828e+00) (48, -3.33843755722045898438e+00) (49, 1.18143405914306640625e+01) (50, -8.86923551559448242188e-01) (51, -1.47277402877807617188e+00) (52, 3.52906346321105957031e+00) (0, -3.59096031188964843750e+01) (1, -9.21750335693359375000e+01) (2, 7.12937240600585937500e+01) (3, 1.08236791992187500000e+03) (4, -5.46160461425781250000e+02) (5, 1.05374809265136718750e+02) (6, 7.35625839233398437500e+01) (7, -1.58184158325195312500e+02) (8, -4.76364631652832031250e+01) (9, -6.85691406250000000000e+02) (10, 1.66436050415039062500e+02) (11, 6.14523582458496093750e+01) (12, -1.48262948989868164062e+01) (13, -4.81533691406250000000e+02) (14, 4.52398223876953125000e+02) (15, 8.02464233398437500000e+02) (16, -1.63175754547119140625e+01) (17, 1.40630081176757812500e+02) (18, -1.00874862670898437500e+01) (19, 9.58716430664062500000e+02) (20, 6.36089897155761718750e+01) (21, -9.52122802734375000000e+01) (22, 1.39361968994140625000e+02) (23, -2.69997882843017578125e+01) (24, 1.35226611328125000000e+03) (25, 2.93706268310546875000e+02) (26, -1.74359970092773437500e+01) (27, -2.61312347412109375000e+02) (28, 1.24192724609375000000e+03) (29, -4.12362365722656250000e+01) (30, -2.51911258697509765625e+00) (31, 4.01944503784179687500e+01) (32, 2.38563613891601562500e+02) (33, -5.78640319824218750000e+02) (34, 3.87301910400390625000e+02) (35, -3.03624668121337890625e+01) (36, 2.25949421525001525879e-01) (37, 3.98012176513671875000e+02) (38, -5.68199932575225830078e-01) (39, -1.12373703002929687500e+02) (40, 1.01338783264160156250e+02) (41, 7.27364196777343750000e+01) (42, -4.40035705566406250000e+01) (43, -3.27314643859863281250e+01) (44, 8.77560424804687500000e+01) (45, 2.43136657714843750000e+02) (46, -3.14427337646484375000e+02) (47, -3.46142395019531250000e+02) (48, 1.19304367065429687500e+02) (49, 1.17556648254394531250e+02) (50, -2.45028320312500000000e+02) (51, -1.77792015075683593750e+01) (52, 1.47059667110443115234e+00) (0, -2.30531644821166992188e+00) (1, 9.06301975250244140625e+00) (2, 5.29369258880615234375e+00) (3, -1.55996227264404296875e+00) (4, 1.70099582672119140625e+01) (5, -3.33672637939453125000e+01) (6, 5.93095207214355468750e+00) (7, 6.49138927459716796875e+00) (8, 9.93027448654174804688e-01) (9, 3.22620123624801635742e-01) (10, 7.25103676319122314453e-01) (11, 3.68749618530273437500e+00) (12, -4.52825260162353515625e+00) (13, 2.38061666488647460938e+00) (14, 8.56698036193847656250e+00) (15, 1.28657317161560058594e+00) (16, 1.45730705261230468750e+01) (17, -3.33127975463867187500e+01) (18, 4.26561927795410156250e+00) (19, 3.53597044944763183594e+00) (20, 1.47131652832031250000e+01) (21, 2.16820311546325683594e+00) (22, 5.05466127395629882812e+00) (23, -3.58799552917480468750e+01) (24, 1.09771223068237304688e+01) (25, -2.89879918098449707031e+00) (26, -4.59135198593139648438e+00) (27, 2.20849437713623046875e+01) (28, -9.14983153343200683594e-01) (29, 6.25509023666381835938e+00) (30, -1.83622658252716064453e+00) (31, 1.12851276397705078125e+01) (32, -4.58082628250122070312e+00) (33, -3.35140436887741088867e-01) (34, 6.86037063598632812500e+00) (35, 6.72805070877075195312e+00) (36, -1.65670931339263916016e+00) (37, 5.92532920837402343750e+00) (38, 5.72377204895019531250e+00) (39, -3.67814660072326660156e+00) (40, 1.34529328346252441406e+00) (41, -7.55375623703002929688e+00) (42, 7.67357444763183593750e+00) (43, 8.66220760345458984375e+00) (44, 2.74772453308105468750e+00) (45, -1.85023117065429687500e+01) (46, 1.26678924560546875000e+01) (47, 5.79296731948852539062e+00) (48, -4.66567307710647583008e-01) (49, 6.32947587966918945312e+00) (50, -1.73637616634368896484e+00) (51, 5.73428392410278320312e+00) (52, 2.35400390625000000000e+00) (0, 3.59232211112976074219e+00) (1, -4.24107885360717773438e+00) (2, 1.40056419372558593750e+00) (3, 7.65179729461669921875e+00) (4, 8.07695674896240234375e+00) (5, -2.08933547139167785645e-01) (6, 1.01735186576843261719e+00) (7, 3.31389844417572021484e-01) (8, 2.15007138252258300781e+00) (9, -1.08774538040161132812e+01) (10, 1.90353546142578125000e+01) (11, 2.02572727203369140625e+00) (12, 2.42225780487060546875e+01) (13, 2.20327329635620117188e+00) (14, 4.34889048337936401367e-01) (15, -1.21761107444763183594e+00) (16, -6.56519603729248046875e+00) (17, 2.99346518516540527344e+00) (18, 4.09407186508178710938e+00) (19, 4.84116601943969726562e+00) (20, 9.11279964447021484375e+00) (21, 1.92420399188995361328e+00) (22, 4.96681690216064453125e+00) (23, -1.99063796997070312500e+01) (24, -2.09046816825866699219e+00) (25, -1.53635823726654052734e+00) (26, 8.49225139617919921875e+00) (27, 1.09759874343872070312e+01) (28, 6.84025478363037109375e+00) (29, -1.80328345298767089844e+00) (30, -3.43067705631256103516e-01) (31, 1.57462453842163085938e+01) (32, -3.46414542198181152344e+00) (33, 2.60783481597900390625e+00) (34, 2.30123662948608398438e+00) (35, 1.22535390853881835938e+01) (36, 1.85268726348876953125e+01) (37, 5.18699347972869873047e-01) (38, 2.70834064483642578125e+00) (39, -3.57014584541320800781e+00) (40, 2.58974857330322265625e+01) (41, 5.71016216278076171875e+00) (42, -3.50488448143005371094e+00) (43, -1.99452066421508789062e+00) (44, 3.21550822257995605469e+00) (45, -3.00209093093872070312e+00) (46, 2.03443312644958496094e+00) (47, 3.72146844863891601562e+00) (48, 1.03454656600952148438e+01) (49, 5.64072751998901367188e+00) (50, -7.07058191299438476562e+00) (51, 5.56841945648193359375e+00) (52, 2.41014099121093750000e+00) (53, 6.38318777084350585938e-01) (54, 5.63764691352844238281e-01) (55, 5.04928112030029296875e-01) (56, 7.06337511539459228516e-01) (57, 6.36201620101928710938e-01) (58, -5.91420471668243408203e-01) (59, 9.27700579166412353516e-01) (60, 5.11196792125701904297e-01) (61, -6.59807443618774414062e-01) (62, 6.86129748821258544922e-01) (63, 5.88892579078674316406e-01) (64, -5.13465225696563720703e-01) (65, 5.75098872184753417969e-01) (66, 8.46907615661621093750e-01) (67, -5.40893077850341796875e-01) (68, -4.60444301366806030273e-01) (69, 5.15332758426666259766e-01) (70, -5.35108029842376708984e-01) (71, 5.05672216415405273438e-01) (72, -5.78046023845672607422e-01) (73, -4.71904665231704711914e-01) (74, -6.73097491264343261719e-01) (75, -9.50811445713043212891e-01) 
